<?xml version="1.0"?>
<opencv_storage>
<opencv_ml_ann_mlp>
  <format>3</format>
  <layer_sizes>
    2700 5 4</layer_sizes>
  <activation_function>SIGMOID_SYM</activation_function>
  <f_param1>6.6666666666666663e-01</f_param1>
  <f_param2>1.7159000000000000e+00</f_param2>
  <min_val>-9.4999999999999996e-01</min_val>
  <max_val>9.4999999999999996e-01</max_val>
  <min_val1>-9.7999999999999998e-01</min_val1>
  <max_val1>9.7999999999999998e-01</max_val1>
  <training_params>
    <train_method>BACKPROP</train_method>
    <dw_scale>1.0000000000000001e-01</dw_scale>
    <moment_scale>1.0000000000000001e-01</moment_scale>
    <term_criteria>
      <iterations>100000</iterations></term_criteria></training_params>
  <input_scale>
    9.3052147913701890e-03 -1.7041836232195118e+00
    9.1863552218100272e-03 -1.6793532236442235e+00
    1.1769274151187817e-02 -2.4855586124056179e+00
    9.2881391831094173e-03 -1.6957488394305480e+00
    9.1098978048327790e-03 -1.6692803215712635e+00
    1.1743794672783569e-02 -2.4455054335277402e+00
    9.2320313215611891e-03 -1.6899013523848194e+00
    9.0758877382839075e-03 -1.6708277141050281e+00
    1.1547557026299228e-02 -2.4178384878398909e+00
    9.1604816069878262e-03 -1.6728784267999197e+00
    9.1713358288743590e-03 -1.6595750547486936e+00
    1.1542420733958027e-02 -2.4305040231220190e+00
    9.1811598009365579e-03 -1.6897706014580853e+00
    9.3315971265548886e-03 -1.6943514211216091e+00
    1.1581498356510221e-02 -2.4343206545541012e+00
    9.7029191874504553e-03 -1.7687035547409686e+00
    9.7236770478291122e-03 -1.7660049647819158e+00
    1.1734044762154961e-02 -2.4010090639514226e+00
    1.0236213248122896e-02 -1.8654280047888727e+00
    1.0205199711777980e-02 -1.8665796234732963e+00
    1.1893880930057095e-02 -2.4642988536513535e+00
    1.0109955092050605e-02 -1.7292837471736082e+00
    9.9773087607036258e-03 -1.7089704577262352e+00
    1.1881298886485521e-02 -2.3870095239086861e+00
    9.7281540011019199e-03 -1.5773506844643828e+00
    9.5096992760801240e-03 -1.5772515513612893e+00
    1.2044365647893499e-02 -2.3652839967577517e+00
    9.9136087440916763e-03 -1.6555726602633098e+00
    9.6971740257183955e-03 -1.6614491497397519e+00
    1.1993919400346229e-02 -2.3845054045926428e+00
    1.1677310845551788e-02 -2.2053435625456377e+00
    1.1359592326929777e-02 -2.1896966542577019e+00
    1.8851473538134694e-02 -4.1284727048514975e+00
    1.1528310347324157e-02 -2.1272477426610052e+00
    1.1312238465224288e-02 -2.1105404907975602e+00
    1.7966787009052722e-02 -3.8329145619312475e+00
    1.1717078994580776e-02 -2.1631959648566510e+00
    1.1504095051927805e-02 -2.1446920061093979e+00
    1.8125134362432439e-02 -3.8615167208344157e+00
    1.2026812864534900e-02 -2.2157970939469300e+00
    1.1825764120290003e-02 -2.1911451520023046e+00
    1.8501218886606802e-02 -3.9196153726911267e+00
    1.1807300444113475e-02 -2.1168802939089160e+00
    1.1662074728927628e-02 -2.0897327240454602e+00
    1.8152755399140803e-02 -3.7602136183934523e+00
    1.1730983215265762e-02 -2.0981701407875337e+00
    1.1517697355627556e-02 -2.0633132119938504e+00
    1.8608599190086218e-02 -3.8307130618448912e+00
    1.1661621587151449e-02 -2.1085322460197169e+00
    1.1333467028484779e-02 -2.0734847773065961e+00
    1.8489755697939345e-02 -3.8951752003658884e+00
    1.1404107205005969e-02 -2.1184486765108708e+00
    1.1515833830457529e-02 -2.1545576723746493e+00
    1.8714972046441056e-02 -3.9755947761511212e+00
    1.1437684556334354e-02 -2.1339451472246669e+00
    1.1775359887082389e-02 -2.2272252129281549e+00
    1.7891250837161112e-02 -3.8031687493851054e+00
    1.1365034156470864e-02 -2.1593564897294639e+00
    1.1589442801023697e-02 -2.2328993129972323e+00
    1.8444684232578019e-02 -4.0306026639666914e+00
    9.7760405211127534e-03 -1.6521508480680553e+00
    9.8326999429214634e-03 -1.6776458997851240e+00
    1.1912167929202485e-02 -2.3693869257275608e+00
    1.0212191212957685e-02 -1.7248877253505195e+00
    1.0150740249986809e-02 -1.7203087880810979e+00
    1.2255317152597129e-02 -2.4475619113329699e+00
    9.9613992616165003e-03 -1.7166811394185770e+00
    9.9054840620166427e-03 -1.7070450866875349e+00
    1.2042159426660360e-02 -2.4204740447587323e+00
    1.0264780533192294e-02 -1.8501044913396587e+00
    9.9939352269011392e-03 -1.8293660482003797e+00
    1.1801332786658316e-02 -2.4114056660738492e+00
    9.6009974896490487e-03 -1.7039484592343812e+00
    9.5155355088537130e-03 -1.7023746146077809e+00
    1.1767311711420378e-02 -2.3758762693534479e+00
    9.2293668212922488e-03 -1.6815027361078165e+00
    9.1061354032342112e-03 -1.6577502688840184e+00
    1.1829140704072779e-02 -2.4503220029865043e+00
    9.1822287258078641e-03 -1.6838458487183849e+00
    9.1320576364815505e-03 -1.6846472039871203e+00
    1.1638291612397817e-02 -2.4279693120911827e+00
    9.1403545992620790e-03 -1.6700733617794570e+00
    9.1279883264382081e-03 -1.6682485331842782e+00
    1.1517101483403524e-02 -2.3796525398327568e+00
    9.4114079550850788e-03 -1.7437994453921923e+00
    9.3103748990002282e-03 -1.7233060586863755e+00
    1.1671703877713430e-02 -2.4527252005880649e+00
    9.6493496299334246e-03 -1.7956980168466583e+00
    9.4721239473081510e-03 -1.7699340175827232e+00
    1.1692077636326046e-02 -2.4113518210918148e+00
    9.1813124816342538e-03 -1.6679384341635559e+00
    9.0065586112502306e-03 -1.6413380859645064e+00
    1.1674365638956598e-02 -2.4082548546647611e+00
    9.0732189278789413e-03 -1.6595349477134769e+00
    9.1281487178217716e-03 -1.6648004566313042e+00
    1.1579649467007654e-02 -2.4030529703437788e+00
    9.1681101108581336e-03 -1.7022124439159934e+00
    9.2662640843701478e-03 -1.7120526022550560e+00
    1.1605476559173640e-02 -2.4299657347945951e+00
    9.5738721745330813e-03 -1.7807402244631532e+00
    9.6909457800518680e-03 -1.8048232831325171e+00
    1.1710675233826476e-02 -2.4157450053779188e+00
    1.0181878319591145e-02 -1.8516473001199325e+00
    1.0092205352737558e-02 -1.8497570667946124e+00
    1.1852333226602287e-02 -2.3693378516798287e+00
    1.0871881032232300e-02 -1.9491729564930766e+00
    1.0708027071428599e-02 -1.9223458123469437e+00
    1.2036433665499778e-02 -2.4405302165570499e+00
    1.0479634280395514e-02 -1.7271435354499463e+00
    1.0233777165294050e-02 -1.6837000050519497e+00
    1.2125325717843720e-02 -2.3973501133565298e+00
    1.1569765025311955e-02 -2.1293877058490809e+00
    1.1235860168919958e-02 -2.0759589264480685e+00
    1.8818186442587440e-02 -4.1552347873465694e+00
    1.1847718502625415e-02 -2.1359743929018964e+00
    1.1888847890223868e-02 -2.1235746874395107e+00
    1.8651515815621200e-02 -4.1077743165356218e+00
    1.1227522701608428e-02 -1.8856891699320442e+00
    1.1020053051432738e-02 -1.8256554555206903e+00
    1.8112159174821445e-02 -3.8734146121011004e+00
    1.1037925161670110e-02 -1.8054891871588967e+00
    1.0732196967782569e-02 -1.7329942817976520e+00
    1.9030875649259808e-02 -4.1405748019746698e+00
    1.1983100582266785e-02 -1.9886240728190356e+00
    1.1715897317554935e-02 -1.9202913603344802e+00
    6.2124739853196852e-02 -1.4137815798020370e+01
    1.1508174483476847e-02 -1.7684228122942753e+00
    1.1368627518911014e-02 -1.7334450150263365e+00
    4.6816487963347669e-02 -1.0477975877511144e+01
    1.1526101373011691e-02 -1.7278174820114669e+00
    1.1512462387752841e-02 -1.7285139956468909e+00
    4.6083225592584751e-02 -1.0408225665982355e+01
    1.1582040865445432e-02 -1.7505427479487525e+00
    1.1649460464100501e-02 -1.7679443094803950e+00
    5.2501312549220580e-02 -1.2110302761353546e+01
    1.1212782482474837e-02 -1.6573560393143758e+00
    1.1083737324106335e-02 -1.6345873567979676e+00
    6.2349411327843315e-02 -1.4527412839387493e+01
    1.1695351847075382e-02 -1.7788073237885129e+00
    1.1257828636035659e-02 -1.6865299470937229e+00
    5.3499755490904702e-02 -1.2360991125803315e+01
    1.1328479162403145e-02 -1.7100609021341893e+00
    1.1192834104444944e-02 -1.6965138549737266e+00
    4.1357016542741043e-02 -9.2541247968733416e+00
    1.0841852803699370e-02 -1.6505430196869946e+00
    1.0598242676360361e-02 -1.6159796690336132e+00
    1.9292834502868859e-02 -4.2545293610850328e+00
    1.0850561666735292e-02 -1.7639913109635377e+00
    1.0333784769986230e-02 -1.6642314329568297e+00
    1.9100208894626495e-02 -4.2284224357675511e+00
    1.1218025545583772e-02 -1.8910385919698360e+00
    1.0668795369565531e-02 -1.7852450918406322e+00
    1.8404222361215285e-02 -3.9498966753332043e+00
    1.1729047182062935e-02 -2.0872118723509141e+00
    1.1437609912458069e-02 -2.0266355468693562e+00
    1.7831078827141546e-02 -3.8574567196049547e+00
    1.0897441339976175e-02 -1.8390729575655029e+00
    1.0789036651721392e-02 -1.8074205209883740e+00
    1.2361228972298041e-02 -2.5199248204956151e+00
    1.0152035430529567e-02 -1.6973236379328245e+00
    9.8996929324502957e-03 -1.6490059941767208e+00
    1.1810691118952485e-02 -2.4003823664613906e+00
    1.0635912571297274e-02 -1.8982571579629612e+00
    1.0449465795319685e-02 -1.8535361946459916e+00
    1.1983666388574883e-02 -2.4754830854113261e+00
    9.9005708571063260e-03 -1.7665447143608286e+00
    9.7552598763809787e-03 -1.7601276034098823e+00
    1.1736122558762380e-02 -2.3427536079205664e+00
    9.3117056304813633e-03 -1.7120235923470735e+00
    9.2143912716716406e-03 -1.6818457973484475e+00
    1.1731814283450234e-02 -2.4407760287806699e+00
    9.0768643486595618e-03 -1.6645240288899035e+00
    9.1384002364994638e-03 -1.6640591668749500e+00
    1.1463715547078559e-02 -2.4079261561030250e+00
    9.2720446101464543e-03 -1.7064977342007639e+00
    9.3366425492594964e-03 -1.7259450655345412e+00
    1.1619538144415468e-02 -2.4080109525950530e+00
    9.2765450444782776e-03 -1.7254373782729597e+00
    9.2550931034373011e-03 -1.7201251610817041e+00
    1.1466196481014273e-02 -2.4089932797254749e+00
    9.3241637858207209e-03 -1.7227502613802093e+00
    9.1638092083402185e-03 -1.6905046130052384e+00
    1.1493355939445948e-02 -2.3933545487236731e+00
    9.2597327147983678e-03 -1.7126096125846124e+00
    9.3190174330639031e-03 -1.7115928685394035e+00
    1.1688679428373767e-02 -2.4379245664893858e+00
    9.6413062410266176e-03 -1.8056789259979851e+00
    9.7426536028113880e-03 -1.8232680313832741e+00
    1.1958714613406999e-02 -2.4634952103618417e+00
    1.0548372352718584e-02 -1.9147807337411067e+00
    1.0388813942377836e-02 -1.9070894165650742e+00
    1.2196364155864173e-02 -2.3962951670045514e+00
    1.1098494564133501e-02 -2.0082990163670145e+00
    1.0903585519330423e-02 -1.9719913239246165e+00
    1.1770838153455381e-02 -2.4057351121252615e+00
    1.0442257333221367e-02 -1.7214807089339226e+00
    1.0107046095467000e-02 -1.6556304080193560e+00
    1.1948698538772022e-02 -2.4051023201613968e+00
    1.1019251984072392e-02 -1.8942618886905398e+00
    1.0917684072059949e-02 -1.8705632043462712e+00
    1.8953222977135170e-02 -4.1038240417635059e+00
    9.9543619557420932e-03 -1.6225609987859613e+00
    9.6829277024704681e-03 -1.5423520554649388e+00
    1.9397057365000473e-02 -4.3033757268351049e+00
    1.0017556329800153e-02 -1.4811672573347370e+00
    9.9449745323126545e-03 -1.4846426266095318e+00
    1.9329544471094973e-02 -4.2414543296574108e+00
    1.0941994787152949e-02 -1.5902365757328953e+00
    1.0729297010438187e-02 -1.5475733640293938e+00
    4.7303536508117784e-02 -1.0530668246450031e+01
    1.0461813455777163e-02 -1.4143375429024461e+00
    9.9371552459486742e-03 -1.3230612413177378e+00
    4.6265159470470038e-02 -1.0226803345805806e+01
    1.0217803480096266e-02 -1.3759975353196303e+00
    9.7846874217320575e-03 -1.3134778019934605e+00
    4.4146688178862338e-02 -9.9519248494635377e+00
    9.6251643644531919e-03 -1.2384378148929773e+00
    9.4331037230938712e-03 -1.2164211848637241e+00
    4.1181695817699850e-02 -9.1776350679445375e+00
    9.1764882971057237e-03 -1.1134139133821610e+00
    9.0035449709213924e-03 -1.0842840586409619e+00
    3.6900756955250483e-02 -8.0707226997840706e+00
    9.2328182719145536e-03 -1.1228865650699891e+00
    8.9470623678645500e-03 -1.0762037876774215e+00
    3.6130078286803938e-02 -7.8952823456258701e+00
    9.4485035227923758e-03 -1.1743140092613382e+00
    9.0651657876601194e-03 -1.1132886936369262e+00
    4.0195234177758978e-02 -8.8065844024699551e+00
    9.2692748926650349e-03 -1.1582179675406215e+00
    9.0487556700011313e-03 -1.1254928480972834e+00
    3.7027881660925223e-02 -8.1778721496843421e+00
    9.5343939722733612e-03 -1.2730686046787858e+00
    9.2417260720161556e-03 -1.2357508004867317e+00
    3.8141491476334888e-02 -8.4855737227350758e+00
    1.0380690054774711e-02 -1.4300636346887257e+00
    1.0336999224409400e-02 -1.4196145601522243e+00
    4.1091248412182209e-02 -9.1398676825382417e+00
    1.0757953912969707e-02 -1.4897204751864719e+00
    1.0829105173555058e-02 -1.4871971105015613e+00
    4.4370004136099601e-02 -9.7783037686604271e+00
    1.0614036855418101e-02 -1.5658231513373941e+00
    1.0327424791066270e-02 -1.5097711480273073e+00
    4.3998576105402434e-02 -9.9101554751692156e+00
    1.0100562598223901e-02 -1.5203751606183691e+00
    9.7627058001284878e-03 -1.4709143405526921e+00
    1.8767213167454500e-02 -4.0894651168700848e+00
    1.0219802151995996e-02 -1.6453881464713553e+00
    1.0148914555516541e-02 -1.6528232276126940e+00
    1.8582862927795391e-02 -3.9643440912630168e+00
    1.2172160337672084e-02 -2.2054795278496324e+00
    1.2594668545767742e-02 -2.3228167275123077e+00
    3.5514443403629248e-02 -8.0296465371634138e+00
    1.0267614352896578e-02 -1.7274038813706480e+00
    1.0032509317913905e-02 -1.6773400102474154e+00
    1.1853601993906152e-02 -2.4170058922812450e+00
    1.1000314049729830e-02 -1.9460079378450628e+00
    1.0967392848558433e-02 -1.9360059661717195e+00
    1.2171330265192437e-02 -2.4968614658309054e+00
    1.0133454698992633e-02 -1.7892785725649851e+00
    1.0019462567333451e-02 -1.7729677571529099e+00
    1.1928730112540441e-02 -2.3687049794901736e+00
    9.2200343238306327e-03 -1.7070234976692142e+00
    9.1768632971766465e-03 -1.6950977490356292e+00
    1.1522117317474578e-02 -2.4130605696311043e+00
    9.0591277623910359e-03 -1.6487612527551685e+00
    9.1831259279047013e-03 -1.6687051686135401e+00
    1.1556159601235662e-02 -2.4020303171139838e+00
    9.0839644134159125e-03 -1.6653934757929174e+00
    9.2254402679308768e-03 -1.7014347694141088e+00
    1.1547839861026209e-02 -2.4156981194994351e+00
    9.4650478765980952e-03 -1.7541888731295137e+00
    9.4139949188272020e-03 -1.7321750650642052e+00
    1.1513310161839770e-02 -2.4117643524730070e+00
    9.6605682165551675e-03 -1.8189469870599586e+00
    9.7600357001423974e-03 -1.8297743119743153e+00
    1.1728673992873504e-02 -2.4200164005295663e+00
    1.0590180757622272e-02 -1.9380030786448756e+00
    1.0414445261035561e-02 -1.9147701501361096e+00
    1.2215501663663222e-02 -2.4250679255148557e+00
    1.1218063959993231e-02 -2.0416876407187678e+00
    1.0928775640637765e-02 -1.9911188381466711e+00
    1.2353663609064794e-02 -2.5330893095539526e+00
    1.0238324954273818e-02 -1.6220431963270947e+00
    9.9731336029559650e-03 -1.5420364194665723e+00
    1.2032366890752799e-02 -2.4173598053374312e+00
    9.8447116849461960e-03 -1.5995312509064963e+00
    9.7845535977589878e-03 -1.5729834736206829e+00
    1.8038188616565566e-02 -3.8661850934838866e+00
    9.6290247035496802e-03 -1.4929573540360837e+00
    9.7425655310672907e-03 -1.4989632967084960e+00
    1.8812794115512645e-02 -4.0913347964545839e+00
    1.0260427649548858e-02 -1.4882506009774199e+00
    1.0141496258414652e-02 -1.4260875452904034e+00
    4.1551340887645748e-02 -9.1749317950482538e+00
    1.0009387351489743e-02 -1.2640426312452762e+00
    9.6508718551031984e-03 -1.2385285547382439e+00
    3.9356356267419318e-02 -8.3791556605538933e+00
    1.0047885994916394e-02 -1.3306271881839280e+00
    9.7191521416399411e-03 -1.3097714552781443e+00
    4.0521818603573186e-02 -8.9784772363060021e+00
    1.0146964285088355e-02 -1.2645050254322012e+00
    9.7369213429549708e-03 -1.2324160442654435e+00
    4.5072265541698797e-02 -9.8515094683998807e+00
    9.6178449143474870e-03 -1.0749086673320738e+00
    9.2979645681731758e-03 -1.0449141133756521e+00
    4.0221324596674712e-02 -8.5020218992685255e+00
    9.4400224962040615e-03 -1.0518882210055955e+00
    9.3698548644858375e-03 -1.0471928269975361e+00
    3.7451544970516219e-02 -7.9397275337494388e+00
    9.7177284785604952e-03 -1.1018053098786924e+00
    9.7802444287675098e-03 -1.1107563315528814e+00
    3.9568867769036765e-02 -8.4620850071782918e+00
    9.7251721549196628e-03 -1.0957027294542820e+00
    9.6230015301475725e-03 -1.0667784553420738e+00
    4.0549306487739474e-02 -8.6331404431753889e+00
    9.6659310951368559e-03 -1.0890282367187525e+00
    9.4142370830695571e-03 -1.0378075641574298e+00
    3.9220627455941251e-02 -8.2456700103800298e+00
    9.9701657911190639e-03 -1.1299521229934939e+00
    9.7341091993916051e-03 -1.0943919914173132e+00
    4.0541144906114893e-02 -8.7144156241048876e+00
    9.7700249970906657e-03 -1.1268095496644568e+00
    9.7047135368049410e-03 -1.0860036576900767e+00
    3.9447628924600298e-02 -8.4248864631824922e+00
    9.8239746904313537e-03 -1.1849584709934580e+00
    9.8770840165218598e-03 -1.1772543473025816e+00
    3.6727320995019942e-02 -7.7599582502334989e+00
    9.4199352235190981e-03 -1.2196573272737348e+00
    9.3383631082000693e-03 -1.2242149350892757e+00
    4.1378366492249144e-02 -8.8727040149808509e+00
    1.0075532032753168e-02 -1.3885042715613174e+00
    9.8612526441086406e-03 -1.3768187025012635e+00
    4.5495275055538478e-02 -1.0134614129038523e+01
    1.0629166552478527e-02 -1.4460728019252929e+00
    1.0457052196417672e-02 -1.4221590987128034e+00
    4.4783347671425486e-02 -9.8544690280789116e+00
    9.1642175600816049e-03 -1.2406605011100953e+00
    9.0260445572984665e-03 -1.2202352618176358e+00
    1.8997377078382970e-02 -3.9876399124529582e+00
    9.9522690938772130e-03 -1.5667715059218126e+00
    9.7932912817710847e-03 -1.5851141460352343e+00
    1.9045411846353649e-02 -4.1772936649669008e+00
    1.0701443108768595e-02 -1.7728724083526637e+00
    1.0617775221252517e-02 -1.7731684619491703e+00
    1.8342451252507861e-02 -3.8615227136827261e+00
    9.9447314334035215e-03 -1.6541403284227858e+00
    9.7673805834184099e-03 -1.6190596100418801e+00
    1.2003767324369689e-02 -2.4596290855601319e+00
    1.1072410891799358e-02 -1.9993610524620555e+00
    1.1058922556103332e-02 -2.0258892892061677e+00
    1.1722642053483596e-02 -2.4003505157133076e+00
    1.0243848812829510e-02 -1.8087710189510393e+00
    1.0262811735917454e-02 -1.8135854453328415e+00
    1.2051074934278788e-02 -2.3832435334314193e+00
    9.2867822045867403e-03 -1.7061145592997926e+00
    9.3130057953453391e-03 -1.7038365840817522e+00
    1.1690461487737886e-02 -2.4399663190835787e+00
    9.1201033679118096e-03 -1.6681103350547266e+00
    9.1383500523744832e-03 -1.6827618882158155e+00
    1.1562618030028466e-02 -2.4055751511044936e+00
    9.7060029333502339e-03 -1.8358211262508157e+00
    9.8299806315802676e-03 -1.8424192269476158e+00
    1.1666663065845288e-02 -2.4372214699934895e+00
    1.0493388624572927e-02 -1.9277853958858264e+00
    1.0345939842686884e-02 -1.9199108365214661e+00
    1.1994999372420158e-02 -2.3795793993096370e+00
    1.1204984288787939e-02 -2.0494449834873558e+00
    1.0937194413170826e-02 -1.9978608461392042e+00
    1.1762238312858142e-02 -2.4191003463444911e+00
    1.0184349377327442e-02 -1.6265860862645831e+00
    9.8848476579544396e-03 -1.5467433049542043e+00
    1.2076015507294974e-02 -2.4324545521837018e+00
    9.7755829341441419e-03 -1.5529211746811837e+00
    9.8256843262210947e-03 -1.5571370208411335e+00
    1.8069773403225280e-02 -3.8092803264799198e+00
    9.9743687234782538e-03 -1.5526767312881147e+00
    1.0269315771701586e-02 -1.5995681852017090e+00
    2.8946166605804274e-02 -6.4205354309445859e+00
    1.0064577103596456e-02 -1.3663861582073094e+00
    9.8787362766165933e-03 -1.3058748525660793e+00
    4.1575274540132233e-02 -9.1802165734568160e+00
    9.9841985297660779e-03 -1.3126843876516259e+00
    9.9709614442897911e-03 -1.3123684491436658e+00
    3.8216576330282977e-02 -8.1838068455848827e+00
    1.0432835724801555e-02 -1.4829530780253639e+00
    1.0516421066462826e-02 -1.4943333553488132e+00
    4.6330643876077271e-02 -1.0263340729119593e+01
    1.0403471853160632e-02 -1.3440294827440380e+00
    1.0298468986474860e-02 -1.2976070922958323e+00
    3.8902098634287653e-02 -8.3528363210477643e+00
    1.0638417998580001e-02 -1.3713427391502886e+00
    1.0324925516686186e-02 -1.2817657534286135e+00
    3.8878757199612105e-02 -8.4737177001249808e+00
    1.1588362835732224e-02 -1.5655326364272535e+00
    1.1332381144956227e-02 -1.4764473720285827e+00
    5.2686378431335848e-02 -1.1844399646396978e+01
    1.1463797535686944e-02 -1.5285063380915926e+00
    1.1368677496999999e-02 -1.4752212466345236e+00
    4.5557754486720427e-02 -1.0113821496051935e+01
    1.1689287844818059e-02 -1.5713742659962560e+00
    1.1658160033008538e-02 -1.5499801339123733e+00
    4.7706331878001509e-02 -1.0563544915843190e+01
    1.1999220320891981e-02 -1.6593207529462053e+00
    1.1793305661029249e-02 -1.6156828755610071e+00
    5.2428614610804031e-02 -1.1888812513173752e+01
    1.1566974120720910e-02 -1.5769641384582842e+00
    1.1109459789828061e-02 -1.4902546775212213e+00
    5.5615920246086491e-02 -1.2669836307489417e+01
    1.1692534337862012e-02 -1.5523231301885376e+00
    1.1196572084606284e-02 -1.4646182626863551e+00
    5.3066524184911673e-02 -1.1806038142471778e+01
    1.1394262596238845e-02 -1.4362196710592487e+00
    1.0851535121527187e-02 -1.3517912322816723e+00
    4.6234874247734474e-02 -1.0206898905357001e+01
    1.0967961254976202e-02 -1.3866636729505626e+00
    1.0747418895985435e-02 -1.3480333986678874e+00
    3.9500629708652243e-02 -8.8067594426623721e+00
    1.0607464962445187e-02 -1.3547248109179995e+00
    1.0486444545308237e-02 -1.3148004041807899e+00
    4.9277042309856203e-02 -1.1023978322462117e+01
    9.8589506641623015e-03 -1.2708656879946356e+00
    9.5314237462189692e-03 -1.1959667414898565e+00
    4.0957856265510802e-02 -8.8995570542631324e+00
    1.0459721333425542e-02 -1.4329818226792992e+00
    1.0057462036800855e-02 -1.3697305440595453e+00
    3.6055022213456939e-02 -7.8136383854020250e+00
    1.1121976543982805e-02 -1.5099407203283324e+00
    1.0727734530187655e-02 -1.4308754485264581e+00
    4.0179780783285594e-02 -8.6883992636618999e+00
    8.9422995495113105e-03 -1.2451087563224321e+00
    8.6287709668127262e-03 -1.1558444156973429e+00
    3.7772105778899071e-02 -8.5976507439589316e+00
    9.8097195329368420e-03 -1.5391917076679473e+00
    9.8184218483272131e-03 -1.5260632815685724e+00
    1.8375495570828737e-02 -4.0356088367934353e+00
    1.0760750027361592e-02 -1.7760361711826320e+00
    1.0680307680643063e-02 -1.8003947233084021e+00
    1.8166239500737067e-02 -3.7785778161533101e+00
    1.0411309017983449e-02 -1.7719056395368022e+00
    1.0049577146275581e-02 -1.6926359222084155e+00
    1.3437601140063420e-02 -2.7899019509845959e+00
    1.0930001242277738e-02 -1.9809326061004320e+00
    1.0842841259890140e-02 -1.9573910102973104e+00
    1.1875624723774212e-02 -2.4463786930974876e+00
    1.0049395335306580e-02 -1.8122409588002868e+00
    9.9198957891853626e-03 -1.7907773779429386e+00
    1.1787206927322214e-02 -2.3422864051293142e+00
    9.5396930492331923e-03 -1.7616633164250628e+00
    9.3566983429099609e-03 -1.7024735413456649e+00
    1.1751305220141336e-02 -2.4655357523782251e+00
    1.0248590671670018e-02 -1.9267350462739634e+00
    1.0312836812851908e-02 -1.9456885453580599e+00
    1.1791149024649375e-02 -2.4115707171842411e+00
    1.0988726639696718e-02 -2.0109369750644994e+00
    1.0864621030138960e-02 -2.0001249953579632e+00
    1.2028055635036500e-02 -2.4285217091692743e+00
    1.0672343830743810e-02 -1.7822814197342163e+00
    1.0388470723188012e-02 -1.7348746107723980e+00
    1.3025871739927537e-02 -2.6113771440521396e+00
    1.0678766502325954e-02 -1.7909816962472387e+00
    1.0478979293222047e-02 -1.7440015538005262e+00
    2.8671941286448836e-02 -6.2900777860318948e+00
    1.0039697726435450e-02 -1.6249967891501951e+00
    1.0274029162562853e-02 -1.6702635981423610e+00
    4.3322642069983083e-02 -9.9043811703804181e+00
    9.9093762081891544e-03 -1.3165314105165591e+00
    9.4915140323434052e-03 -1.2388685696501558e+00
    4.7816518010445654e-02 -1.0344306729593077e+01
    1.0916146983185599e-02 -1.4222180069521808e+00
    1.0371115233195224e-02 -1.3492327055756834e+00
    4.8501044158435508e-02 -1.0388461744030616e+01
    1.0458849553764004e-02 -1.5060743357420165e+00
    1.0665756646914144e-02 -1.5475505001498762e+00
    5.1554897199637850e-02 -1.1631766806280197e+01
    1.0341640937469882e-02 -1.4197595629869366e+00
    1.0212778110019338e-02 -1.4059591198126620e+00
    3.8830075769456032e-02 -8.6498616404531106e+00
    1.0611548610489902e-02 -1.4997655369492395e+00
    1.0337302298863413e-02 -1.4531293517259427e+00
    4.6127005494588910e-02 -1.0290715273435669e+01
    1.0918047049596154e-02 -1.6590232445362538e+00
    1.0496610142297670e-02 -1.5899865172689946e+00
    6.3925237564688986e-02 -1.4358825980601807e+01
    1.0920051455403685e-02 -1.8486087106647666e+00
    1.0581994795982026e-02 -1.8226226274793804e+00
    5.3995103196768014e-02 -1.2362307436669553e+01
    1.0961406019737314e-02 -2.0388215196711403e+00
    1.0671977249618332e-02 -2.0241183516776102e+00
    4.7485311839809669e-02 -1.1041465605418601e+01
    1.1761832429225459e-02 -2.2885165383721535e+00
    1.1658537311310616e-02 -2.2972870187715868e+00
    4.6834647515578441e-02 -1.0916933313750308e+01
    1.2979050854066056e-02 -2.6508166244328244e+00
    1.2871122129359619e-02 -2.6747417605964463e+00
    4.4946760447254729e-02 -1.0609575787478175e+01
    1.3218196706654110e-02 -2.6996593178494992e+00
    1.3290015993079255e-02 -2.7681204739870791e+00
    4.2005208968888146e-02 -9.7972149299816262e+00
    1.1933590476264553e-02 -2.3196626821005668e+00
    1.2346935788596001e-02 -2.4370499449395440e+00
    4.6748924800344711e-02 -1.0988223467357214e+01
    1.1411702034948493e-02 -2.0992097600479060e+00
    1.1152924364857580e-02 -2.1073716133216611e+00
    4.6036472410838913e-02 -1.0557697672885725e+01
    1.1131422417285567e-02 -1.8393350375229010e+00
    1.0625984711174182e-02 -1.8094533965313748e+00
    4.7835866782019627e-02 -1.0692455174990481e+01
    1.0944981508952704e-02 -1.6193360737293359e+00
    1.0633256241942429e-02 -1.5843551800494218e+00
    4.6831153652848984e-02 -1.0512478967596673e+01
    1.0646338921161905e-02 -1.5036686304841054e+00
    1.0385883691206800e-02 -1.4475943601982049e+00
    4.5436667559869741e-02 -1.0268686868530562e+01
    1.0377193946235281e-02 -1.4587369775850738e+00
    9.9219572153254436e-03 -1.4075005021168807e+00
    3.9875270645276059e-02 -8.7801548316074527e+00
    1.1116275072043132e-02 -1.5896273353021679e+00
    1.0841306667556411e-02 -1.5817982680663258e+00
    3.7008901585480043e-02 -8.1683932785095248e+00
    1.1573000789162138e-02 -1.4526871466776854e+00
    1.0958546087648438e-02 -1.3499885108926910e+00
    4.3376395590049494e-02 -9.2185168342090904e+00
    9.2602566608976662e-03 -1.2889395342763752e+00
    8.9824336046931425e-03 -1.2280269942416198e+00
    3.8349272512504591e-02 -8.5719754844617402e+00
    9.7810909538196718e-03 -1.4811366301498359e+00
    9.5825378620950970e-03 -1.4556331323849219e+00
    1.8814062481312777e-02 -4.0916106358169264e+00
    1.1899050255711374e-02 -2.1265302671278472e+00
    1.1539733194875687e-02 -2.0985829081538214e+00
    3.9605443875667945e-02 -8.8018384079877290e+00
    1.0074509357284569e-02 -1.7275384855038920e+00
    9.9180966899216384e-03 -1.6993005662065741e+00
    1.1760515441757805e-02 -2.4058654446567398e+00
    1.0826618016392181e-02 -1.9420890508452069e+00
    1.0642682384813060e-02 -1.8898363149032336e+00
    1.1855743962982352e-02 -2.4078451429580827e+00
    1.0008105081308631e-02 -1.8314832298794796e+00
    9.7766931173887649e-03 -1.7663225565415701e+00
    1.1697630550689467e-02 -2.3746190017899615e+00
    1.0681075756909120e-02 -1.9938008079563689e+00
    1.0679882270857699e-02 -2.0159549200799960e+00
    1.1943869926387293e-02 -2.4627122276789040e+00
    1.0395797571494735e-02 -1.7752061948276248e+00
    1.0153694270135296e-02 -1.7295125906797122e+00
    1.2220104610018708e-02 -2.4539133876404233e+00
    1.0996386198862866e-02 -1.8903311513283307e+00
    1.0816893125205219e-02 -1.8625659781305750e+00
    1.8843184513161543e-02 -4.0701278548428936e+00
    9.5927960640811872e-03 -1.4681545976169967e+00
    9.6786300557830038e-03 -1.4757606399341514e+00
    1.8670008205686296e-02 -4.0193860522813214e+00
    9.9299737717517302e-03 -1.3334536207780894e+00
    9.7444449131358617e-03 -1.2909069403973319e+00
    4.1612968266832265e-02 -9.1211663301061385e+00
    1.0943691420625642e-02 -1.4304968071246376e+00
    1.0366443841815646e-02 -1.3659023862049473e+00
    5.0118618054960526e-02 -1.0789822486975073e+01
    1.1387003820541338e-02 -1.6874455185487927e+00
    1.1120903536068366e-02 -1.6919660379875443e+00
    3.6285181824853741e-02 -8.0553103651175313e+00
    1.0823813385663857e-02 -1.5467744747798682e+00
    1.0280660508700603e-02 -1.4378238054311272e+00
    4.2366272150020048e-02 -9.4577658971092369e+00
    1.0208305272347567e-02 -1.5049958630089555e+00
    9.9642717574155680e-03 -1.4514622526635343e+00
    4.3759687461450300e-02 -9.7083992325189019e+00
    1.0518819224104151e-02 -1.7621526681142095e+00
    1.0439980814997536e-02 -1.7524253510888721e+00
    3.7516033874484565e-02 -8.6715632584165743e+00
    1.0778529401602748e-02 -1.9786300401513617e+00
    1.0310114500353493e-02 -1.9078621403987464e+00
    4.4157617799347085e-02 -1.0387553901370220e+01
    1.1894388401496351e-02 -2.2939177631457248e+00
    1.1294770061901802e-02 -2.1863447762681347e+00
    5.3406249201953429e-02 -1.2514864396324421e+01
    1.3099180150346976e-02 -2.6884507832378794e+00
    1.2832480199791317e-02 -2.6661005291280722e+00
    5.7570773308980083e-02 -1.3701844047537261e+01
    1.3288174696453898e-02 -2.8234207378846330e+00
    1.3063819851177267e-02 -2.8025004014073134e+00
    5.8483344166972227e-02 -1.4080561338486266e+01
    1.3159703068979628e-02 -2.7986301860030007e+00
    1.2806030338628534e-02 -2.7350021937499513e+00
    5.6494085980840020e-02 -1.3507466938561798e+01
    1.2839256291320843e-02 -2.7151970090359936e+00
    1.2309149097933273e-02 -2.6095396087618536e+00
    5.3946977461826993e-02 -1.2790571465830315e+01
    1.2960454475773660e-02 -2.7334215653905494e+00
    1.2248211126296503e-02 -2.5738740809688792e+00
    7.3304792684391218e-02 -1.7373235866200719e+01
    1.2854978948270840e-02 -2.6579199330186660e+00
    1.3011387173229432e-02 -2.6722910894351686e+00
    5.0953466418107309e-02 -1.2083250607722590e+01
    1.1387405605839234e-02 -2.1777057577643033e+00
    1.1578593356201039e-02 -2.2026895456201503e+00
    4.7830655186871879e-02 -1.1262980471384830e+01
    9.8129576904589198e-03 -1.7752107745739731e+00
    9.9859683638819814e-03 -1.8088868407717646e+00
    4.4683480771134508e-02 -1.0445295576452347e+01
    1.0576324460261943e-02 -1.7596989363883442e+00
    1.0895443490797825e-02 -1.8376981354478998e+00
    4.3943056402263495e-02 -1.0159216134904252e+01
    1.0872236546158291e-02 -1.5837224568903909e+00
    1.0611190967522794e-02 -1.5300326785551916e+00
    5.0671155443850362e-02 -1.1483048988442089e+01
    9.2260866286855946e-03 -1.2929701403915097e+00
    9.1860704572521382e-03 -1.2738017700722963e+00
    3.2636879967497555e-02 -7.2718076841867170e+00
    1.0991405513868541e-02 -1.6508044281305418e+00
    1.1721601115313788e-02 -1.8006611999048705e+00
    5.4074524112485346e-02 -1.2341866384340108e+01
    1.0861118497805284e-02 -1.3483302820846845e+00
    1.0894100474381980e-02 -1.3477558586878278e+00
    4.0991082481618958e-02 -8.7311005685848375e+00
    9.3204987529706840e-03 -1.2946616601150231e+00
    8.9221175342720054e-03 -1.2180814747979922e+00
    3.8181565742548641e-02 -8.5290345189664603e+00
    9.9136794427804233e-03 -1.5526710327288007e+00
    1.0020516481363810e-02 -1.6070999766301577e+00
    1.8452073533644180e-02 -3.9689531500700364e+00
    1.0739806863888370e-02 -1.8728177493123432e+00
    1.0605249093713420e-02 -1.8634937693239295e+00
    1.8375157912191815e-02 -3.9970343496615337e+00
    1.0377601939223295e-02 -1.8239870836987229e+00
    1.0286546908491286e-02 -1.7844709708397026e+00
    1.1999921633420738e-02 -2.4776981048815392e+00
    1.0461112480921408e-02 -1.9253428447029162e+00
    1.0413262116510615e-02 -1.9071145761952297e+00
    1.1707515495272871e-02 -2.3877756602977955e+00
    1.0325854106077908e-02 -1.8321015428212515e+00
    1.0219959482256067e-02 -1.8201261173160805e+00
    1.1726633058764761e-02 -2.3816233331253192e+00
    1.1403360660657679e-02 -2.1253692202768644e+00
    1.1170171680634678e-02 -2.0888221042786848e+00
    1.8780537211075719e-02 -4.1540759688307967e+00
    9.8775428944973768e-03 -1.5949879978686003e+00
    9.6448605123266810e-03 -1.5261843563076933e+00
    1.8925832465255636e-02 -4.1663868327084197e+00
    1.0231687702185566e-02 -1.4792097078016848e+00
    1.0013767608980978e-02 -1.4224318465519170e+00
    4.2594158324912382e-02 -9.4295353358341742e+00
    1.0134379779511652e-02 -1.2981657908041118e+00
    1.0089344250994241e-02 -1.3135365324865838e+00
    3.8541778377840126e-02 -8.1855395983412844e+00
    1.0585707464967325e-02 -1.5213173871081613e+00
    1.0763955529838538e-02 -1.5756380618439840e+00
    5.5551667805772205e-02 -1.2612873909424851e+01
    1.0914351093550779e-02 -1.5202131880302869e+00
    1.0399758837812642e-02 -1.4361571728407936e+00
    4.0172281277034587e-02 -8.8111203600962540e+00
    1.0685430399164378e-02 -1.5992527497416018e+00
    1.0032532215600805e-02 -1.4575836090380025e+00
    4.6633286876897634e-02 -1.0430311831466105e+01
    1.0372625685405156e-02 -1.8087883457120801e+00
    1.0138411083338099e-02 -1.7790497543857569e+00
    4.6026519750453979e-02 -1.0511580415389394e+01
    1.0679048173261622e-02 -1.9100240447033645e+00
    1.0391057145214721e-02 -1.8555459187883432e+00
    3.1293479512022201e-02 -7.1125608433753316e+00
    1.2635676402457517e-02 -2.4073972041063105e+00
    1.2177832270878031e-02 -2.3114685443676111e+00
    2.7869602809346160e-02 -6.2998573588555340e+00
    1.4385046384656854e-02 -2.9886646369646597e+00
    1.3604620605322415e-02 -2.8245783732955108e+00
    2.6671833532868661e-02 -6.1675439826481053e+00
    1.5448277494863622e-02 -3.3441842615071442e+00
    1.4968150198327519e-02 -3.2238544450969222e+00
    2.8748733001665645e-02 -6.7080377003886511e+00
    1.9090877535765667e-02 -4.2727202103856490e+00
    1.9306918912294586e-02 -4.2787809818009048e+00
    4.9625840792719811e-02 -1.1789681891184721e+01
    2.2256004764769480e-02 -5.0966250911322106e+00
    2.2648675026556719e-02 -5.1714474643971178e+00
    8.4940225809713554e-02 -2.0668788280363632e+01
    2.1868641553788534e-02 -4.9756366354286481e+00
    2.2305792105977579e-02 -5.0846584195864128e+00
    9.5819513047255528e-02 -2.3238513330936780e+01
    1.9277578632206940e-02 -4.2823763961545414e+00
    1.9101504682189102e-02 -4.2487203985954904e+00
    5.1866557761907503e-02 -1.2381288288592492e+01
    1.4969610459663246e-02 -3.1635776771421660e+00
    1.4605975494215297e-02 -3.1055085991272051e+00
    2.9348621491685760e-02 -6.8130728462841939e+00
    1.3047530918497535e-02 -2.6529979534278323e+00
    1.2733120314407480e-02 -2.6133213597664877e+00
    2.4222629501620022e-02 -5.5838928293972634e+00
    1.1350270266793694e-02 -2.0862877728487454e+00
    1.1394021084207208e-02 -2.0861910032750819e+00
    2.5994957113793914e-02 -5.8117296975839254e+00
    1.0058971081485488e-02 -1.7698999117185181e+00
    9.8130626844004469e-03 -1.7116785053789920e+00
    3.5021505916503284e-02 -7.9231987909193862e+00
    1.0536806126720637e-02 -1.8253762232861750e+00
    1.0152151688925085e-02 -1.7780768529460220e+00
    3.8072978054589347e-02 -8.7114599786810381e+00
    1.2056058633626037e-02 -1.7687960309619915e+00
    1.1596324960689016e-02 -1.7112862406273934e+00
    4.4441682554529092e-02 -9.5930546199847804e+00
    9.6222862965345164e-03 -1.3636154294517486e+00
    9.0263964106393427e-03 -1.2508006454743090e+00
    4.0811874951487255e-02 -9.1826718640846323e+00
    1.0872708675934789e-02 -1.5491021123046138e+00
    1.1149528479282259e-02 -1.6140269798580031e+00
    4.1784612255027880e-02 -9.2025634133097114e+00
    1.0848499735129932e-02 -1.4314853698116687e+00
    1.0553581999259943e-02 -1.3890524117121184e+00
    3.8422377687171681e-02 -8.1986035436293481e+00
    9.5017566407374961e-03 -1.2926913677422394e+00
    9.0964237466124396e-03 -1.2098243582994546e+00
    1.8854026208903092e-02 -4.0159075824963590e+00
    1.0268301693016776e-02 -1.7104056820082232e+00
    1.0058398764408965e-02 -1.6783156795470959e+00
    1.8499955312803639e-02 -4.0770377708407262e+00
    1.2015778985942742e-02 -2.2486672102264276e+00
    1.1968017297144197e-02 -2.2608154579890964e+00
    1.8365500319198900e-02 -4.0098009030250932e+00
    1.0240045939113238e-02 -1.8524730725091043e+00
    1.0084101336193575e-02 -1.8026531626700324e+00
    1.1947932683586208e-02 -2.4663946753974386e+00
    9.5505864045168157e-03 -1.5963122990406677e+00
    9.5656090132357416e-03 -1.6452847502765475e+00
    1.1865914307482354e-02 -2.3601868601120852e+00
    1.1564206275496086e-02 -2.0788037471427487e+00
    1.1440460989157797e-02 -2.0227824596544237e+00
    1.8587360886031211e-02 -4.0617809098093920e+00
    1.0527205872962891e-02 -1.6627972324103768e+00
    1.0489073454324099e-02 -1.6622684026662191e+00
    3.8214298347606937e-02 -8.6855640958632332e+00
    1.0202535241062944e-02 -1.3015519957527442e+00
    9.8317752962766500e-03 -1.2870262042602147e+00
    3.8322571647426952e-02 -8.3707445784165433e+00
    1.0435476048808186e-02 -1.4709051954510586e+00
    1.0495965076992769e-02 -1.4449445255993378e+00
    3.9018227362214115e-02 -8.5022575433091330e+00
    1.0825297410982303e-02 -1.4866741777749031e+00
    1.0724404637933485e-02 -1.4554549151481160e+00
    3.5239860020458216e-02 -7.7427006730663912e+00
    1.0460468746668845e-02 -1.4554995084650650e+00
    1.0468893404518505e-02 -1.4576687768958148e+00
    3.1247232333425270e-02 -6.8089207217978114e+00
    1.0145666307998012e-02 -1.7189657487550916e+00
    1.0069497883119892e-02 -1.7036631418440467e+00
    3.0130086152759267e-02 -6.8610510467854677e+00
    1.0219777947985507e-02 -1.7232492244674611e+00
    1.0057226742424513e-02 -1.6891351771681553e+00
    2.1231431294601671e-02 -4.6314850838366786e+00
    1.2210656205139211e-02 -2.2514124202999537e+00
    1.2003884987868085e-02 -2.1972825663507103e+00
    1.8382548447633686e-02 -4.0406592206798617e+00
    1.6075033890790912e-02 -3.4048452736303796e+00
    1.5990517280388916e-02 -3.4036958211113553e+00
    2.0030546027727136e-02 -4.5469339482940603e+00
    2.2435795000804507e-02 -5.0437803904189558e+00
    2.2528661816633919e-02 -5.0914775705592659e+00
    2.3979322101139917e-02 -5.5437908952873478e+00
    2.0251391788563194e-02 -4.6645705752990558e+00
    2.0100176221888883e-02 -4.6632408834782213e+00
    2.0404319177039668e-02 -4.7133977298961636e+00
    2.4062672063341856e-02 -5.6627488255731171e+00
    2.3911420493491056e-02 -5.6419565973927712e+00
    2.4476388953210398e-02 -5.8102285205597060e+00
    5.9345717051689895e-02 -1.4341881620825058e+01
    6.0926666735921238e-02 -1.4793574937450590e+01
    6.3012225557752349e-02 -1.5350978378736238e+01
    6.6135909922598671e-02 -1.6033234162664279e+01
    7.3258389334239019e-02 -1.7920397429046943e+01
    7.3657463825908598e-02 -1.7996973661463667e+01
    2.2375449401905247e-02 -5.2838025516213394e+00
    2.2426735047968833e-02 -5.2916415315564560e+00
    2.2601796060303436e-02 -5.3716935303321165e+00
    2.0788207634854047e-02 -4.7545600604859048e+00
    2.0813595603146790e-02 -4.8237985619293058e+00
    2.0926904419207925e-02 -4.8072089008694778e+00
    2.2430495899032545e-02 -4.9934556346655787e+00
    2.3058830621709811e-02 -5.2464329862156891e+00
    2.5255347634375459e-02 -5.7329639130032293e+00
    1.5605513223321097e-02 -3.2139926043268452e+00
    1.5865951625885832e-02 -3.2918072016183131e+00
    1.9724649686287860e-02 -4.4380461794147683e+00
    1.1468884267575644e-02 -2.0141545323247132e+00
    1.1033314210995715e-02 -1.8998316279505003e+00
    1.8026740613411269e-02 -3.8276779235809930e+00
    9.9672881963883964e-03 -1.6711819875944545e+00
    9.6932766095406634e-03 -1.6215467013960165e+00
    2.4283315402782103e-02 -5.2243818566556923e+00
    1.0136313354924230e-02 -1.6951777382139950e+00
    1.0069303413591874e-02 -1.6796557075148730e+00
    2.8780466172589534e-02 -6.6099137309713960e+00
    1.1090922960131368e-02 -1.5405820130811048e+00
    1.0578766526823149e-02 -1.3888409197357818e+00
    3.1681452400036510e-02 -6.7572012047506442e+00
    1.0655884982727532e-02 -1.4811680125991269e+00
    1.0301670419305162e-02 -1.4486110832480068e+00
    4.2747610017401003e-02 -9.4044742038282205e+00
    9.7413684116531233e-03 -1.2626668960247525e+00
    9.7182029634052432e-03 -1.2652174715214255e+00
    3.8979626139554212e-02 -8.5588121966421173e+00
    1.0407833021402260e-02 -1.4224038462583088e+00
    9.9895266806509352e-03 -1.3300341237666673e+00
    4.1922932640801200e-02 -9.0493644600358021e+00
    1.0096051168640780e-02 -1.5297921342197600e+00
    1.0208254615469736e-02 -1.5983210083649759e+00
    1.8997843500986225e-02 -4.1216273804996781e+00
    1.0646708339666425e-02 -1.8307268483112125e+00
    1.0657001827114237e-02 -1.8522884128079506e+00
    1.8579327991270603e-02 -3.9901318686014484e+00
    1.0240705839519474e-02 -1.8638084627925442e+00
    9.9846318715204399e-03 -1.8110220380295883e+00
    1.1861329116899862e-02 -2.3892105792612579e+00
    9.6427921315404216e-03 -1.6264176061864843e+00
    9.6644201558385382e-03 -1.6682630030911763e+00
    1.1884095251206176e-02 -2.3638031363946759e+00
    1.1166283269389357e-02 -1.8849749614278699e+00
    1.0706098189397738e-02 -1.7751730426420438e+00
    1.8619699438272248e-02 -4.0271749927920260e+00
    1.1325216863078099e-02 -1.6443136293107203e+00
    1.0808047430081768e-02 -1.5501828028288707e+00
    4.8242348178030289e-02 -1.0831555793305371e+01
    1.0282513868472553e-02 -1.3259546455154130e+00
    9.9149014434708974e-03 -1.3215147209654781e+00
    3.6398153932447767e-02 -7.9555965023778699e+00
    1.0959381744409882e-02 -1.3714883440147223e+00
    1.0729784375118101e-02 -1.2931944882582815e+00
    3.5542917932302520e-02 -7.5147883628296750e+00
    1.1278094647956280e-02 -1.5032089009347440e+00
    1.0728577288672976e-02 -1.4085089326129234e+00
    2.8248883022173907e-02 -6.1044491026012002e+00
    1.0488110599509095e-02 -1.6391418565518499e+00
    1.0370864819974009e-02 -1.6746477430729461e+00
    2.2320907061377890e-02 -4.9159140551844160e+00
    1.0722556347729034e-02 -1.7748383745098153e+00
    1.0376418638771564e-02 -1.7091443843576590e+00
    2.4012218957755727e-02 -5.2152252698249466e+00
    1.1962532455393998e-02 -2.1378754430996989e+00
    1.1706842379283175e-02 -2.0854903495665882e+00
    1.6508780963788158e-02 -3.5666828206050889e+00
    1.7533809532444180e-02 -3.6679059655251089e+00
    1.7658871934963766e-02 -3.7335900662494819e+00
    1.8338184653583972e-02 -4.2125429889947181e+00
    2.1509191619746681e-02 -4.8733682727026055e+00
    2.1143865998120522e-02 -4.8520138211877519e+00
    2.2799166217167217e-02 -5.3350048948171285e+00
    2.3948553162948038e-02 -5.5184308931193122e+00
    2.3705504655756972e-02 -5.4940329123604368e+00
    2.6514897892073449e-02 -6.2234253195252398e+00
    2.4896374909695068e-02 -5.7190529792556672e+00
    2.5566636403169123e-02 -5.8912835026159707e+00
    2.7914378343205867e-02 -6.5399400689796598e+00
    2.4480912329673317e-02 -5.6795716604842097e+00
    2.4551581817931403e-02 -5.6924596129289524e+00
    2.7475663119775263e-02 -6.5365910926855815e+00
    5.9649944617892671e-02 -1.4375636652912133e+01
    6.3632857790362971e-02 -1.5380970768756308e+01
    6.8534559417035582e-02 -1.6764858653586277e+01
    3.1979736632942492e-02 -7.6142230078434503e+00
    3.1887360781695476e-02 -7.6544850333584229e+00
    3.4393709044110488e-02 -8.2151830745361050e+00
    1.9301291230859809e-02 -4.4181574736544329e+00
    1.9245493874381531e-02 -4.3989700284300648e+00
    1.9718631486396063e-02 -4.5625157329713559e+00
    2.1085017511252961e-02 -4.7842908781485880e+00
    2.1461625080531437e-02 -4.8748548397207117e+00
    2.1183136075009955e-02 -4.8610253688320464e+00
    2.4407683698903445e-02 -5.6102804387908058e+00
    2.4724197019230149e-02 -5.7383683938917978e+00
    2.5393339423244114e-02 -5.9021376059454527e+00
    2.1669276664106004e-02 -4.9199576730694012e+00
    2.2073319702054332e-02 -5.0695057582384777e+00
    2.2289000192051291e-02 -5.1455749014792698e+00
    1.5602058639591286e-02 -3.1761333659167978e+00
    1.6159823525430494e-02 -3.2912173913460108e+00
    1.5400406370750888e-02 -3.3792891693533376e+00
    1.1495194794313834e-02 -1.9585622368597571e+00
    1.1251751046492117e-02 -1.9272642149634354e+00
    1.8928538492645284e-02 -3.9200101859292542e+00
    9.7531827813315732e-03 -1.5758356750980014e+00
    9.5730166459499465e-03 -1.5599458553543200e+00
    2.0048721676295431e-02 -4.3391161913696541e+00
    1.1233178587783832e-02 -1.7882150485219692e+00
    1.1302950544136952e-02 -1.7815603000520623e+00
    2.4296736726093400e-02 -5.4297421645503015e+00
    1.0157206857604541e-02 -1.2706182102346253e+00
    9.8444152896072640e-03 -1.2277392211181630e+00
    2.7536679902818509e-02 -5.7184505264853103e+00
    1.0223635816522629e-02 -1.2623756034401514e+00
    1.0123678981591768e-02 -1.2481049944448137e+00
    4.0649154493936343e-02 -8.8034454589724991e+00
    1.0909472167672832e-02 -1.4945976869711779e+00
    1.0819166814533042e-02 -1.4363731942341962e+00
    4.3629164571913411e-02 -9.6545108459848379e+00
    9.7338435945436060e-03 -1.2769875763317922e+00
    9.6496185651188879e-03 -1.2852372917446444e+00
    2.1269795607969589e-02 -4.3886678271110586e+00
    1.0390360121630268e-02 -1.8202921374989409e+00
    1.0269161062312777e-02 -1.8186195233686295e+00
    1.8958088039056967e-02 -4.1996678836996670e+00
    1.1760238819946674e-02 -2.3369274569351179e+00
    1.1731341980745656e-02 -2.3133089115365602e+00
    1.8349129908217684e-02 -4.0534101735343731e+00
    1.1774282634936704e-02 -2.2287034987558760e+00
    1.1605714045429117e-02 -2.2183493418263081e+00
    1.8653296354105252e-02 -4.0530948220848693e+00
    1.1376402030436555e-02 -1.8678968667116784e+00
    1.0944490983830499e-02 -1.7803038667030944e+00
    2.2707466960358066e-02 -5.0270006618430783e+00
    1.0369251480874418e-02 -1.3583719439945487e+00
    9.8453023919901454e-03 -1.2850463741164280e+00
    3.9992383128560974e-02 -8.6383547557691696e+00
    1.1027033365670290e-02 -1.2780856767638802e+00
    1.0493951979523479e-02 -1.2302909415993717e+00
    3.7174721772062332e-02 -7.9146752877566993e+00
    1.1311762530207504e-02 -1.3353266339230669e+00
    1.1086072282249155e-02 -1.2617006073607373e+00
    2.5283301082939504e-02 -5.3480201624008226e+00
    1.0771755097570545e-02 -1.4957351364055100e+00
    1.0490033956837220e-02 -1.4611118725594698e+00
    2.1604915404045820e-02 -4.6399127843926973e+00
    1.0511732384866820e-02 -1.6903866792235833e+00
    1.0162195813511538e-02 -1.6666001134158923e+00
    1.9977001183078779e-02 -4.3359605424987180e+00
    1.2309669307277862e-02 -2.1383654110928401e+00
    1.2024687239344937e-02 -2.0854243297949648e+00
    1.8620885223165944e-02 -4.0061504494411304e+00
    1.4442861440586546e-02 -2.8892600434240037e+00
    1.4217536986992151e-02 -2.8604330366686592e+00
    1.6128118942864325e-02 -3.5090178785689097e+00
    1.6818524032500320e-02 -3.5254829900507811e+00
    1.6587791570478239e-02 -3.5110825490845605e+00
    1.6985177675543514e-02 -3.6946805534229892e+00
    1.5903223205691833e-02 -3.3608811708028741e+00
    1.5965127672971282e-02 -3.3846070666699117e+00
    1.6372070608117930e-02 -3.5433838530426662e+00
    1.4137302197895524e-02 -2.9816243540228227e+00
    1.4349217399080860e-02 -3.0201686144732096e+00
    1.4490666030951223e-02 -3.1168732600860323e+00
    1.5761093803940772e-02 -3.3248402643551249e+00
    1.5820071993444332e-02 -3.3523485890870131e+00
    1.6408403343639230e-02 -3.5254626612619147e+00
    2.2702371041560133e-02 -5.0215482613355631e+00
    2.2520965171811586e-02 -4.9835678644480206e+00
    2.3448572409693447e-02 -5.3038437593354226e+00
    2.0267400207657306e-02 -4.6460602190315363e+00
    2.0651074118980907e-02 -4.7448301249563274e+00
    2.0387561623267891e-02 -4.7172934251170799e+00
    1.6590493498205051e-02 -3.6649190161034872e+00
    1.6484054763404258e-02 -3.6712344823067484e+00
    1.7376474801613400e-02 -3.8732989783977296e+00
    1.5712824225648288e-02 -3.3221399791370665e+00
    1.5590187556790288e-02 -3.3073469316905109e+00
    1.6186414570093077e-02 -3.4261244173363679e+00
    1.4935437099092647e-02 -3.1513772279085486e+00
    1.5171778825306152e-02 -3.2128047826731647e+00
    1.5630002163001061e-02 -3.3195147450945108e+00
    1.4412909583002826e-02 -3.0445555671524067e+00
    1.4680670501413993e-02 -3.1157975440381986e+00
    1.4634874825240222e-02 -3.1297725161978018e+00
    1.5507072301457387e-02 -3.3369742728707590e+00
    1.5609677278808399e-02 -3.3776368359478743e+00
    1.6095853169347887e-02 -3.4514108010273108e+00
    1.5190565880385944e-02 -3.1943589965611583e+00
    1.5412263931089906e-02 -3.2512537721299184e+00
    1.5173901565540158e-02 -3.2060286307762706e+00
    1.3896744767859206e-02 -2.6873657382036300e+00
    1.4002607839590247e-02 -2.7311753195696022e+00
    1.6131773134904517e-02 -3.4176313655804855e+00
    1.1523085187882053e-02 -1.9144782962152609e+00
    1.1137563878373849e-02 -1.8642160491659086e+00
    1.9028281726653620e-02 -3.9316054481880980e+00
    1.0347017290856341e-02 -1.6732605104641969e+00
    9.7448288939138809e-03 -1.5809824781697426e+00
    1.9109791312663455e-02 -4.0421758576595748e+00
    1.1079053328394322e-02 -1.5056961047255901e+00
    1.1190494603386550e-02 -1.5128482942387818e+00
    2.1618099154854485e-02 -4.5624483549673842e+00
    1.1221115965063823e-02 -1.2546276326652313e+00
    1.0915356564575573e-02 -1.1996496643352581e+00
    2.9536244759021307e-02 -6.1955789601661362e+00
    1.0225899775942408e-02 -1.2753157863425317e+00
    9.7059282918849858e-03 -1.1841232516099682e+00
    3.7958240673803011e-02 -8.1375237863552936e+00
    1.0266635131667926e-02 -1.3850179680007253e+00
    1.0124954415207402e-02 -1.3837437700783448e+00
    4.0334377863955745e-02 -8.7410358885172670e+00
    1.0746597018710986e-02 -1.7522070567650674e+00
    1.0397594110030122e-02 -1.6809443811215363e+00
    2.0103804869735717e-02 -4.4266663675075222e+00
    1.1504940978718245e-02 -2.1985394355998249e+00
    1.1188067650669112e-02 -2.1257328536271314e+00
    1.8303088017594303e-02 -3.9534670118003694e+00
    1.1781725778158914e-02 -2.1958892712244755e+00
    1.1408865665272020e-02 -2.1399772312145950e+00
    1.7759901284798894e-02 -3.7930074886820497e+00
    1.2224716906277565e-02 -1.9629402575222834e+00
    1.1902340904887803e-02 -1.9009738759520807e+00
    5.0941771486616771e-02 -1.1629278690801943e+01
    1.0512754451852759e-02 -1.3741671890636107e+00
    1.0247336268241895e-02 -1.3419130827459624e+00
    3.6396076552658432e-02 -8.0937941667102322e+00
    1.0502013954282116e-02 -1.0667045602135121e+00
    1.0203240905769774e-02 -1.0120643241294496e+00
    2.7642013671364218e-02 -5.6942548163010285e+00
    1.2315417144198747e-02 -1.4115813840993516e+00
    1.2402119315737876e-02 -1.3919902489140084e+00
    2.1667269635482642e-02 -4.5387771012613403e+00
    1.0825987863330779e-02 -1.6264757956575528e+00
    1.0761173871280463e-02 -1.6392854863917241e+00
    1.9390556919012140e-02 -4.1689697375876102e+00
    1.0927864107795523e-02 -1.7937308371224365e+00
    1.0720627986708427e-02 -1.7683931117122853e+00
    1.8739262061352964e-02 -4.0334030722531145e+00
    1.2995985125981531e-02 -2.3708390008397733e+00
    1.2637987229269112e-02 -2.2928919687388243e+00
    2.0100213051081183e-02 -4.3397317130286703e+00
    1.3807998376246610e-02 -2.6208895965580470e+00
    1.3880033580078246e-02 -2.6286139784748181e+00
    1.4844900906253750e-02 -3.1160153902269774e+00
    1.1481201780387029e-02 -2.1453445612494622e+00
    1.1399714117366407e-02 -2.1398891928884942e+00
    1.2017773941896312e-02 -2.4241566865653703e+00
    1.2618050666919026e-02 -2.3896184524922366e+00
    1.2640111562380672e-02 -2.3968059162571351e+00
    1.3623484972088856e-02 -2.7785421969265034e+00
    1.3499166245612192e-02 -2.5532708727415061e+00
    1.3633110381213353e-02 -2.5740610791195686e+00
    1.5066128620598231e-02 -3.1050573652356737e+00
    1.0799106311756158e-02 -1.9155557624424615e+00
    1.0871076883502643e-02 -1.9334986742801130e+00
    1.1429519722941626e-02 -2.2042645179958851e+00
    1.1567061854260659e-02 -2.1366015682227188e+00
    1.1443956465463383e-02 -2.1149521448792088e+00
    1.2115123408254221e-02 -2.4062942731346837e+00
    1.7568344474503585e-02 -3.7763574741861516e+00
    1.7681804789001800e-02 -3.8394776113261053e+00
    1.7562150709164878e-02 -3.8803990138345257e+00
    1.4096633145065970e-02 -2.8904810629835271e+00
    1.4011712459439593e-02 -2.9017589279096567e+00
    1.4413968809579054e-02 -3.0070284454650400e+00
    1.0517436587542221e-02 -1.8886311129343676e+00
    1.0552009769432451e-02 -1.9038840483990265e+00
    1.0694624408870647e-02 -1.9158655726748273e+00
    1.1231106019209187e-02 -2.0478049975024755e+00
    1.1426084811180948e-02 -2.0887971233392220e+00
    1.1740171384517736e-02 -2.1355930804217977e+00
    1.3884856681670886e-02 -2.6870503597290702e+00
    1.3942249970646615e-02 -2.7227222442677030e+00
    1.4521918723300994e-02 -2.8283165513476698e+00
    1.2750716255822997e-02 -2.4718174227359726e+00
    1.2834080940322797e-02 -2.5026457833629454e+00
    1.2875030716455051e-02 -2.5143095699134363e+00
    1.1621779930804632e-02 -2.1705057566007508e+00
    1.1623617027519880e-02 -2.1774909231553909e+00
    1.1630517474770650e-02 -2.1549687378253619e+00
    1.5250452168777486e-02 -2.9288130284133143e+00
    1.4922399728311986e-02 -2.8928137759027668e+00
    1.5066718014311356e-02 -2.9853625551214069e+00
    1.2101344638368549e-02 -2.1586493816823134e+00
    1.1576408124685560e-02 -2.0600493886642828e+00
    1.7128372991531301e-02 -3.5594390350020282e+00
    1.0450498273626457e-02 -1.6402305861844193e+00
    1.0001168005057025e-02 -1.5663734080301217e+00
    1.5525581145260639e-02 -3.0341421438166503e+00
    1.1094027145935785e-02 -1.6720283769946078e+00
    1.1329402344464959e-02 -1.7301615866047202e+00
    1.8611873087549958e-02 -3.9182424247646841e+00
    1.1688675807131732e-02 -1.1783298420808512e+00
    1.1103743387913626e-02 -1.0760056092573442e+00
    2.5020646296338631e-02 -5.0827655761990762e+00
    1.0148950111585541e-02 -1.1308830124338174e+00
    9.6937392592980308e-03 -1.0764666644134766e+00
    3.5020337156432650e-02 -7.1458164150149477e+00
    1.0470915541533031e-02 -1.4230472835969177e+00
    1.0708244240315983e-02 -1.5001740264290297e+00
    3.6818881222108933e-02 -8.0773612281074207e+00
    1.0465603755769244e-02 -1.5249879758406615e+00
    1.0005480692885040e-02 -1.4107727776967907e+00
    1.9146689806108959e-02 -4.0992151127745657e+00
    1.1508008596393570e-02 -2.1772056263557933e+00
    1.1276101158556272e-02 -2.1499766208980624e+00
    1.8179985319037036e-02 -3.9043682756598583e+00
    1.1663909413978964e-02 -2.1772630906094066e+00
    1.1356661770098074e-02 -2.1263997180964584e+00
    1.8265980611343685e-02 -3.8976123390205264e+00
    1.1439914367627504e-02 -1.6604218567870777e+00
    1.1550533069402014e-02 -1.6836277012114078e+00
    4.5402884935368738e-02 -9.9626901801037686e+00
    1.0093310370634347e-02 -1.2169648504021984e+00
    9.9801882832285718e-03 -1.2061770410873389e+00
    3.2218518942413524e-02 -6.9868159649405328e+00
    1.0167580615437025e-02 -1.0337040292360975e+00
    1.0010804332923496e-02 -1.0215787469264310e+00
    2.5073558930190431e-02 -5.1006782737987386e+00
    1.2480549673035763e-02 -1.3877182612637384e+00
    1.2705353025997053e-02 -1.3994038832919611e+00
    2.1513457657255274e-02 -4.3795253087983950e+00
    1.0122039510446138e-02 -1.6431444138624232e+00
    1.0053498839167721e-02 -1.6549974041429909e+00
    1.5973679096348087e-02 -3.4487933820401060e+00
    1.1933744626150255e-02 -2.1531884946896813e+00
    1.1782003919012759e-02 -2.1471299522886587e+00
    2.2860603788617817e-02 -5.1566990546039335e+00
    1.3562173611147697e-02 -2.4644406904828386e+00
    1.2983366303413771e-02 -2.2974375801659797e+00
    2.7557014439574163e-02 -6.0691043706204999e+00
    1.1348632647411021e-02 -2.1481340368313719e+00
    1.1248293157971422e-02 -2.1339619019694354e+00
    1.2912970556873066e-02 -2.7252516908600679e+00
    1.3300327546766293e-02 -2.5403625614323619e+00
    1.3149946922329306e-02 -2.5291731247280032e+00
    1.5476880752300392e-02 -3.2855206854169117e+00
    1.5954360989535635e-02 -3.1620024018308244e+00
    1.5580238475357588e-02 -3.0908225470637958e+00
    2.6422892443686969e-02 -5.9099202765713184e+00
    1.4733733338872144e-02 -2.9790205598500537e+00
    1.4928951868143196e-02 -3.0490606934507700e+00
    1.9693487807518031e-02 -4.4300969715578660e+00
    1.4376468233079661e-02 -2.6397934050835796e+00
    1.4739836651428313e-02 -2.7352925443150542e+00
    1.7558246107136802e-02 -3.6136542702402501e+00
    1.2243501445661846e-02 -2.2248191198402671e+00
    1.2105847853418393e-02 -2.1998054956497421e+00
    1.3400795460793761e-02 -2.7382292058221918e+00
    1.9913579258564768e-02 -4.2283166625685862e+00
    2.0377557587298239e-02 -4.3840859609244500e+00
    2.1067778733318224e-02 -4.7071437055585283e+00
    1.5704807693339300e-02 -3.1723711540545385e+00
    1.5674662483765631e-02 -3.2118129841735001e+00
    1.6450387091301668e-02 -3.4044467761331929e+00
    1.1031341162007763e-02 -1.9015930955461000e+00
    1.1283804540300665e-02 -1.9467249452147291e+00
    1.0990812380749893e-02 -1.9014105418697314e+00
    1.1748700814712467e-02 -2.0286090073403527e+00
    1.1970004110500119e-02 -2.0776507134653781e+00
    1.1916275148288854e-02 -2.0705946674336202e+00
    1.3988453411518560e-02 -2.7683815418224351e+00
    1.4099644938003879e-02 -2.8165719292822033e+00
    1.4211662474716426e-02 -2.8504534449288377e+00
    1.4752459190697405e-02 -2.9097469508508880e+00
    1.4810438055687922e-02 -2.9289404402510448e+00
    1.4574620404658454e-02 -2.9059016968716640e+00
    1.1306252625017610e-02 -2.0507388689853370e+00
    1.1429577279863060e-02 -2.0758289402570336e+00
    1.0965867562922463e-02 -1.9822111080406508e+00
    1.3453795469655017e-02 -2.6427098243965212e+00
    1.3060135883999305e-02 -2.5902602836598621e+00
    1.3348282094019857e-02 -2.6448667520579345e+00
    1.3461068305874128e-02 -2.4646575064802869e+00
    1.2942281895844912e-02 -2.3499486128026978e+00
    1.8240014084572084e-02 -3.7887114969954014e+00
    1.0989391660477580e-02 -1.8640101473629114e+00
    1.1227179319953167e-02 -1.9262631947519648e+00
    1.3899319675839010e-02 -2.8308281073125450e+00
    9.7222847371141643e-03 -1.5180653168093974e+00
    9.7402199273459583e-03 -1.5445205884791449e+00
    1.6023010596597245e-02 -3.2221511309252460e+00
    1.2852551874103875e-02 -1.3140204225571914e+00
    1.2352817221487166e-02 -1.2217524461442306e+00
    2.3214016139879147e-02 -4.6649118147757145e+00
    1.0482109204896489e-02 -1.1046146509731394e+00
    1.0283453253878831e-02 -1.0831904094085700e+00
    3.1342096668401022e-02 -6.3340884886044737e+00
    9.3595211653930404e-03 -1.1672659967697321e+00
    9.4322187764717055e-03 -1.2055273902880981e+00
    3.3349974660835183e-02 -7.0892517564746793e+00
    1.0550755154619290e-02 -1.5193087422651776e+00
    1.0085873657536845e-02 -1.4101011932632463e+00
    1.9054441347655601e-02 -4.0948901810461775e+00
    1.1606469135907032e-02 -2.1554871252398775e+00
    1.1552913463376932e-02 -2.1713975923785123e+00
    1.8264405399177872e-02 -3.8885788828440124e+00
    1.1759044037984841e-02 -2.1586245126872172e+00
    1.1581153163241049e-02 -2.1325866324882448e+00
    1.8378845026851911e-02 -3.8831873992448536e+00
    1.1808999150675818e-02 -1.6999335444044286e+00
    1.1624364932624219e-02 -1.6584093970543885e+00
    5.2085934967893613e-02 -1.1840869216034482e+01
    9.6998259622690323e-03 -1.0364956885396053e+00
    9.5481319487453128e-03 -1.0030085275681981e+00
    2.8451366937632928e-02 -6.0073029048316382e+00
    1.1038773010799429e-02 -1.0413242540187462e+00
    1.0831144538974571e-02 -1.0124541300003373e+00
    2.4141631184889167e-02 -4.8708614919226383e+00
    1.3284903759785254e-02 -1.5157442575450224e+00
    1.3254781463474197e-02 -1.5135698071148154e+00
    2.0077931603106520e-02 -4.0920736791093288e+00
    1.1115496437544453e-02 -1.9018085095284392e+00
    1.1007828501108392e-02 -1.9221765292173558e+00
    1.7228064421773541e-02 -3.7073153867616493e+00
    1.2392648399868240e-02 -2.1952691451195170e+00
    1.2168297651302467e-02 -2.1960880046874451e+00
    2.3258424012016051e-02 -5.1567248666641303e+00
    1.5522374416414417e-02 -2.8317245899658872e+00
    1.5653780378554673e-02 -2.8802955896540596e+00
    2.0785010124266572e-02 -4.4232481069213003e+00
    1.2029859323696700e-02 -2.2942660281621565e+00
    1.2245649485353692e-02 -2.3319215377109241e+00
    1.2401327801668915e-02 -2.5233749379300607e+00
    1.5566552115972680e-02 -2.9976731789044533e+00
    1.5698557694166275e-02 -3.0178608291118691e+00
    1.6575602740044829e-02 -3.4485146843455170e+00
    1.7682331302940932e-02 -3.4985755506533129e+00
    1.7940253728825652e-02 -3.5376471757650969e+00
    1.9665973315831496e-02 -4.2450408114601990e+00
    1.4045317760028842e-02 -2.7970247082114579e+00
    1.4423512369583863e-02 -2.8819551382273279e+00
    1.5100076886294722e-02 -3.2120020690989772e+00
    1.4958737214914905e-02 -2.8877486032983342e+00
    1.5056274286519778e-02 -2.9115966608360391e+00
    1.6959369105606265e-02 -3.5170501169007280e+00
    1.3520261566822622e-02 -2.5752879174900234e+00
    1.3141761301030438e-02 -2.4443676019916616e+00
    1.4108640966758953e-02 -2.9265352405334282e+00
    2.2866999940092489e-02 -5.1755643197742671e+00
    2.3582766445408632e-02 -5.3083684279736483e+00
    2.3603403545752008e-02 -5.4231629575358777e+00
    1.4026069078030052e-02 -2.8806874254068386e+00
    1.4266389941787265e-02 -2.9252892899683789e+00
    1.4317107335930945e-02 -2.9561417813617421e+00
    1.1631059765882744e-02 -2.0016499997095352e+00
    1.1738938689631993e-02 -2.0163024692144096e+00
    1.1363044121307753e-02 -2.0004368626892743e+00
    1.2603834165388329e-02 -2.3107029303211939e+00
    1.2847273884248844e-02 -2.3804163182672498e+00
    1.2607499658508829e-02 -2.3353892224571116e+00
    1.3548364539682401e-02 -2.6496730078321726e+00
    1.3798522263025954e-02 -2.7163376683499663e+00
    1.3451736239035426e-02 -2.6993150719664420e+00
    1.5463070677350961e-02 -3.0248711591694164e+00
    1.5267063611788166e-02 -3.0054305224348705e+00
    1.5063647721395595e-02 -3.0084256449301492e+00
    1.2574895388568732e-02 -2.3419245649853480e+00
    1.2600475802949641e-02 -2.3490887032641830e+00
    1.2258987600138885e-02 -2.2941819651688484e+00
    1.3688222701366689e-02 -2.7813164888919841e+00
    1.3421207489640565e-02 -2.7315352767011323e+00
    1.3886678027080959e-02 -2.8375112102002094e+00
    1.5853631056049602e-02 -3.0537113153200304e+00
    1.5500084143542306e-02 -2.9760161555601226e+00
    2.1613221101879881e-02 -4.5706816625451694e+00
    1.1481877907026797e-02 -2.0541626331761749e+00
    1.1607337849493906e-02 -2.1053499937486806e+00
    1.6756761675020743e-02 -3.4774270180828761e+00
    1.0526594825528342e-02 -1.7408982775742825e+00
    1.0512730740735811e-02 -1.7511205776711367e+00
    1.5157497282980178e-02 -3.0733630205204570e+00
    1.4175941030199415e-02 -1.4756479567626630e+00
    1.3701956783503144e-02 -1.3930322729894864e+00
    2.0061763388241172e-02 -3.9684078626073247e+00
    1.0850831078894304e-02 -1.0385795461227405e+00
    1.0687721833875582e-02 -1.0178782698929125e+00
    2.6961481400202224e-02 -5.3666186787069190e+00
    9.4011134152797333e-03 -1.0788896824201979e+00
    9.2874015815050531e-03 -1.0658398957822466e+00
    2.8625128703833606e-02 -5.9867412032017713e+00
    1.1959610546749178e-02 -1.8178608031058749e+00
    1.1490465143795479e-02 -1.7148151314597635e+00
    4.6370836955168068e-02 -1.0446687125471435e+01
    1.1668535942984715e-02 -2.0736655304389982e+00
    1.1762160822737603e-02 -2.1132682278185224e+00
    1.8206366463424696e-02 -3.7825893752343784e+00
    1.1649933701697176e-02 -2.0831190976129950e+00
    1.1555190370599251e-02 -2.0678288291767615e+00
    1.8714065422392623e-02 -3.8809407102152318e+00
    1.2319383525001474e-02 -1.7112210353537762e+00
    1.2242323834005626e-02 -1.6958533349105889e+00
    4.5967159284029988e-02 -1.0290076942582141e+01
    9.9715369505941238e-03 -1.0484358850910394e+00
    9.7045974748696563e-03 -1.0245282191326679e+00
    2.7829488510546469e-02 -5.8176883124428089e+00
    1.1201636255390264e-02 -9.6227389546304920e-01
    1.0989319435182249e-02 -9.2885914273564241e-01
    2.3444042219248135e-02 -4.7825846127266196e+00
    1.4054084242029155e-02 -1.4863867191212738e+00
    1.3804382150098703e-02 -1.4442013135127072e+00
    2.0159641838920828e-02 -4.0770475661855601e+00
    1.0593656719606492e-02 -1.7736808107684012e+00
    1.0354596557133038e-02 -1.7479545140493626e+00
    1.6314066719843017e-02 -3.4508135414067942e+00
    1.0543141181102210e-02 -1.6251499049156122e+00
    1.0280128345923777e-02 -1.5875455345633718e+00
    1.7910371221657610e-02 -3.8072331968323607e+00
    1.2598471142307624e-02 -1.9593622262274619e+00
    1.2451241637467905e-02 -1.9506945232033051e+00
    1.6927207239469763e-02 -3.3797990454807958e+00
    1.0466178245547327e-02 -1.6272415224624772e+00
    1.0404291548862047e-02 -1.6404099675372494e+00
    1.2001544134727571e-02 -2.2551472931254759e+00
    9.9229341289961068e-03 -1.4203971424648711e+00
    9.8628121241957981e-03 -1.4169573418427963e+00
    1.0992715564253956e-02 -2.0017211579860539e+00
    1.0982248256900353e-02 -1.6091608517372564e+00
    1.0986900710409888e-02 -1.6161207759264831e+00
    1.3105749709641849e-02 -2.4451584458274649e+00
    1.1296711358946296e-02 -1.8171567128819328e+00
    1.1285730409242354e-02 -1.8390366409727303e+00
    1.3493898075772389e-02 -2.6428763231262780e+00
    1.0187531836808639e-02 -1.4340163861717303e+00
    1.0154862353120762e-02 -1.4429575838910647e+00
    1.1043115962063589e-02 -1.9167694134153233e+00
    1.0553406087791446e-02 -1.4825022837611792e+00
    1.0372731973223744e-02 -1.4319309519226491e+00
    1.1155127059857555e-02 -1.9601151833749706e+00
    1.6085537239390674e-02 -3.1918301750733780e+00
    1.6593300345709442e-02 -3.3352533694875977e+00
    1.9197168367928164e-02 -4.1347044061018616e+00
    1.1645579941114731e-02 -2.0607130981515400e+00
    1.1821476277847576e-02 -2.1301174397797729e+00
    1.2601659999989996e-02 -2.3475092342838506e+00
    9.8290739779501434e-03 -1.3189681176125478e+00
    9.7712559841658386e-03 -1.2977158542780247e+00
    9.9122812152485727e-03 -1.4226483610837712e+00
    1.0692594645318920e-02 -1.6176368184846766e+00
    1.0855457668723902e-02 -1.6794943793182837e+00
    1.0688843181337511e-02 -1.6404829320690857e+00
    1.1588419297025428e-02 -1.9385769995452535e+00
    1.1501772302759519e-02 -1.9607783258990039e+00
    1.1485483643828207e-02 -1.9667523420574398e+00
    1.1205848887773127e-02 -1.8377592175947928e+00
    1.1058106850500944e-02 -1.8372254667332282e+00
    1.1132689317946233e-02 -1.8835450069839510e+00
    1.0307953103352899e-02 -1.5898790524647639e+00
    1.0378316676459210e-02 -1.6185231959716151e+00
    1.0235128709011467e-02 -1.5835206274084885e+00
    1.1344180846948644e-02 -2.0046788153822104e+00
    1.1281625685010146e-02 -1.9898638827275037e+00
    1.1347505952680281e-02 -2.0274210635455434e+00
    1.2827782084443918e-02 -2.2387533971184266e+00
    1.2755537235187768e-02 -2.2073153482224925e+00
    1.3776265642466612e-02 -2.6338907883096883e+00
    1.0379061985306434e-02 -1.6082603666755779e+00
    1.0357082175598414e-02 -1.6418441220270057e+00
    1.2558146631684966e-02 -2.2694364984402116e+00
    1.0640507207707279e-02 -1.7516301627163839e+00
    1.0533960930865401e-02 -1.7381035535927911e+00
    1.2209975081384990e-02 -2.4257150495018180e+00
    1.4093375720146713e-02 -1.3402129196729995e+00
    1.3388860615862566e-02 -1.2209365752084198e+00
    1.5340936885709189e-02 -2.9140474874806648e+00
    1.1031140262704653e-02 -9.1348347223063775e-01
    1.0967374900321465e-02 -9.1133662862195042e-01
    1.8746473412287083e-02 -3.5261223799301895e+00
    9.6676701664009015e-03 -1.0625229878120610e+00
    9.6690657891236442e-03 -1.0534677393102332e+00
    2.0772641314379375e-02 -4.2702615501988461e+00
    1.1927040775498662e-02 -1.7101104654774510e+00
    1.1234200834679893e-02 -1.5770678124112534e+00
    3.9942292920116182e-02 -8.8652870143172162e+00
    1.1466155460749021e-02 -2.0529878348769675e+00
    1.1582470699376693e-02 -2.0958756503634017e+00
    1.8912825921089664e-02 -3.9870038263173302e+00
    1.1463882942357987e-02 -2.0487596515556916e+00
    1.1530843894901527e-02 -2.0744537254732367e+00
    1.8420825845337597e-02 -3.8648646987884496e+00
    1.2020628416730055e-02 -1.6491157365999662e+00
    1.1981380243077332e-02 -1.6220506681461360e+00
    5.3835182638886828e-02 -1.2064208071361973e+01
    9.9385751578185931e-03 -1.0326652854457223e+00
    9.7527704664296666e-03 -1.0249697342576323e+00
    2.6350280712499598e-02 -5.5159920958165829e+00
    1.1123839449249209e-02 -8.8937744929949625e-01
    1.0978027696773749e-02 -9.0490314014835049e-01
    2.4213932789458752e-02 -4.8035830476611983e+00
    1.2830094578827991e-02 -1.2768998890357381e+00
    1.2459141295183315e-02 -1.2132830451738037e+00
    1.9802739546913604e-02 -3.9718637605523859e+00
    1.0083399178602254e-02 -1.6551179508877127e+00
    9.8361357053568174e-03 -1.6149998053366814e+00
    1.6026425777302247e-02 -3.4235498112846612e+00
    9.6946750883013140e-03 -1.4906717076249973e+00
    9.6436400677109187e-03 -1.5135922696750090e+00
    1.8786954267572924e-02 -4.0552982711860981e+00
    1.1217935913496339e-02 -1.7152758199160354e+00
    1.0888106944776127e-02 -1.6596585871537324e+00
    1.9964322451504545e-02 -4.1706420283214491e+00
    9.7479149773637107e-03 -1.5099984486363880e+00
    9.7761083172399170e-03 -1.5287971292293279e+00
    1.2692420500700425e-02 -2.4865056161848353e+00
    1.0240126289167978e-02 -1.4814049364996340e+00
    1.0163114506245186e-02 -1.4784911817418591e+00
    1.3669945708077176e-02 -2.6051010820821361e+00
    9.5054080140440124e-03 -1.3945791472033144e+00
    9.4607725869593050e-03 -1.3826243366370528e+00
    1.2970566445658404e-02 -2.5372898551792726e+00
    9.9921928257913038e-03 -1.5916135715367576e+00
    1.0053314511236129e-02 -1.6070941340104612e+00
    1.3732067724168674e-02 -2.7784550361901283e+00
    1.0375557389811940e-02 -1.4767876684832328e+00
    1.0227316121009777e-02 -1.4590970999307280e+00
    1.3051526859587001e-02 -2.3679198730964988e+00
    1.0269227365480358e-02 -1.4430709502634540e+00
    9.9857696621385699e-03 -1.3742321106466888e+00
    1.1209360386223433e-02 -2.0235564392463350e+00
    1.4426840755462996e-02 -2.7651444781304075e+00
    1.4533662008584065e-02 -2.8285274585277653e+00
    1.7339225669552483e-02 -3.6940807450275144e+00
    1.1600089185826728e-02 -1.9847200211750207e+00
    1.1771304147009918e-02 -2.0672652235320275e+00
    1.2877252651353222e-02 -2.3546976276760176e+00
    9.7342827954109337e-03 -1.3220083110719991e+00
    9.5077614473837620e-03 -1.2690597779531756e+00
    9.6928429355490429e-03 -1.4276172952215804e+00
    1.0048300075491554e-02 -1.3967137104933260e+00
    1.0227643613298672e-02 -1.4513513317919067e+00
    9.8851564817929727e-03 -1.3829804639765597e+00
    1.0219480252722124e-02 -1.6180843733476697e+00
    1.0209079692786949e-02 -1.6451202704948111e+00
    1.0118922714358125e-02 -1.6228824619980080e+00
    1.0231228677738733e-02 -1.6209189433731792e+00
    1.0225725198799733e-02 -1.6317335781513289e+00
    1.0093664799233088e-02 -1.6519964721411486e+00
    9.4186901803187863e-03 -1.3177196071322188e+00
    9.6061873421652046e-03 -1.3791740398394330e+00
    9.4225652703016412e-03 -1.3056983303132275e+00
    1.0291766063178663e-02 -1.7290166986140154e+00
    1.0326061325534142e-02 -1.7298611306299576e+00
    1.0285184764401489e-02 -1.7494609513543868e+00
    1.1604625981769161e-02 -1.9716812144263032e+00
    1.1541444497452383e-02 -1.9378634903817666e+00
    1.2177414585567045e-02 -2.2939929571668207e+00
    9.5200752808218183e-03 -1.4153178584155102e+00
    9.5306816233417732e-03 -1.4627327081919304e+00
    1.0631912472263402e-02 -1.8565344302757094e+00
    9.9309908114617179e-03 -1.5856481995633875e+00
    9.7921584023306293e-03 -1.5648801713438851e+00
    1.1851880194147818e-02 -2.2699172448029774e+00
    1.3879469696504224e-02 -1.2617098881250743e+00
    1.3158122029058293e-02 -1.1416237303306767e+00
    1.4801613435606426e-02 -2.7679017124584018e+00
    1.0967213370153887e-02 -8.7685482135658932e-01
    1.1216831694428907e-02 -9.3847491843388520e-01
    1.5899585389646288e-02 -2.8831248173225270e+00
    9.4748635399319412e-03 -9.9937251147377382e-01
    9.5351251679047563e-03 -9.9891787473287919e-01
    1.9014252319765581e-02 -3.8191483945129154e+00
    1.2159388681934757e-02 -1.7335814149386983e+00
    1.1367168449273365e-02 -1.5870732330128337e+00
    4.0103657783178821e-02 -8.9507544776075783e+00
    1.1455488062244976e-02 -2.0407133733742122e+00
    1.1800922842560756e-02 -2.1309094961423996e+00
    1.9020194251829190e-02 -3.9888064516693218e+00
    1.2017628319781957e-02 -2.1843470141241776e+00
    1.1522696622788573e-02 -2.1141404803621131e+00
    1.8252521549459340e-02 -3.8495437115502580e+00
    1.2252475760752177e-02 -1.7451026190671313e+00
    1.1640919843481038e-02 -1.6458043340616764e+00
    4.5802861241434567e-02 -1.0351446640564212e+01
    9.9613678819418707e-03 -1.0459436276038965e+00
    9.5558986901999373e-03 -1.0097399615977933e+00
    2.6284685815479204e-02 -5.4997575939626486e+00
    1.1198826225434328e-02 -9.7696426880931853e-01
    1.0755176903493532e-02 -9.3621254188505598e-01
    2.4431028127073037e-02 -5.0037072368829110e+00
    1.3636697140371851e-02 -1.4058785385192885e+00
    1.2976909608501874e-02 -1.3026345454629500e+00
    2.2744275165103047e-02 -4.5900113404622243e+00
    1.0381770785501593e-02 -1.6279605331741305e+00
    1.0524146413091125e-02 -1.6793530776318268e+00
    1.6361055885827609e-02 -3.5067196448623843e+00
    1.1408865665272017e-02 -1.8661644552480658e+00
    1.1075930880598672e-02 -1.8575918362604058e+00
    2.4855082237816923e-02 -5.4337944073246423e+00
    1.4030876960123938e-02 -2.4119745631451148e+00
    1.3608859255225645e-02 -2.3096178278868669e+00
    2.3363089746585772e-02 -5.0419772729298433e+00
    1.1164673500286238e-02 -2.0085779278134002e+00
    1.1262357664390918e-02 -2.0384867372547562e+00
    1.3265000571721541e-02 -2.7534351186730572e+00
    1.3634696483278069e-02 -2.4548946382511607e+00
    1.3725625054862290e-02 -2.4640764979443253e+00
    1.8202563344108906e-02 -3.8641441613351191e+00
    1.2685184405404388e-02 -2.2180951017449959e+00
    1.2372830754743628e-02 -2.1481590919902511e+00
    1.6817520874959292e-02 -3.5332810523962093e+00
    1.2675069091278570e-02 -2.2428836544376747e+00
    1.2652342708555616e-02 -2.2695892849109049e+00
    1.5145075316960199e-02 -3.1184431271683759e+00
    1.2711785223400891e-02 -2.1815844735779435e+00
    1.2681589494438962e-02 -2.1957266381800031e+00
    1.5101919737993599e-02 -2.9887418300524473e+00
    1.1307698195726036e-02 -1.8587701986498226e+00
    1.1378328944499630e-02 -1.8465402401359399e+00
    1.1571240281266316e-02 -2.1913725046950541e+00
    1.8271497065183807e-02 -3.7526174686732268e+00
    1.7919758701321831e-02 -3.6940302580010576e+00
    1.9737347707628007e-02 -4.2463493782411108e+00
    1.3522111345425587e-02 -2.5453764832603500e+00
    1.3564629207489029e-02 -2.5359397270762827e+00
    1.4188068645474578e-02 -2.8024813686394547e+00
    1.0657251587289640e-02 -1.6183797767555554e+00
    1.0658865845697474e-02 -1.6292837792708996e+00
    1.0487370323561028e-02 -1.5885869047260777e+00
    1.2375975933117563e-02 -2.0691453095797985e+00
    1.2302645707324171e-02 -2.0527843123078044e+00
    1.2217527477049165e-02 -2.0787250321665076e+00
    1.3114932006529462e-02 -2.3738026931818328e+00
    1.2835500061469008e-02 -2.3220030825486075e+00
    1.3120828649589468e-02 -2.4367253206380441e+00
    1.3828945919936095e-02 -2.5478186554396549e+00
    1.3573115234251296e-02 -2.5284774664948126e+00
    1.3572956470836801e-02 -2.4786803840790061e+00
    1.1270555522717121e-02 -1.8993569521378995e+00
    1.1419842224083630e-02 -1.9364789599981813e+00
    1.1409862532775889e-02 -1.9174002322936243e+00
    1.2121903235971817e-02 -2.2592918697901756e+00
    1.2044603374238518e-02 -2.2339871496504298e+00
    1.2391440173497746e-02 -2.3396219184723122e+00
    1.4076401335028171e-02 -2.4781169397904352e+00
    1.4015306844749406e-02 -2.4753701470083596e+00
    1.5629673153523486e-02 -3.0343894022340594e+00
    1.1000531380905563e-02 -1.7815622488790392e+00
    1.0610719584311739e-02 -1.7426843736329138e+00
    1.4073101030011002e-02 -2.6785802293787606e+00
    9.9756380684519128e-03 -1.5025211052625429e+00
    1.0156080722715970e-02 -1.5475932529852907e+00
    1.3159051983523053e-02 -2.5704014874481698e+00
    1.4585689911689421e-02 -1.3654983983991145e+00
    1.3799541096850642e-02 -1.3148991302284827e+00
    1.7548643035595765e-02 -3.2481702609219401e+00
    1.1374963327651305e-02 -9.9287179902784972e-01
    1.0965715069357632e-02 -9.5036197267766143e-01
    2.0379227102662101e-02 -3.9593926942314939e+00
    9.6449174777255651e-03 -1.0650744586116945e+00
    9.5324744016990516e-03 -1.0512957483016669e+00
    2.1516348267590846e-02 -4.4118759828688656e+00
    1.2072997700913234e-02 -1.7574835224615124e+00
    1.1301637722892173e-02 -1.6338939107952686e+00
    4.5015482476367719e-02 -1.0029878214615454e+01
    1.1781380910855777e-02 -2.0763281310036779e+00
    1.1826934341865601e-02 -2.1541916122683773e+00
    1.8803606128711434e-02 -3.9577113851859305e+00
    1.1536615771866300e-02 -2.1546003360599824e+00
    1.1249819918227082e-02 -2.1096090875227738e+00
    1.8299487987489073e-02 -3.9404897466393138e+00
    1.2567840328690603e-02 -1.8019889156994002e+00
    1.2024214155198925e-02 -1.7452287973831582e+00
    3.9778149652487604e-02 -8.7152031690997838e+00
    1.0391164000645518e-02 -1.2202195440758024e+00
    1.0031019015736066e-02 -1.1984679385943708e+00
    2.8337629640815497e-02 -6.0305174697525930e+00
    1.1050366638955427e-02 -1.0334723847099265e+00
    1.0952731631706214e-02 -9.9252610929223450e-01
    2.3742139997875493e-02 -4.8230461538541354e+00
    1.4075737294021340e-02 -1.4833146015080583e+00
    1.3386042330990090e-02 -1.3539025671915690e+00
    2.2945599283970025e-02 -4.7497390517817948e+00
    1.0529532000702963e-02 -1.6656716812540593e+00
    1.0284333699085471e-02 -1.6934869491160742e+00
    1.6994452236134494e-02 -3.5477942192006484e+00
    1.2495480591360957e-02 -2.1057859910869725e+00
    1.2329435266547929e-02 -2.0871972558370424e+00
    2.0595699717505130e-02 -4.4908432860217138e+00
    1.3748715063747894e-02 -2.4256661576755212e+00
    1.3151901574311158e-02 -2.3034616185864971e+00
    2.6270860778152376e-02 -5.7032787755998422e+00
    1.2042159426660360e-02 -2.3482210881987702e+00
    1.1928587703357151e-02 -2.3817413447703113e+00
    1.3087590239245803e-02 -2.7396688900821218e+00
    1.2415129619246828e-02 -2.3062581259372323e+00
    1.2379252561565711e-02 -2.3190466465333102e+00
    1.3328812579893578e-02 -2.7381189271267092e+00
    1.3138237284053719e-02 -2.4330764189373770e+00
    1.2625697223546848e-02 -2.3381588810654139e+00
    1.6382788535503939e-02 -3.4130809448966541e+00
    1.3626375617390012e-02 -2.6623342456262487e+00
    1.3331627101735306e-02 -2.6422015236867784e+00
    1.5389749668002212e-02 -3.2509014060598957e+00
    1.1025805230177250e-02 -1.9216403401166064e+00
    1.0871330345908665e-02 -1.9102480464953797e+00
    1.2095189001611059e-02 -2.3228522496903525e+00
    1.0764484402001194e-02 -1.6946374015721879e+00
    1.0354740054800226e-02 -1.6039985427745302e+00
    1.1733268162171601e-02 -2.1287500808511330e+00
    1.9767001997450809e-02 -4.1501291336552679e+00
    1.9390457726205988e-02 -4.1329375610713335e+00
    2.0490096581552330e-02 -4.4492781148513627e+00
    1.5334506064147485e-02 -3.1267788079371206e+00
    1.5382167773663712e-02 -3.1716564980935180e+00
    1.5272262801053782e-02 -3.1642674022564292e+00
    9.8911152165947099e-03 -1.4831962770027021e+00
    9.8759436539889011e-03 -1.4512934341052262e+00
    1.0228017235511038e-02 -1.6101821419333091e+00
    1.1950366136916029e-02 -2.1089550906386099e+00
    1.1957500964309793e-02 -2.1375456485723316e+00
    1.2104568750973117e-02 -2.1407794448149597e+00
    1.5158895186666715e-02 -3.1169575912393750e+00
    1.5048208454406343e-02 -3.1343268466463496e+00
    1.5609315054695863e-02 -3.2162622019842377e+00
    1.3064987849393634e-02 -2.4238663172017905e+00
    1.2674972123660526e-02 -2.3581483851019844e+00
    1.3578913914390887e-02 -2.5851665633207030e+00
    1.1561282727452660e-02 -2.1063556054873276e+00
    1.1701040206623697e-02 -2.1513198208463855e+00
    1.1526799355007718e-02 -2.1286156142247585e+00
    1.3842873802976231e-02 -2.7956013237343904e+00
    1.3883454733963227e-02 -2.8209857785629091e+00
    1.3699472502802857e-02 -2.8149154214092538e+00
    1.2736524980371542e-02 -2.2525454179571383e+00
    1.2261478199211917e-02 -2.1486780844333264e+00
    1.6854887983235780e-02 -3.4111082823215271e+00
    1.1607933651561399e-02 -1.8915404264591957e+00
    1.1620359982120311e-02 -1.9029722846910355e+00
    1.5810196307166013e-02 -3.1198787379474267e+00
    9.8073122683817425e-03 -1.4804371376557204e+00
    9.8146036974312532e-03 -1.5049059002727923e+00
    1.6337342525048357e-02 -3.3024770961347749e+00
    1.3655695442014873e-02 -1.2823348291263490e+00
    1.3068817641922678e-02 -1.1836614835684254e+00
    1.9220504608083985e-02 -3.7159642242295705e+00
    1.1009344133186102e-02 -1.0217719864561767e+00
    1.0870689440755473e-02 -1.0166682886497023e+00
    2.4140961203932429e-02 -4.7132352826725219e+00
    9.8786663228746293e-03 -1.1487477695457069e+00
    9.5524102062015115e-03 -1.1112637206547757e+00
    2.7748323294514952e-02 -5.8020422660102460e+00
    1.1509484552229769e-02 -1.7132689862033457e+00
    1.0641769522448519e-02 -1.5638333688702921e+00
    4.3787646191500280e-02 -9.6708144302942056e+00
    1.1470865411397085e-02 -2.0620246156201905e+00
    1.1517839408588179e-02 -2.1039253319687741e+00
    1.8269049299757291e-02 -3.9234958258050181e+00
    1.1375253694684831e-02 -2.1271724409060635e+00
    1.1507075615196604e-02 -2.1562067878951732e+00
    1.7794591075918815e-02 -3.8038056828475981e+00
    1.2579799474768045e-02 -1.9408833475356411e+00
    1.1689994161628706e-02 -1.8136190942183963e+00
    4.7455476228122385e-02 -1.0743015904213991e+01
    1.0700087214801002e-02 -1.3313965662988105e+00
    1.0590380061389930e-02 -1.3303534572355540e+00
    3.3467676044736321e-02 -7.1573015769957529e+00
    1.0606309507173820e-02 -1.0990156898862016e+00
    1.0817142816451297e-02 -1.0811991796062510e+00
    2.4487502319285193e-02 -4.9604683269637722e+00
    1.2028162176149560e-02 -1.3448630852190080e+00
    1.1710981150765508e-02 -1.3032649023494760e+00
    2.1429129253648722e-02 -4.4582793194852979e+00
    1.1050375818333749e-02 -1.6912337085773652e+00
    1.0736858634538948e-02 -1.6959123852745568e+00
    2.2809250328508751e-02 -4.8746626416355845e+00
    1.0677347440796134e-02 -1.7637961081962759e+00
    1.1138958234136348e-02 -1.8283804301460949e+00
    1.9210320706209164e-02 -4.1293041746584844e+00
    1.1540053788321295e-02 -2.0898487884278993e+00
    1.1264593437636071e-02 -2.0582021438195053e+00
    1.7906529221053919e-02 -3.9002126027190771e+00
    1.2875156546962091e-02 -2.5351796343661066e+00
    1.2809741682634768e-02 -2.5753680659087612e+00
    1.6192158628518999e-02 -3.4288823533820945e+00
    1.1203682982080996e-02 -2.1436380105714972e+00
    1.1247515491647332e-02 -2.1766620456216552e+00
    1.2596612470603610e-02 -2.5859045886081979e+00
    1.2262130351687212e-02 -2.4273178986649402e+00
    1.2419414681506979e-02 -2.4744205251154860e+00
    1.4285172214402756e-02 -2.9964849335449593e+00
    1.2651185490486197e-02 -2.5181883500110618e+00
    1.2685503792421180e-02 -2.5497862622766569e+00
    1.5292739731881382e-02 -3.2158446979041990e+00
    1.0231634267591208e-02 -1.8265903271047350e+00
    1.0256190383106894e-02 -1.8368348586126204e+00
    1.1629818316605190e-02 -2.2606151603991611e+00
    1.1620093132579204e-02 -2.0573098222347372e+00
    1.1579068570303273e-02 -2.0219259260620048e+00
    1.2672756327568899e-02 -2.5007572486402627e+00
    1.4441877793594751e-02 -2.9942826625386454e+00
    1.4409957203408846e-02 -3.0336390855366910e+00
    1.4948001234199228e-02 -3.2123966461876723e+00
    1.2958411234118533e-02 -2.6108113300740721e+00
    1.2844803115046620e-02 -2.6484760708643749e+00
    1.3276681252666183e-02 -2.6976951859584100e+00
    1.1633579560166812e-02 -2.0574816422123590e+00
    1.1687535283373972e-02 -2.0280656463149884e+00
    1.1720746657563518e-02 -2.1393153304019505e+00
    1.0099055780821728e-02 -1.7707011135707429e+00
    1.0158176488957608e-02 -1.8144438100038089e+00
    1.0280754138478667e-02 -1.7849347423282487e+00
    1.2411941495185682e-02 -2.4191465018949998e+00
    1.2575265138038508e-02 -2.4773272321935860e+00
    1.2782659826393736e-02 -2.5297492494520175e+00
    1.2642433987769749e-02 -2.4947736402532308e+00
    1.2619868713309860e-02 -2.5107529278194569e+00
    1.2849014853901643e-02 -2.5728622600312576e+00
    1.0762007577111678e-02 -2.0570808768822038e+00
    1.0783999576216310e-02 -2.0931229653646515e+00
    1.0734639237896727e-02 -2.0365144154181221e+00
    1.3148436403319792e-02 -2.5789718831082964e+00
    1.2856236366478509e-02 -2.5504324144166413e+00
    1.3767683053243423e-02 -2.8663004908942975e+00
    1.1364222042614390e-02 -2.0287842113219687e+00
    1.0815148639016739e-02 -1.9204613940425439e+00
    1.5878709475123605e-02 -3.3746038279750783e+00
    1.0189747899319040e-02 -1.5973642897408704e+00
    9.9506243514870373e-03 -1.5603526661641338e+00
    1.4978861095969477e-02 -3.0100378011900570e+00
    1.0449049267910593e-02 -1.5330247997348829e+00
    1.0396080368986380e-02 -1.5440654605175486e+00
    1.9279869581015734e-02 -4.0955951524243419e+00
    1.1594985017230336e-02 -1.1848970403322048e+00
    1.1183970194914353e-02 -1.0891056689809453e+00
    2.2852047848867147e-02 -4.6280837857729509e+00
    1.0599679035041264e-02 -1.0902527007471015e+00
    1.0298756299668907e-02 -1.0671473194323591e+00
    2.5219771981397764e-02 -5.0595666360775606e+00
    1.0663578292508231e-02 -1.3278693921385250e+00
    1.0427692209328343e-02 -1.3203444564097173e+00
    3.1378813693733514e-02 -6.6552969615185269e+00
    1.0752621923487473e-02 -1.5396730535203254e+00
    1.0170387150897584e-02 -1.4253071135757900e+00
    1.8916201666069884e-02 -3.9480815191611573e+00
    1.1407448273303531e-02 -2.1386249453331430e+00
    1.1269263691491699e-02 -2.1347205221311416e+00
    1.8291378333892525e-02 -4.0005857470270652e+00
    1.1525663896707823e-02 -2.1887784580986094e+00
    1.1532043481349735e-02 -2.2097591889976824e+00
    1.8321371107389024e-02 -3.9949313476540160e+00
    1.1201100848504630e-02 -1.7836419636856897e+00
    1.0628670988122018e-02 -1.6762932529838155e+00
    1.9261013894853227e-02 -4.2355886745920097e+00
    1.1019779940660175e-02 -1.4414921665234999e+00
    1.1183193106860825e-02 -1.4506199058613756e+00
    3.8681577375594821e-02 -8.3791664515038491e+00
    1.0070354609228541e-02 -1.1681611346705107e+00
    9.8963945519695683e-03 -1.1380853734765004e+00
    2.7539521186535042e-02 -5.6901896394464542e+00
    1.0993682591520060e-02 -1.2553738502126239e+00
    1.0703352792406143e-02 -1.2150853836712499e+00
    2.0501029319299150e-02 -4.2681190563798044e+00
    1.0763491770278454e-02 -1.4838242226169582e+00
    1.0788347550257683e-02 -1.5072862720217164e+00
    2.1403203030501992e-02 -4.6179958538668826e+00
    9.8965571947690276e-03 -1.6522537868981053e+00
    1.0156508324762299e-02 -1.7188681231526290e+00
    2.7287735281970489e-02 -6.0110982578283565e+00
    1.1804132728796645e-02 -2.0117614779220565e+00
    1.1493844837191720e-02 -1.9621635114920151e+00
    2.8025870476917746e-02 -6.1456730260098196e+00
    1.5044585759174674e-02 -3.0382899145076094e+00
    1.5252672478135037e-02 -3.0759556164238990e+00
    1.9271424737308151e-02 -4.3617657988774114e+00
    2.0680192695200536e-02 -4.5397946821368791e+00
    2.1045676594073161e-02 -4.7112250318446636e+00
    2.4877151553264958e-02 -5.6636981702933218e+00
    2.1696460993164163e-02 -4.7938847146800816e+00
    2.1032351605763125e-02 -4.6972251919537644e+00
    2.8402143217713043e-02 -6.4716312046074718e+00
    1.7985834209420796e-02 -3.8840837209392052e+00
    1.8110461785049794e-02 -3.9144469543971909e+00
    2.0977775330987422e-02 -4.7199994494721702e+00
    1.5732831083105116e-02 -3.3046437098846031e+00
    1.5942963599978148e-02 -3.3609285646239644e+00
    1.8780311907083409e-02 -4.1629691394034891e+00
    1.5063593465422581e-02 -3.1640719417132859e+00
    1.4685731226216924e-02 -3.0888988012476264e+00
    1.7182825607754620e-02 -3.8268607317842074e+00
    2.5454900750405626e-02 -5.7043220443528035e+00
    2.6749356916189737e-02 -6.0708302410743000e+00
    2.6459739182344320e-02 -6.0076207819722720e+00
    2.0569185393198047e-02 -4.5526463670278350e+00
    2.1177404980901263e-02 -4.7407133721531833e+00
    2.1015915073848132e-02 -4.6945551243534087e+00
    1.5134216374462939e-02 -3.1904369471308298e+00
    1.5305845994194531e-02 -3.2317200542027882e+00
    1.4874998450521081e-02 -3.1109996759375518e+00
    1.5422310355073644e-02 -3.2093093453177062e+00
    1.5523790900795292e-02 -3.2474292108187486e+00
    1.6042439021624503e-02 -3.3727318228796275e+00
    1.7152901782668126e-02 -3.6764386154185353e+00
    1.7456546067577704e-02 -3.7739390069906085e+00
    1.7983064258163102e-02 -3.8954742528754265e+00
    2.1378855058763292e-02 -4.7308352122891915e+00
    2.2580227447916004e-02 -4.9945312616938020e+00
    2.0924577282169742e-02 -4.6861089027640146e+00
    1.7282376078375836e-02 -3.7593282821914675e+00
    1.6903939348270298e-02 -3.7212815050977897e+00
    1.8004836234112965e-02 -3.9250542990366264e+00
    1.4132275312238041e-02 -2.7396425141010030e+00
    1.3830709353245065e-02 -2.6983055342973827e+00
    1.8931738021984199e-02 -4.1460506268145396e+00
    1.1250924221021646e-02 -1.8976558852789842e+00
    1.1127633682108236e-02 -1.8636136980940317e+00
    2.2311078846969749e-02 -4.7511973620785106e+00
    9.9454741676907217e-03 -1.6206386953256025e+00
    9.8548593391171290e-03 -1.6307445811158108e+00
    2.1336175507663639e-02 -4.5507014332774016e+00
    1.0469262871028638e-02 -1.3430568654548167e+00
    1.0476045101812752e-02 -1.3484166623904701e+00
    2.0674319049863589e-02 -4.3504674229212954e+00
    1.1029460443669158e-02 -1.2048372503703357e+00
    1.0975514484104500e-02 -1.1701989014242846e+00
    2.4018374713012412e-02 -4.9203356197799710e+00
    1.0636027160050856e-02 -1.2180783485677289e+00
    1.0071542810260138e-02 -1.1639825905000645e+00
    3.5890672130202507e-02 -7.3986056976974597e+00
    1.0811309726779810e-02 -1.3766401052099624e+00
    1.0764679567034691e-02 -1.3871058527807560e+00
    3.7720520594265401e-02 -8.0039352270498405e+00
    1.0887940111215738e-02 -1.7654017180328376e+00
    1.0652237790863434e-02 -1.7079087924684373e+00
    1.8915096677824990e-02 -4.1153846057610659e+00
    1.1496159340673093e-02 -2.1694894984327364e+00
    1.1177707353167520e-02 -2.1285548431103289e+00
    1.8962075548518392e-02 -4.1463738532760219e+00
    9.6465108833039617e-03 -1.6578217989449524e+00
    9.7145108917862759e-03 -1.6875493206303016e+00
    1.1991971492880669e-02 -2.3903996509142136e+00
    1.1063894287594446e-02 -1.8629490571873315e+00
    1.0773762227341050e-02 -1.7838272030697540e+00
    1.8162108246385433e-02 -3.8495020859362650e+00
    1.0746833429840884e-02 -1.5516380456798837e+00
    1.0553422079379631e-02 -1.5056215499914940e+00
    4.3309373040808827e-02 -9.6683019435862754e+00
    1.0210585612667215e-02 -1.3419626805219766e+00
    9.9718517227573474e-03 -1.3281556794548717e+00
    3.4691461645978368e-02 -7.5776064081001318e+00
    1.0566286839175262e-02 -1.2548723512811002e+00
    1.0115569382536424e-02 -1.1830399239766407e+00
    2.3106882948075360e-02 -4.8425424692609367e+00
    1.0553014316587785e-02 -1.3663640917524851e+00
    1.0229339798900479e-02 -1.3317626195330434e+00
    2.1278856624125108e-02 -4.5658346642051306e+00
    1.0562893861554746e-02 -1.5773921499921755e+00
    1.0741925472161108e-02 -1.6266344286415391e+00
    2.3657800991834132e-02 -5.1021990805722277e+00
    1.0505285488235361e-02 -1.7243675751403471e+00
    9.9182714672091561e-03 -1.6209289369267534e+00
    2.6160431229967057e-02 -5.8026327937707878e+00
    1.1664679520157593e-02 -2.0796457201652392e+00
    1.1143499000894222e-02 -1.9538268248234536e+00
    1.8789706448996437e-02 -4.0129444487499537e+00
    1.8753513622919906e-02 -3.9391308852714144e+00
    1.9044331048092882e-02 -4.0791143359200852e+00
    2.0234181298600183e-02 -4.5276389486724886e+00
    2.2060454444739860e-02 -5.0287331155699864e+00
    2.1932237485326137e-02 -5.0872347043344579e+00
    2.3172767366491532e-02 -5.3738750988006547e+00
    2.1112704863978437e-02 -4.8348094138510618e+00
    2.1300957212623216e-02 -4.9215354474118023e+00
    2.2165665540048039e-02 -5.1361013579939883e+00
    1.8451275802030515e-02 -4.0882755384213327e+00
    1.8611916946117954e-02 -4.1619791418557099e+00
    1.9559178000425805e-02 -4.3924325452384814e+00
    1.6433575080412346e-02 -3.5786066115583646e+00
    1.6103536868245331e-02 -3.5121047074554106e+00
    1.9277578632206964e-02 -4.3347012524419659e+00
    3.8385131633574238e-02 -9.0534074752901521e+00
    4.0395970877796242e-02 -9.6296300102022858e+00
    4.5787616487727931e-02 -1.0882190185250005e+01
    3.4805822407185029e-02 -8.1329605024789018e+00
    3.7072166779650514e-02 -8.7490313599975220e+00
    3.8722985104305940e-02 -9.1238728712431332e+00
    1.5638980012941197e-02 -3.4048293628174835e+00
    1.5768663402494509e-02 -3.4548390626132019e+00
    1.5528246447583466e-02 -3.3666717178975007e+00
    1.7673912719605406e-02 -3.9034098663585657e+00
    1.7567791193291372e-02 -3.9092518212500273e+00
    1.8577277779901501e-02 -4.1330019898904675e+00
    1.9564049440112894e-02 -4.4783040789820321e+00
    2.0028906083995584e-02 -4.6438449391892620e+00
    2.0776951615336988e-02 -4.7450599974836285e+00
    1.9439178713476821e-02 -4.3812206119469428e+00
    1.9531782544003069e-02 -4.4634773537462253e+00
    2.0781468109597585e-02 -4.7193724483176611e+00
    1.5968053557858547e-02 -3.3175532225208020e+00
    1.5604246563382886e-02 -3.2308220979804183e+00
    1.9242859684822224e-02 -4.3039862828385704e+00
    1.0812585087954973e-02 -1.8736665302413402e+00
    1.0399437485350936e-02 -1.7966266284215806e+00
    2.0624882768657354e-02 -4.4264926970637477e+00
    1.0112538286563787e-02 -1.6382312024233336e+00
    9.8691555374238148e-03 -1.6335802213373896e+00
    2.0069970931617206e-02 -4.2720366697299479e+00
    1.0098292117005114e-02 -1.4551158069551180e+00
    1.0262691634273137e-02 -1.5047060734250948e+00
    2.0072556194203384e-02 -4.2467793890878873e+00
    9.7440064332290251e-03 -1.1456167563639268e+00
    9.5557087423838050e-03 -1.1298488003494755e+00
    1.9694284541814423e-02 -4.0795303693758447e+00
    1.0617628650688578e-02 -1.2574305930601188e+00
    1.0205520263443433e-02 -1.1984196652215002e+00
    2.9643458336437611e-02 -6.2251262506518987e+00
    1.0566094242306928e-02 -1.3242838117024682e+00
    1.0329276072756131e-02 -1.2980456931430204e+00
    3.6613491643291765e-02 -7.8178522156438222e+00
    9.6591435732978070e-03 -1.3104238114440692e+00
    9.5419558126010069e-03 -1.2831658673707260e+00
    3.5941414830395244e-02 -7.7941525303628545e+00
    1.0596350922124640e-02 -1.8437650604496874e+00
    1.0268571757261528e-02 -1.8038457720256085e+00
    1.8894398641081292e-02 -4.0793906399363129e+00
    1.1764696651451138e-02 -2.2767489138808297e+00
    1.1522197096850697e-02 -2.2243327157444153e+00
    1.9090120259262332e-02 -4.2907317916056291e+00
    9.9792732351436566e-03 -1.7283150836294039e+00
    9.9233661896426795e-03 -1.7266657169978261e+00
    1.2082749853956902e-02 -2.4246051373606847e+00
    1.1687079167342591e-02 -2.1248222981387621e+00
    1.1355565886165601e-02 -2.0234536926681752e+00
    1.8093715570911533e-02 -3.9728629760701470e+00
    9.9252989669423412e-03 -1.4982475107241535e+00
    9.6515160119388307e-03 -1.4463486137891191e+00
    1.8702009455666649e-02 -4.0342906111509489e+00
    1.0888352818738966e-02 -1.3983755977209043e+00
    1.0636068085503285e-02 -1.3695203858667087e+00
    3.9148728903352803e-02 -8.4169767142208531e+00
    1.0844969381136847e-02 -1.4470287717116879e+00
    1.0515695874337056e-02 -1.3985875512868284e+00
    3.0569142935471548e-02 -6.5461636086102644e+00
    1.0720837540771203e-02 -1.3947299124469965e+00
    1.0166722665764596e-02 -1.3516899848959407e+00
    2.4988599073453636e-02 -5.2309467393762947e+00
    1.0959193704970805e-02 -1.4372199744518854e+00
    1.0764600368349990e-02 -1.4045240480609036e+00
    2.1939441766752069e-02 -4.7013089500183005e+00
    1.0389726816727111e-02 -1.6930307222304846e+00
    9.8770140978739485e-03 -1.6367623362191115e+00
    1.9769051446983463e-02 -4.3510740851408363e+00
    9.7349417081978688e-03 -1.6275895398801294e+00
    9.5474766942298742e-03 -1.6053400098726516e+00
    2.0320180848755514e-02 -4.3717417654608290e+00
    1.0755018926973326e-02 -1.8467903928888483e+00
    1.0576793957102096e-02 -1.8267634134480621e+00
    1.7335715928473799e-02 -3.6545340197787382e+00
    1.3151354802844789e-02 -2.6127358208318312e+00
    1.3347165864750935e-02 -2.6732466489115443e+00
    1.5676575328026222e-02 -3.4391420255341338e+00
    1.7114988318168715e-02 -3.7563324361161716e+00
    1.7588568914547579e-02 -3.9021496463274845e+00
    1.8036751433696683e-02 -4.1312749712419548e+00
    1.7485253036503223e-02 -3.8892198539765026e+00
    1.7772260829941013e-02 -3.9962197923324507e+00
    1.8300710925466129e-02 -4.1411894437054784e+00
    2.5798097518371445e-02 -5.8942510425307715e+00
    2.6692035146564042e-02 -6.1277286400754880e+00
    2.8727743297387070e-02 -6.6908282127390546e+00
    5.3905372417238473e-02 -1.2957824760105705e+01
    6.0115434315356479e-02 -1.4450605353519977e+01
    8.0125829126631173e-02 -1.9394266164317440e+01
    5.8022119985585312e-02 -1.3911494006067716e+01
    6.3873765340919889e-02 -1.5360119760554545e+01
    8.2991636144222350e-02 -1.9997032328084053e+01
    2.8357309826075736e-02 -6.5113784753017718e+00
    2.9508996245338304e-02 -6.7955002782121925e+00
    3.1159602237681740e-02 -7.2483169967178718e+00
    1.7130880415557090e-02 -3.7638991541609723e+00
    1.7353783689222683e-02 -3.8657619094373197e+00
    1.8366891085717409e-02 -4.0993151675598813e+00
    1.5682449251750333e-02 -3.3254260246687730e+00
    1.5985142534487795e-02 -3.4543131819764579e+00
