<?xml version="1.0"?>
<opencv_storage>
<opencv_ml_ann_mlp>
  <format>3</format>
  <layer_sizes>
    2700 30 4</layer_sizes>
  <activation_function>SIGMOID_SYM</activation_function>
  <f_param1>6.6666666666666663e-01</f_param1>
  <f_param2>1.7159000000000000e+00</f_param2>
  <min_val>-9.4999999999999996e-01</min_val>
  <max_val>9.4999999999999996e-01</max_val>
  <min_val1>-9.7999999999999998e-01</min_val1>
  <max_val1>9.7999999999999998e-01</max_val1>
  <training_params>
    <train_method>BACKPROP</train_method>
    <dw_scale>1.0000000000000001e-01</dw_scale>
    <moment_scale>1.0000000000000001e-01</moment_scale>
    <term_criteria>
      <iterations>50</iterations></term_criteria></training_params>
  <input_scale>
    2.3908094620825965e-02 -5.1551829026155991e+00
    1.6171453033657544e-02 -3.2524834913943734e+00
    1.4989896935116299e-02 -2.7993632526329688e+00
    1.8453765494415155e-02 -3.8199294573439371e+00
    1.8823581518636879e-02 -3.8870695835985156e+00
    1.6916986902973195e-02 -3.2734369657253133e+00
    1.7753421885748574e-02 -3.6305747756355835e+00
    1.8042195912175808e-02 -3.6896290640399525e+00
    1.9220165613252602e-02 -3.8512406847554903e+00
    1.5505273658962992e-02 -2.9692599056914131e+00
    1.3763106055926327e-02 -2.5702600559442415e+00
    1.8101400700983115e-02 -3.5976533893203944e+00
    1.2966798874660849e-02 -2.3729241940629353e+00
    1.2988262392425126e-02 -2.3654872882204261e+00
    1.6538530041390560e-02 -3.2084748280297686e+00
    1.2307342754992253e-02 -2.2122448602098577e+00
    1.2611897385486346e-02 -2.2796004524266573e+00
    1.4146468643348233e-02 -2.7408782996487200e+00
    1.2522767128469935e-02 -2.3104505352027029e+00
    1.1116129941632141e-02 -1.9592179022126648e+00
    1.5063589590018380e-02 -3.0353133023887038e+00
    1.3741425187880187e-02 -2.5713641882820801e+00
    1.2516282369052547e-02 -2.2388500087642744e+00
    1.7442196714396233e-02 -3.5516673059689330e+00
    1.3324471805049865e-02 -2.4034016018358693e+00
    1.2217072647186935e-02 -2.1517319199857989e+00
    1.6349323880346833e-02 -3.1084152027509417e+00
    1.5582053751131654e-02 -2.9937020769361689e+00
    2.0714547289940023e-02 -4.1843385525678851e+00
    1.6084667341810820e-02 -3.1465630487417418e+00
    1.5317044287287340e-02 -3.0921283154961317e+00
    1.4912739076006242e-02 -2.9247609512817241e+00
    1.4530667208566921e-02 -2.9097661085155262e+00
    1.7604626047251340e-02 -3.6595616395723725e+00
    1.6700369605449523e-02 -3.4340135001205581e+00
    1.4695953860773256e-02 -2.8510150489900115e+00
    2.0980976910928210e-02 -4.4427218608890486e+00
    2.0795290815743703e-02 -4.4865839934967040e+00
    1.6012815380508715e-02 -3.2265822991725059e+00
    1.5608812726084982e-02 -3.1529801706691662e+00
    2.0778169456376713e-02 -4.4049719247518633e+00
    1.9253032741930260e-02 -3.9179921629828081e+00
    1.5596972005338956e-02 -3.0667546205497720e+00
    1.6255328303139024e-02 -3.1697890191121094e+00
    1.6670863853460251e-02 -3.2549861673881142e+00
    1.6761950980862798e-02 -3.2979138554847558e+00
    1.4456740133376373e-02 -2.7467806253415108e+00
    1.6797569315622009e-02 -3.2566287510662173e+00
    1.3105969245408513e-02 -2.4491780027357160e+00
    1.3830732787757032e-02 -2.5483125161442333e+00
    1.5024461071756336e-02 -2.7551105490333181e+00
    1.4061165522773370e-02 -2.5521015423833666e+00
    1.5972932839425340e-02 -3.0268707730711020e+00
    1.4065424519873753e-02 -2.5493581942271177e+00
    1.5812500156349184e-02 -2.9767031544327338e+00
    1.6553287030963187e-02 -3.2340984536744326e+00
    1.7697209464092936e-02 -3.5173203809884712e+00
    1.2479299581529079e-02 -2.0341258317892401e+00
    1.2748231031789219e-02 -2.0747746004236953e+00
    1.3741648179540003e-02 -2.3395156025666854e+00
    1.2455560379587336e-02 -2.0613952428217042e+00
    1.2946746673852372e-02 -2.1265031411802520e+00
    1.6428801936338139e-02 -2.9736131504772030e+00
    1.2772856377738834e-02 -2.1123111234685599e+00
    1.3312364384634949e-02 -2.2281569888782746e+00
    1.5324686317731467e-02 -2.7910084956168433e+00
    1.1005313495946533e-02 -1.7319612114245857e+00
    1.2323877112531349e-02 -1.9918466383128792e+00
    1.4495632065287849e-02 -2.6508887139395156e+00
    1.0551629142330056e-02 -1.6091234442053335e+00
    1.1903971116620450e-02 -1.8659474725302556e+00
    1.3721682855081997e-02 -2.4956310692680383e+00
    1.2476385445991211e-02 -2.1085091403725147e+00
    1.2738595105969639e-02 -2.1018681924849907e+00
    1.4003144058801426e-02 -2.4505502102902494e+00
    1.3971332295024319e-02 -2.4729258162193046e+00
    1.3135474433727333e-02 -2.1985500333451125e+00
    1.4265372430117673e-02 -2.5338867778996517e+00
    1.2977047780094548e-02 -2.3602005650046958e+00
    1.3736056394868901e-02 -2.5136983202610090e+00
    1.4554430540712664e-02 -2.7162205996605011e+00
    1.4908181060378915e-02 -2.8046015619837834e+00
    1.7850429219079568e-02 -3.4473641429347417e+00
    1.4177112059197817e-02 -2.4685896373078200e+00
    1.4705484826825627e-02 -2.7940421170968692e+00
    1.4839670194962734e-02 -2.7379191509706247e+00
    1.3468719682364547e-02 -2.2307566973916280e+00
    1.2587348147359961e-02 -2.3207923146694927e+00
    1.2929775248852223e-02 -2.3257433228872935e+00
    1.4786142488888258e-02 -2.5321269012221141e+00
    2.1934690721413273e-02 -4.6666054509806738e+00
    1.8419738207244230e-02 -3.7553241270019173e+00
    1.5174611654648035e-02 -2.8528269910738304e+00
    1.4871250073136525e-02 -3.0132870460692884e+00
    2.5131027828714767e-02 -5.4063123616522644e+00
    1.8062786995975737e-02 -3.5583690382072199e+00
    1.6775101496961070e-02 -3.3906673900732565e+00
    1.5926304306449736e-02 -3.1753069210984162e+00
    1.5227298387966349e-02 -2.9997777824293705e+00
    1.3502422214246509e-02 -2.5046993207427275e+00
    1.2393288930134848e-02 -2.2276936851917388e+00
    1.5056998044183716e-02 -2.8438905055951995e+00
    1.1989597542042594e-02 -2.1401431612546031e+00
    1.2117443392359997e-02 -2.1614489651122146e+00
    1.4922880101299472e-02 -2.8950387396520973e+00
    1.2143213051475145e-02 -2.1599740215311414e+00
    1.2962712913042259e-02 -2.3462510372606489e+00
    1.6797273100070790e-02 -3.3825508705267553e+00
    1.1898229452101287e-02 -2.1059866130219276e+00
    1.2556920256171935e-02 -2.2618152611429698e+00
    1.6409471018472999e-02 -3.3044572263450003e+00
    1.1924847920961970e-02 -2.1524350497336355e+00
    1.2333466261408268e-02 -2.2385241264456006e+00
    1.5897065910858280e-02 -3.1635161162607974e+00
    1.5725622679415029e-02 -3.0114567431079782e+00
    1.4266279708984605e-02 -2.6410450311257749e+00
    1.6153509302326636e-02 -3.0711859561048516e+00
    2.1535978353940603e-02 -4.4983274786793439e+00
    1.6478495819273929e-02 -3.3327757794481521e+00
    1.4936633299739358e-02 -2.9481179975360559e+00
    1.9822637518170292e-02 -4.1379755819180488e+00
    1.3957907534480278e-02 -2.7479630458508049e+00
    1.6362689789127197e-02 -3.2725379578254397e+00
    2.0945638230852034e-02 -4.4588027383926265e+00
    1.5610268709685366e-02 -3.1903486675419468e+00
    1.8195356955351554e-02 -3.6754621049810141e+00
    1.7312651537613157e-02 -3.5512576466528989e+00
    1.5744157917970680e-02 -3.2216483139647503e+00
    1.8200677310994704e-02 -3.7015627481235480e+00
    1.6158484017509977e-02 -3.1751421094407104e+00
    1.4591253723848731e-02 -2.8197597821337674e+00
    1.6476713266357527e-02 -3.2520912809473170e+00
    1.5931956528799831e-02 -2.8797011425805694e+00
    1.4629067081702959e-02 -2.5637440060684438e+00
    1.6657740104881007e-02 -3.0129687414703521e+00
    1.7994710894633306e-02 -3.3762576316055739e+00
    1.5212562320398476e-02 -2.7553753502821738e+00
    2.0811398194305730e-02 -3.8943328871094596e+00
    1.4174085472176355e-02 -2.5849988379881625e+00
    1.6800235960971119e-02 -3.1521442721772064e+00
    1.5878799195534820e-02 -2.7966535083135700e+00
    1.2343107211704420e-02 -2.2140448560994805e+00
    1.5086312552998206e-02 -2.8418841271710371e+00
    1.3818512781236457e-02 -2.4838776724272531e+00
    1.3779756165410316e-02 -2.5389200734768509e+00
    1.3433279324312698e-02 -2.4734025555890753e+00
    1.6101958363789030e-02 -3.1761112872573860e+00
    1.2912096682836435e-02 -2.2273366777892849e+00
    1.6347139227970188e-02 -2.9772227318940705e+00
    1.4115693464811709e-02 -2.6114032909901659e+00
    1.1034115398230451e-02 -1.7295975886726231e+00
    1.2639255862965966e-02 -2.0475594498004868e+00
    1.5168309571126175e-02 -2.6866868327857238e+00
    1.1350315547592174e-02 -1.7678116465374811e+00
    1.1810565970567408e-02 -1.8601641403643667e+00
    1.4373270162071424e-02 -2.4775924441870618e+00
    1.2332821403403195e-02 -2.0688307904208858e+00
    1.3301025217068614e-02 -2.1963317889684548e+00
    1.3546719057048216e-02 -2.4079293123903205e+00
    1.0883326348379879e-02 -1.7182051472504734e+00
    1.2963870209991603e-02 -2.1746892277260912e+00
    1.6232424124922370e-02 -3.0801024777040196e+00
    1.1012067665367690e-02 -1.7412831995862661e+00
    1.1879377411610872e-02 -1.9096099189164477e+00
    1.4424462706941017e-02 -2.6937684105212347e+00
    1.1203394022151838e-02 -1.8163502558413667e+00
    1.2099233477343796e-02 -2.0024231405003983e+00
    1.5882804331462757e-02 -2.9204506464477142e+00
    1.4126979324670661e-02 -2.4775189990641171e+00
    1.3556362622482195e-02 -2.3215270991000758e+00
    1.2793009762354672e-02 -2.2163889413279469e+00
    1.4173551569773714e-02 -2.6805729406334535e+00
    1.5097887424924451e-02 -2.8535007233107210e+00
    1.3954743147840050e-02 -2.5153424523981691e+00
    1.5472556470752500e-02 -2.9107746860603139e+00
    1.5149586145293572e-02 -2.7553309801752683e+00
    1.4509548866609443e-02 -2.4611822264986269e+00
    1.4368516862549816e-02 -2.7407945915313774e+00
    1.2805853100254729e-02 -2.2762403885702782e+00
    1.4989186509095644e-02 -2.5762664312508137e+00
    2.0683576729517660e-02 -4.3513074544722778e+00
    1.7219358919757580e-02 -3.4761580819260613e+00
    1.7888007187832046e-02 -3.5194654142059552e+00
    1.6012590846554261e-02 -3.2805795496878041e+00
    1.7817592890205989e-02 -3.6659697371598821e+00
    1.7391016691611406e-02 -3.4586384445442184e+00
    1.8154831053289931e-02 -3.6037339640780512e+00
    1.6231521997813279e-02 -3.1347126858276892e+00
    1.8889792588854842e-02 -3.8062932066542507e+00
    1.4107987127033704e-02 -2.6434840879279404e+00
    1.2472033224549237e-02 -2.2246989264289700e+00
    1.6638958140993042e-02 -3.2945137119166223e+00
    1.2486593863446535e-02 -2.2788033800789926e+00
    1.2669715683882131e-02 -2.3027208255455776e+00
    1.8067392852438382e-02 -3.6631639008318819e+00
    1.2388711098777486e-02 -2.2237736422305590e+00
    1.2549131542156948e-02 -2.2384513388322453e+00
    1.6132212902673061e-02 -3.2365252135987830e+00
    1.1894441346337523e-02 -2.1469466630139231e+00
    1.1160923255388824e-02 -1.8848009147537876e+00
    1.4405297802181931e-02 -2.7892257869474766e+00
    1.2429135040795717e-02 -2.2217078885422343e+00
    1.3259652318739691e-02 -2.4033119827715690e+00
    1.5687480821530226e-02 -3.0080744475284207e+00
    1.8617947251988166e-02 -3.6816990690806599e+00
    1.9646592919280090e-02 -3.9489651767752982e+00
    1.8443218928993890e-02 -3.7601112591486294e+00
    2.0569427137603961e-02 -4.2990102717592276e+00
    1.8749198964909720e-02 -3.8670222865126296e+00
    1.4186560348568206e-02 -2.8036189888857916e+00
    1.6708052950952929e-02 -3.4961600799869004e+00
    1.9382793487652678e-02 -4.0897694258947146e+00
    1.5225533313382006e-02 -3.0679449626464743e+00
    1.8096815095180217e-02 -3.6849639737560715e+00
    1.6666666666666666e-02 -3.3416666666666668e+00
    1.4414718599657527e-02 -2.7712296507841594e+00
    2.0280348890152573e-02 -4.2005672638728520e+00
    1.7407477121776690e-02 -3.5533012674826669e+00
    1.9623469009937337e-02 -3.9271467356137095e+00
    2.0317398889287453e-02 -3.8196709911860411e+00
    1.5070243278652105e-02 -2.6843870840099062e+00
    1.8167981625866494e-02 -3.4360195249920005e+00
    1.5193893965280243e-02 -2.2278047026592156e+00
    1.4002886642544458e-02 -1.9779077382594046e+00
    1.9590962055705697e-02 -3.4602536730890185e+00
    1.4793320252920978e-02 -2.3817245607202775e+00
    1.4317548696874212e-02 -2.2245891287768309e+00
    2.1460759332655014e-02 -3.8307455408789202e+00
    1.6672456719530816e-02 -2.8509900990397696e+00
    1.9108867749663291e-02 -3.3607721154720314e+00
    1.6133000156710039e-02 -2.6962276511901653e+00
    1.5755390011588266e-02 -3.0348820009821900e+00
    1.2909288954172326e-02 -2.3381949618244624e+00
    1.5776699210657611e-02 -2.9167172665703260e+00
    1.4572553378040145e-02 -2.7542125884495872e+00
    1.4957713667576096e-02 -2.7802650279607071e+00
    1.3769301981250551e-02 -2.4406087761766599e+00
    1.8224463997297439e-02 -3.6061658134652306e+00
    1.7877284676166155e-02 -3.4369079789929433e+00
    1.7726249588929533e-02 -3.5341710117928256e+00
    1.4921037099038635e-02 -2.6428886961672182e+00
    1.4139860173072286e-02 -2.4302884672467990e+00
    1.5622735515870961e-02 -2.8784890187992245e+00
    1.3841327626928076e-02 -2.4187720028056812e+00
    1.5293515873601225e-02 -2.7126873780800174e+00
    1.4247692422454728e-02 -2.4826604046127363e+00
    1.2116373213869783e-02 -1.9719397405573071e+00
    1.3569070631055167e-02 -2.2863884013327955e+00
    1.6842777121407269e-02 -3.0843335603577060e+00
    1.1368638035079150e-02 -1.7934026500337359e+00
    1.2527080547057713e-02 -2.0278211635549672e+00
    1.5826356231249665e-02 -2.9713983824171244e+00
    1.0727147573330391e-02 -1.6908666362462028e+00
    1.2151657300026208e-02 -1.9898338828792916e+00
    1.7525831986395988e-02 -3.4920220232894006e+00
    1.2039512299468301e-02 -2.0677862374336806e+00
    1.2389439050811144e-02 -1.9993457268246484e+00
    1.4489710525281224e-02 -2.6661067366517450e+00
    1.3647506129053730e-02 -2.3951373256489297e+00
    1.4252507722479131e-02 -2.4781547802460588e+00
    1.4284347863709943e-02 -2.4961897891833127e+00
    1.5404938926738221e-02 -2.8479880840807286e+00
    1.4609928793252484e-02 -2.6261347005871341e+00
    1.5576854277561751e-02 -2.9109246431193521e+00
    1.3917464093304955e-02 -2.6112642005063420e+00
    1.3604812601331813e-02 -2.4624710808410581e+00
    1.4968182576605675e-02 -2.6474972932371288e+00
    1.4974054775735834e-02 -2.8282245957671055e+00
    1.7280592803623478e-02 -3.2746723362866490e+00
    1.5697775940905542e-02 -2.7294507917249509e+00
    1.6037636381335037e-02 -3.2516307763156789e+00
    1.7669776836448610e-02 -3.5891734199036240e+00
    1.8917710906532881e-02 -3.7953657506231591e+00
    1.5695358843906330e-02 -3.1214144900818712e+00
    1.8592839562264013e-02 -3.7487812767414814e+00
    1.4924983515554288e-02 -2.9308936378669732e+00
    1.2852388230013695e-02 -2.3407412063912441e+00
    1.1743037823166299e-02 -2.0697104163330602e+00
    1.6626879040932060e-02 -3.2256145339408198e+00
    1.3010779118224361e-02 -2.3793462312452802e+00
    1.1074523507301037e-02 -1.8840533116795890e+00
    1.5893551804066066e-02 -3.1787103608132132e+00
    1.3185674755406539e-02 -2.4558319231944679e+00
    1.0851191503353706e-02 -1.8257129704392610e+00
    1.5658515934314332e-02 -3.1375751303382344e+00
    1.2491357238551333e-02 -2.2843569550000749e+00
    1.1579873735228846e-02 -2.0192404825805301e+00
    1.4268979887519599e-02 -2.7967200579538414e+00
    1.2947017946254736e-02 -2.3919615655705626e+00
    1.2669413807791637e-02 -2.3010822828401558e+00
    1.6830249008965747e-02 -3.3471157716580628e+00
    1.4151713383390175e-02 -2.6799807219795144e+00
    1.7252641886702041e-02 -3.4138665133311665e+00
    1.7042428814615859e-02 -3.3999645485158640e+00
    1.6240449649057968e-02 -3.2683904918729159e+00
    1.5549289710395238e-02 -3.1506748275688352e+00
    1.5048045282713713e-02 -3.0227760961651171e+00
    1.8137838525811266e-02 -3.7681359537372905e+00
    1.6128016160022240e-02 -3.3001953067445511e+00
    1.6356977066902569e-02 -3.2897970125807792e+00
    1.6489553569724948e-02 -3.4215823657179270e+00
    1.3360751004871541e-02 -2.6688100132230903e+00
    1.7933478645536991e-02 -3.7099883947954648e+00
    1.9990007493755464e-02 -3.9680164875104595e+00
    1.5140657118021643e-02 -2.8842951809831230e+00
    1.5773969505444602e-02 -2.9024103890018065e+00
    1.9112793848422242e-02 -3.6194853350449621e+00
    1.7624908200973548e-02 -3.2826391524313232e+00
    1.7501197266410355e-02 -3.2180326473612042e+00
    1.5547028621253380e-02 -2.3514880789645738e+00
    1.4917586551356943e-02 -2.2339085860657022e+00
    1.4903006566867966e-02 -2.3490864101025632e+00
    1.4820203110978689e-02 -1.8414102365391021e+00
    1.4008724899356798e-02 -1.4884270205566597e+00
    1.5366696126065327e-02 -2.4721172392807595e+00
    1.1769912369291917e-02 -1.4962501099462349e+00
    1.1715768577617438e-02 -1.4835091961408080e+00
    2.2006025662182932e-02 -3.9748383852317919e+00
    1.5560080162627474e-02 -2.2328715033370425e+00
    1.6357216402190615e-02 -2.3227247291110675e+00
    2.0568407336257560e-02 -3.5711897237577190e+00
    1.4081386668053999e-02 -2.4554418002419158e+00
    1.5499801531155740e-02 -2.7628396229285106e+00
    1.9338401262854209e-02 -3.4929987281030415e+00
    1.3064520146377070e-02 -2.4446983323908094e+00
    1.3938805328488561e-02 -2.5612554791097732e+00
    1.4700419193023964e-02 -2.6056493019634979e+00
    1.1145402004017525e-02 -1.9211886704425207e+00
    1.2711566639833090e-02 -2.2324688911206865e+00
    1.4061013487279745e-02 -2.5608620813708236e+00
    1.3160173357473411e-02 -2.3688312043452138e+00
    1.3482331211839728e-02 -2.4116519955178313e+00
    1.2901229022562128e-02 -2.3496363357341274e+00
    1.3018960054621226e-02 -2.2164779492992635e+00
    1.4920829479613937e-02 -2.5868988110280662e+00
    1.6417762155058257e-02 -2.9818760514124558e+00
    1.1396103896479307e-02 -1.8148295455143297e+00
    1.1911991736916263e-02 -1.8910286882354568e+00
    1.5870516933175607e-02 -2.7852757217723192e+00
    1.0484153567167781e-02 -1.6420805524576536e+00
    1.2033572364237740e-02 -1.9915562262813460e+00
    1.2513832129610675e-02 -2.2665678444757336e+00
    1.0641158459568294e-02 -1.6600207196926540e+00
    1.2488434649804470e-02 -2.1339612707853388e+00
    1.6058301116991462e-02 -3.0952375403001042e+00
    1.0270600375222013e-02 -1.5919430581594121e+00
    1.2553132264886052e-02 -2.1120645035670784e+00
    1.6475001162259889e-02 -3.2126252266406783e+00
    1.0401054512362404e-02 -1.5679589677386325e+00
    1.2255316663476094e-02 -1.9838293849001927e+00
    1.5260979641785782e-02 -2.7565144477975569e+00
    1.2403607633286816e-02 -2.0605493180797723e+00
    1.1941961293264655e-02 -1.9211630230539514e+00
    1.7604924433994876e-02 -3.2657134825060496e+00
    1.2027600431794967e-02 -2.2025543290724534e+00
    1.3856267898564839e-02 -2.5530173603105717e+00
    1.3709568196187948e-02 -2.4882866276081126e+00
    1.2392753597012260e-02 -2.2554811546562314e+00
    1.4341270846401197e-02 -2.6119039529008181e+00
    1.3228381928717557e-02 -2.2207146162834599e+00
    1.8351761653308558e-02 -3.7689930495482451e+00
    1.5390649884537611e-02 -3.0819776393786564e+00
    1.8839912264852359e-02 -3.8268571787981354e+00
    1.7198614879334179e-02 -3.3709285163494993e+00
    1.4188055085606789e-02 -2.6567133147798714e+00
    1.5587938977765319e-02 -3.0474420701531200e+00
    1.3315369701514120e-02 -2.4733299220562479e+00
    1.1528239234865902e-02 -2.0376162847625481e+00
    1.7312448842550055e-02 -3.4841303295631985e+00
    1.1780729297466215e-02 -2.1308394116792018e+00
    1.1706520416199651e-02 -2.1013204147078373e+00
    1.5936887398756146e-02 -3.2112828108493634e+00
    1.2505756537563223e-02 -2.2994959833444377e+00
    1.2556425303424767e-02 -2.2836998520603795e+00
    1.6593796676702036e-02 -3.3643922762013379e+00
    1.2062770605863631e-02 -2.1577280921238571e+00
    1.2006869894932102e-02 -2.1252159714029819e+00
    1.5837672188467652e-02 -3.1417982203872703e+00
    1.3021667464585473e-02 -2.3259953508615800e+00
    1.3756837127468773e-02 -2.4831091015081133e+00
    1.5933978896074376e-02 -3.0951754005624474e+00
    1.7784277911675941e-02 -3.5390713044235120e+00
    1.9341566063512242e-02 -3.9094140405874120e+00
    1.6846174969301790e-02 -3.4239850625105888e+00
    1.2391103423152812e-02 -2.4085207278753278e+00
    1.3648856718344034e-02 -2.7400079862075648e+00
    1.7022702277864427e-02 -3.4322023467744152e+00
    1.5227408725511232e-02 -3.1025845278229136e+00
    1.7478751652708218e-02 -3.6181015921106012e+00
    1.9037261450851214e-02 -3.8836013359736477e+00
    1.7769531118903073e-02 -3.6605234104940330e+00
    1.8447680616594402e-02 -3.7956102868642980e+00
    2.0048173494115636e-02 -4.0697792193054738e+00
    1.5083523529155306e-02 -2.8489005065692083e+00
    1.5189922095646322e-02 -2.9012751202684477e+00
    1.5306583155537370e-02 -2.8355445295632977e+00
    1.6744501650287701e-02 -2.7607497095911846e+00
    1.7622855451350821e-02 -2.9914797128668020e+00
    1.4586499149789454e-02 -2.3484263631161020e+00
    1.6858925879608834e-02 -2.3581422574102855e+00
    1.5447470043127527e-02 -2.0660991182683066e+00
    2.2392278682162627e-02 -3.8710651771788642e+00
    1.2829758496753347e-02 -1.3936325167098322e+00
    1.2943848514600474e-02 -1.3574861129687248e+00
    2.2699808620139011e-02 -3.9100420348189449e+00
    1.1182622511193639e-02 -1.3013776947401599e+00
    1.1386265232491324e-02 -1.2695685734227826e+00
    2.3902118077335326e-02 -4.3471977253153620e+00
    1.3874510634045141e-02 -1.6718785314024394e+00
    1.3882530196759392e-02 -1.4993132612500144e+00
    1.8334162527316549e-02 -3.0113861951117431e+00
    1.4573544723829055e-02 -2.3481623936269567e+00
    1.4262175652077725e-02 -2.3069069117235719e+00
    1.7473580942452133e-02 -2.9049828316826671e+00
    1.1322509509395496e-02 -2.0621120443986549e+00
    1.2368380394003337e-02 -2.2541373268071081e+00
    1.3351909117609152e-02 -2.3783088115741302e+00
    1.1398093201512041e-02 -2.0117634500668751e+00
    1.2805524983142214e-02 -2.2985917344740274e+00
    1.3682592210143032e-02 -2.4286601173003883e+00
    1.1495249581793781e-02 -2.0605234875365350e+00
    1.3113203582777974e-02 -2.4292209637096196e+00
    1.2845344975925410e-02 -2.3250074406424992e+00
    1.1554915987257823e-02 -1.9571138953417937e+00
    1.2679578233524344e-02 -2.1872272452829495e+00
    1.3967669090954741e-02 -2.5316400227355467e+00
    1.0823983129688098e-02 -1.7291313049676735e+00
    1.1771543203995150e-02 -1.8819754697387245e+00
    1.3766692150845068e-02 -2.3988461072847529e+00
    1.0861477701140029e-02 -1.6495869258606419e+00
    1.1608157655197531e-02 -1.7905583183142191e+00
    1.3710534577480952e-02 -2.4061988183479071e+00
    1.0099021932629060e-02 -1.5060166457033086e+00
    1.1664646032885865e-02 -1.8473883154582988e+00
    1.3267162536133189e-02 -2.4079900003081738e+00
    1.0094582978632862e-02 -1.5482566643478153e+00
    1.0712202229604903e-02 -1.6068303344407355e+00
    1.3810932866667352e-02 -2.5584753135501268e+00
    1.0861707950494187e-02 -1.6889955863018460e+00
    1.2160034904214283e-02 -1.9714456588457407e+00
    1.3779020327190923e-02 -2.4802236588943662e+00
    1.1067230201319158e-02 -1.7583061982345813e+00
    1.1482040548105889e-02 -1.7926335805730320e+00
    1.4570257134535674e-02 -2.5261183307001223e+00
    1.1580638072520020e-02 -1.9455471961833635e+00
    1.1333138822137266e-02 -1.8203854233057983e+00
    1.3478560971537394e-02 -2.3418999688046225e+00
    1.1683539099129812e-02 -2.0869721715820626e+00
    1.2178394147165591e-02 -2.1236074794120001e+00
    1.2801655104964870e-02 -2.1666801265153044e+00
    1.6421047536961112e-02 -3.2267358410128586e+00
    1.9950186722152659e-02 -4.0498879045969893e+00
    1.8153008140642454e-02 -3.6646385183921955e+00
    1.1986595991923935e-02 -2.1261224640675080e+00
    1.1792293457444829e-02 -2.0680734650993871e+00
    1.3938466818997082e-02 -2.6030086784477051e+00
    1.3334000050004168e-02 -2.4701235092632721e+00
    1.1601771740330774e-02 -2.0288598330903440e+00
    1.6048895222361258e-02 -3.1877118135415050e+00
    1.2246281545826257e-02 -2.2012691078622697e+00
    1.1377613986263940e-02 -1.9640606143788126e+00
    1.6294968891562376e-02 -3.2569569072010300e+00
    1.2000438023981959e-02 -2.1330778587627934e+00
    1.2057165913418903e-02 -2.1280897837184365e+00
    1.4503133581906967e-02 -2.8607430990311493e+00
    1.2751939245442984e-02 -2.3351988743217462e+00
    1.2620635901751328e-02 -2.2890678366801471e+00
    1.6058980532848006e-02 -3.1776707729372990e+00
    1.6267287618961294e-02 -3.1192524009358280e+00
    1.4335375286672931e-02 -2.6502525061236581e+00
    1.4395965376278318e-02 -2.7442308998530542e+00
    2.0056236303005487e-02 -4.1215565602676278e+00
    1.5647459679763418e-02 -3.0981970165931569e+00
    1.4396524810419779e-02 -2.8199192972409741e+00
    2.7664773255438781e-02 -6.0343786663425840e+00
    1.8292178166319454e-02 -3.8756552489889344e+00
    1.6219241315746754e-02 -3.2418208579848824e+00
    1.9655663683710148e-02 -4.1448880793023770e+00
    1.7079090796812760e-02 -3.5076182723954203e+00
    1.6891626805553641e-02 -3.4036628013190589e+00
    1.7477792222602494e-02 -3.4627875841031193e+00
    1.5548819792492166e-02 -2.9950914125288035e+00
    1.6815668151612624e-02 -3.1550397369463186e+00
    1.8044811850578952e-02 -3.2322769227349548e+00
    1.5863526175605696e-02 -2.7602535545553910e+00
    1.3818286026723511e-02 -2.3473813387896567e+00
    1.9940516428425120e-02 -3.0459138844419371e+00
    1.8600476835148306e-02 -2.7737961080414912e+00
    1.7187854390376015e-02 -2.7908778566373056e+00
    1.3230697372228569e-02 -1.5860298474958996e+00
    1.2907591755366495e-02 -1.5392303168274544e+00
    2.1063209600038622e-02 -3.7571500124068891e+00
    1.2355112897331421e-02 -1.5026906061379341e+00
    1.2294952897318821e-02 -1.5184266828188744e+00
    2.0444450628260693e-02 -3.6672233314442617e+00
    1.0645415970545486e-02 -1.3226929343402767e+00
    1.0849724430882533e-02 -1.3412971827678530e+00
    1.8006011072242291e-02 -3.3468673080530360e+00
    1.2373187293190605e-02 -1.4368363744217589e+00
    1.1629921866994724e-02 -1.3112736905036551e+00
    2.2937046785008686e-02 -4.1860110382640849e+00
    1.7907221839764221e-02 -2.6435536240951931e+00
    2.0504733455335770e-02 -3.2346217025792177e+00
    2.4080660820929099e-02 -4.4790029126928124e+00
    1.9949256274808352e-02 -3.7978396633166400e+00
    2.0524496213281826e-02 -4.0048423236166162e+00
    1.7890869784267779e-02 -3.4216288462412128e+00
    1.5839752002112264e-02 -3.1164712064155879e+00
    1.6900670885446459e-02 -3.3632335062038452e+00
    1.9777820393227584e-02 -4.0618698632591155e+00
    1.9371936546340219e-02 -3.9252386427021868e+00
    1.5398317099211960e-02 -3.0122957825333394e+00
    1.4694391955544395e-02 -2.8268336524478528e+00
    1.8478362523762011e-02 -3.6079002827645326e+00
    1.8985351481323728e-02 -3.7804581137185873e+00
    1.6565312874050764e-02 -3.2840732772805641e+00
    1.6198481104204434e-02 -2.9501483711032326e+00
    1.4638860534948606e-02 -2.5947380298196405e+00
    1.6499405290943233e-02 -3.1699482415224685e+00
    1.3150088761600844e-02 -2.2766091168521463e+00
    1.4332614244800384e-02 -2.5744958337222688e+00
    2.1344340364687884e-02 -4.3115567536669523e+00
    1.1760281349280288e-02 -1.9492666336432076e+00
    1.3163753894181087e-02 -2.2888477083507364e+00
    1.7677669529663688e-02 -3.5620504102272332e+00
    1.1897861005200331e-02 -1.9899172531197553e+00
    1.3145969115136767e-02 -2.2956148567307579e+00
    1.5543653505864929e-02 -3.1184454846141514e+00
    1.2854163299178987e-02 -2.2719733631298862e+00
    1.2708358503416450e-02 -2.2128429244073895e+00
    1.3986890374333512e-02 -2.7117083713239096e+00
    1.3101381388313071e-02 -2.2632636348310831e+00
    1.3856184763368369e-02 -2.4525447031162013e+00
    1.5642702817206696e-02 -2.9936222516429316e+00
    1.6861134988384884e-02 -3.1741086615634546e+00
    1.5463304450733135e-02 -2.8897050192307545e+00
    1.7257578718646305e-02 -3.4040574022529837e+00
    1.7919077062282292e-02 -3.5278182966368261e+00
    1.6491935997534558e-02 -3.2200505035186224e+00
    1.7932532476843923e-02 -3.6089221609648394e+00
    1.5442289013374171e-02 -2.9417560570477796e+00
    1.5520702448743286e-02 -2.9547537286795031e+00
    1.5740744219959763e-02 -3.0478015995897092e+00
    1.3373981423663459e-02 -2.4591408342761185e+00
    1.3190064912354046e-02 -2.4121331208467462e+00
    1.5876547637648716e-02 -3.0860039470679692e+00
    1.2157942388870873e-02 -2.1671532308162331e+00
    1.2396934013005192e-02 -2.2298985055893090e+00
    1.3924187287398882e-02 -2.7012923337553829e+00
    1.1740761270985618e-02 -2.0722443643289616e+00
    1.2549625632848433e-02 -2.2887379747907328e+00
    1.7094056117310498e-02 -3.4081274383887807e+00
    1.2310795893608176e-02 -2.2328706052031828e+00
    1.3274630703938405e-02 -2.4574660090665974e+00
    1.4090644734588943e-02 -2.7881863268567870e+00
    1.3592259034124417e-02 -2.4924805003825652e+00
    1.2500381487189748e-02 -2.2235053570338765e+00
    1.7178460462566460e-02 -3.3798620960099512e+00
    1.9675330433425127e-02 -4.0186862410270825e+00
    2.3138885873921045e-02 -4.8273500654467778e+00
    1.6822507506395915e-02 -3.4338943447430661e+00
    1.7900003490501019e-02 -3.7679507347504644e+00
    2.1362672561674425e-02 -4.6009856029706295e+00
    2.2381760030994423e-02 -4.8036852466521784e+00
    1.6378593736168616e-02 -3.2429615597613859e+00
    1.8545767297167417e-02 -3.7230627849063591e+00
    1.4238053896393854e-02 -2.6642958353627000e+00
    1.3288523206886237e-02 -2.3919341772395226e+00
    1.3048227298550178e-02 -2.3356326864404817e+00
    1.6289799548326708e-02 -3.0217578162146044e+00
    1.2823164168935444e-02 -2.3258014011406662e+00
    1.1682928613677663e-02 -2.0328295787799133e+00
    1.2685762010158523e-02 -2.2612370783107569e+00
    1.6297673776217176e-02 -2.6870789638538071e+00
    2.0363948725443871e-02 -3.5586000397713167e+00
    2.0043390799744921e-02 -3.6128211916540218e+00
    1.7026364454406594e-02 -1.9920846411655715e+00
    1.8217233182721556e-02 -2.1769593653352262e+00
    2.2079658757094944e-02 -3.5410252731691019e+00
    1.2266476510495826e-02 -1.1346490772208639e+00
    1.2394954854722516e-02 -1.0194850368009269e+00
    1.3155919703459144e-02 -1.9388536662972913e+00
    1.2440746866734154e-02 -1.4820039704997061e+00
    1.2649885469888419e-02 -1.4120434655762948e+00
    1.3578312184614970e-02 -2.3100103604076216e+00
    1.4662568440579608e-02 -1.5560650757565109e+00
    1.4262832969879015e-02 -1.3175291955925741e+00
    1.4013452364414654e-02 -2.1510649379376492e+00
    1.1814532143056122e-02 -1.1017051223399834e+00
    1.2131744239571522e-02 -1.1070216618609015e+00
    1.8765491590130131e-02 -3.0869233665764066e+00
    1.3853545998614512e-02 -1.6399135075859930e+00
    1.3316550259834668e-02 -1.4614913910168548e+00
    1.8686081209588763e-02 -3.1906483665372813e+00
    1.8925755726521370e-02 -3.1014582196836895e+00
    1.5652280801620913e-02 -2.4945822527583332e+00
    1.9308806612943010e-02 -3.4514491820635631e+00
    1.5937172011725370e-02 -3.1057563957849816e+00
    1.7312975864523187e-02 -3.3652096836666945e+00
    1.6871930914072283e-02 -3.2858085455155770e+00
    1.4105947391087451e-02 -2.8106100176741746e+00
    1.9396062568600839e-02 -4.0125604438792983e+00
    1.9463395188128559e-02 -4.0191911063485479e+00
    2.1615622500456320e-02 -4.4960494800949142e+00
    1.9386435500741501e-02 -4.0614582374053443e+00
    2.0066391631480968e-02 -4.1612679645783652e+00
    1.5786033846019502e-02 -3.0644638203585357e+00
    2.1070221758814695e-02 -4.3325643491562715e+00
    1.6185579508810343e-02 -3.3301829839377279e+00
    1.4927477603104193e-02 -2.7373262054692313e+00
    1.4368818151267034e-02 -2.6348820284885925e+00
    1.4747627443049567e-02 -2.7743974127236997e+00
    1.3467173790125683e-02 -2.4644928035930000e+00
    1.4933302006617093e-02 -2.9063939030378516e+00
    1.6401157962629684e-02 -3.2884321715072518e+00
    1.2092610665461908e-02 -2.0844637634589964e+00
    1.2315039801397434e-02 -2.1643682450955990e+00
    1.6549850824454444e-02 -3.2851453886542070e+00
    1.1323677723772329e-02 -1.9080396964556374e+00
    1.1817174181522661e-02 -2.0606197479030142e+00
    1.5711817158876762e-02 -3.1403994546304927e+00
    1.2154644307308782e-02 -2.1255434232406234e+00
    1.2924492729673583e-02 -2.3393331840709184e+00
    1.6872418719448248e-02 -3.4019014243087531e+00
    1.3031476553620518e-02 -2.2951688080064137e+00
    1.2166262662629601e-02 -2.1078050063005782e+00
    1.5964407120729100e-02 -2.9973174369168887e+00
    1.6134804715337667e-02 -3.0575454935564879e+00
    1.7314922208831920e-02 -3.3526018126850805e+00
    1.3946174017163583e-02 -2.6846384983039897e+00
    1.2364125420451226e-02 -2.2039053561954312e+00
    1.2081022760462282e-02 -2.1247498779963037e+00
    1.4615291648588446e-02 -2.7769054132318045e+00
    1.1824503830730276e-02 -2.0559856035682267e+00
    1.2485879066722098e-02 -2.2146827994598324e+00
    1.6414167786477085e-02 -3.1822967796032451e+00
    1.1459119127001189e-02 -2.0239669158065849e+00
    1.1945941496759835e-02 -2.1353370425458205e+00
    2.1115383701982255e-02 -4.4157546166770389e+00
    1.2687995492006755e-02 -2.2965271840532226e+00
    1.1894231002089814e-02 -2.0874375408667625e+00
    1.4144987010070413e-02 -2.7812580708550949e+00
    1.2288974964546664e-02 -2.2089432498772630e+00
    1.3180752246049244e-02 -2.4302011953653295e+00
    1.7705052272421622e-02 -3.5210922706778502e+00
    1.3585045187100865e-02 -2.4537987869200939e+00
    1.8268506745575178e-02 -3.4870012250616620e+00
    1.9521022803455235e-02 -3.9188453277936386e+00
    1.9304140266641710e-02 -3.8294588253950490e+00
    1.6262850187403553e-02 -3.1305986610751839e+00
    1.9502220332288628e-02 -3.8906929562915811e+00
    1.4062903421595068e-02 -2.7000774569462531e+00
    1.2098804531760305e-02 -2.1732477640174448e+00
    1.2095471381006683e-02 -2.1469461701286860e+00
    1.3596086250071830e-02 -2.5594632365760219e+00
    1.2240159383213059e-02 -2.1802783901348262e+00
    1.1063239830283175e-02 -1.8696875313178565e+00
    1.2958358808569411e-02 -2.3454629443510635e+00
    1.3329797703120299e-02 -2.4743436986417056e+00
    1.2802638639684321e-02 -2.2148564846653875e+00
    1.5566323584892136e-02 -2.7046487228750089e+00
    1.5368964515850179e-02 -2.6261718116458992e+00
    1.4675761934890763e-02 -2.4948795289314298e+00
    1.7465791848893911e-02 -2.5871204176174105e+00
    1.5034221246337054e-02 -2.0653261437155526e+00
    1.8371833320497865e-02 -3.1323975811448861e+00
    1.6843635723967989e-02 -1.6085672116389429e+00
    1.6210714654178834e-02 -1.3272522623108920e+00
    2.5094774502369074e-02 -3.8332268052368761e+00
    1.1552795266437255e-02 -1.2520341870001375e+00
    1.2078034628861947e-02 -1.1594913243707468e+00
    1.4013108387380903e-02 -2.2911432213367777e+00
    1.5588915564616515e-02 -2.1142466734511149e+00
    1.5703097487525675e-02 -2.1493614686050768e+00
    1.3334981787138590e-02 -2.1185952314316436e+00
    1.3937557196929158e-02 -2.0784382169920605e+00
    1.4973818705886995e-02 -2.2685335339418797e+00
    1.3379516625234652e-02 -2.2393965951486496e+00
    1.1804649896807504e-02 -1.1361975525677221e+00
    1.2872787711139392e-02 -1.2840605741861544e+00
    1.2900608362689027e-02 -1.9447667106753708e+00
    1.1973686801784993e-02 -1.1434870895704670e+00
    1.2426975496862216e-02 -1.1588154650824016e+00
    1.4095368134398613e-02 -2.1513055615125882e+00
    1.4094296205853602e-02 -1.7547398776287735e+00
    1.3603888070691182e-02 -1.5457417820322856e+00
    1.3910035659639251e-02 -2.1491005094142643e+00
    1.2744542223189565e-02 -2.1665721779422262e+00
    1.2559256604436846e-02 -2.0848365963365163e+00
    1.3393459833414910e-02 -2.1982015951592220e+00
    1.0872616503793432e-02 -1.9027078881638506e+00
    1.1550579397234284e-02 -1.9996940581461853e+00
    1.1117557474668497e-02 -1.8580217929539726e+00
    1.2143758664527462e-02 -2.1919484389472070e+00
    1.1072147359746935e-02 -1.9279376590159349e+00
    1.1166488510737857e-02 -1.8745742587401177e+00
    1.5588885968378735e-02 -2.9774772199603383e+00
    1.4511530023151949e-02 -2.7172839968352025e+00
    1.5002675520358213e-02 -2.7473649546655978e+00
    1.4237219628596658e-02 -2.4879541300972661e+00
    1.6003617226285908e-02 -2.8426425098190342e+00
    1.5683983283988154e-02 -2.8623269493278380e+00
    1.2687229593911024e-02 -2.1695162605587850e+00
    1.2420204233307480e-02 -2.0928044133123103e+00
    1.7702971395764544e-02 -3.3259457509792636e+00
    1.2977167294919829e-02 -2.2904700275533498e+00
    1.2497452561171570e-02 -2.1729945640737069e+00
    1.5673173813153474e-02 -3.0699829206514369e+00
    1.3380695612873571e-02 -2.5222611230266683e+00
    1.4651744341630331e-02 -2.7929887651232819e+00
    1.6081807163551617e-02 -3.2987806944235252e+00
    1.1550904472134089e-02 -2.0185205565054321e+00
    1.2467670413847836e-02 -2.2363883804839557e+00
    1.5366015804966181e-02 -3.0789654169200986e+00
    1.1924755186415621e-02 -2.0406237312753732e+00
    1.3949650671336843e-02 -2.5213993588441346e+00
    1.7356601230741543e-02 -3.4257591679176120e+00
    1.2831606732370125e-02 -2.2118482104923003e+00
    1.4637022764240152e-02 -2.6035604241892170e+00
    1.8924431860121986e-02 -3.6334909171434213e+00
    1.2918441830338918e-02 -2.3527712183504756e+00
    1.2900155505257116e-02 -2.3462157825186378e+00
    1.6017211733070646e-02 -3.2374789215469044e+00
    1.2499755866527323e-02 -2.2312064221751271e+00
    1.2484161015130519e-02 -2.2346648217083627e+00
    1.7249753999036815e-02 -3.4046701955598913e+00
    1.2274617192544293e-02 -2.1940878231672922e+00
    1.3058670657159797e-02 -2.3652517227780683e+00
    1.9849283441783491e-02 -3.9673755279264751e+00
    1.1965755148496012e-02 -2.1478530491550343e+00
    1.2004287797056050e-02 -2.0812433968145929e+00
    1.8966987201086246e-02 -3.9380207176255317e+00
    1.4101300975535015e-02 -2.6933484863271877e+00
    1.1686518145469220e-02 -2.0334541573116445e+00
    1.5086956393622994e-02 -3.0004184527817728e+00
    1.6585414322407441e-02 -3.1533018980477148e+00
    1.6999013156248025e-02 -3.3169324421128961e+00
    1.4820101390588482e-02 -2.8528695176882830e+00
    1.5758415794692018e-02 -3.0453138523242327e+00
    1.5730972606100291e-02 -3.0596741718865066e+00
    1.4909604991276177e-02 -2.6688192934384358e+00
    1.4580901507095829e-02 -2.5680612779372529e+00
    1.5164602923722993e-02 -2.7087771972500199e+00
    1.6389898596945802e-02 -2.8825734157378431e+00
    1.3997677015798182e-02 -2.4548426066456064e+00
    1.5350138996137920e-02 -2.8628009227797220e+00
    1.3516059121379034e-02 -2.3619313314609860e+00
    1.2318849928898626e-02 -2.2066139935139666e+00
    1.1915955257793046e-02 -2.0912501477426795e+00
    1.2279894188445117e-02 -2.0921869723563367e+00
    1.5696657894749909e-02 -2.4918444407915481e+00
    1.3577060637150921e-02 -2.0620160842672961e+00
    1.6539979219234852e-02 -2.7104890945521114e+00
    1.6060792730153199e-02 -1.7285428175827380e+00
    1.7055165811717642e-02 -1.8952553008271229e+00
    2.5272456509047088e-02 -4.1257285251019367e+00
    1.2219452416449386e-02 -1.3013716823518595e+00
    1.2837470261796389e-02 -1.3896561558394591e+00
    1.8578544995781689e-02 -3.0979723780465966e+00
    1.2809464053949072e-02 -1.4666836341771687e+00
    1.3587847029286844e-02 -1.6033659494558476e+00
    1.2949137849052904e-02 -2.0670061291550699e+00
    1.1821908505041933e-02 -1.9151491778167931e+00
    1.3906000256113762e-02 -2.4265970446918517e+00
    1.1587633324183303e-02 -1.9061656818281534e+00
    1.3991231993804967e-02 -2.4519634069143206e+00
    1.2887829286372795e-02 -2.2183176159169173e+00
    1.3392465124855148e-02 -2.3202445828811542e+00
    1.3322457765203534e-02 -1.6220092329135303e+00
    1.3847401653636800e-02 -1.5353306583469801e+00
    1.2787255921898194e-02 -1.9468597141090001e+00
    1.2181217343619384e-02 -1.1191493434450308e+00
    1.2083006892682354e-02 -1.1493960306664088e+00
    1.3602000253201662e-02 -2.0726047885816032e+00
    1.2408724414879821e-02 -1.2780986147326217e+00
    1.3021167242566876e-02 -1.2337555962332116e+00
    1.4631146545876260e-02 -2.3574434872043124e+00
    1.3072192091966849e-02 -1.9820711259444734e+00
    1.5871297725087458e-02 -2.5096489527794543e+00
    1.3672217681383174e-02 -2.1995180194925181e+00
    1.1876392426265684e-02 -2.0783686745964944e+00
    1.1481981417284955e-02 -1.9949942712532609e+00
    1.2385399794252443e-02 -2.0606208907687504e+00
    1.2908062198860919e-02 -2.4396237555847136e+00
    1.3063318270614847e-02 -2.4265113687667079e+00
    1.2615111424668587e-02 -2.2249902775259218e+00
    1.2540540613823465e-02 -2.2855135268693267e+00
    1.2985935022832719e-02 -2.3812958348119500e+00
    1.2643185535824726e-02 -2.2868361837922975e+00
    1.1589104424639212e-02 -2.0643092256388598e+00
    1.1954861469252545e-02 -2.0876176840682259e+00
    1.3055470693068245e-02 -2.3548805262621846e+00
    1.1876654177055863e-02 -1.9210488131387859e+00
    1.1848133843964166e-02 -1.8705241306158427e+00
    1.2454609401183933e-02 -2.1001585102746407e+00
    1.0943769088908310e-02 -1.7277475449113995e+00
    1.1713545513312202e-02 -1.8741672821299524e+00
    1.1738738780183033e-02 -2.0131937008013900e+00
    1.0488189267129499e-02 -1.6217362654298988e+00
    1.1037307410851713e-02 -1.6914673607130251e+00
    1.2934506318092990e-02 -2.3330615771260228e+00
    1.0793960862720834e-02 -1.6906041201236506e+00
    1.2083599566180719e-02 -1.9363968304804602e+00
    1.2837404149077419e-02 -2.3043140447593968e+00
    1.2200467290658740e-02 -2.0847548482913121e+00
    1.2864746010995009e-02 -2.1661016096012844e+00
    1.4152488417511475e-02 -2.6075959909264892e+00
    1.2950546039920638e-02 -2.2307315553763298e+00
    1.3826043244633820e-02 -2.3694381610491209e+00
    1.6981655392379873e-02 -3.1798149722231313e+00
    1.2570725143592426e-02 -2.2910146574197197e+00
    1.3169942102468949e-02 -2.4265618323799036e+00
    1.6092052352978625e-02 -3.2385255360369483e+00
    1.1670900415459715e-02 -2.0292778097380579e+00
    1.2863132827686629e-02 -2.3410901746389663e+00
    1.7194800734424000e-02 -3.4131679457831643e+00
    1.1269360669912954e-02 -1.9171999839689413e+00
    1.1326775809144977e-02 -1.9326311224353618e+00
    1.9272912436928389e-02 -3.9557652776795518e+00
    1.2680613544930863e-02 -2.3284776621879297e+00
    1.2407784123116491e-02 -2.2256462770840204e+00
    2.0683576729517660e-02 -4.2065224173656546e+00
    1.7748003635190846e-02 -3.3144396788718904e+00
    1.6823102627361749e-02 -3.0597017903514181e+00
    1.6624617136959560e-02 -3.2023168760068352e+00
    1.4495822435960173e-02 -2.6871630840661171e+00
    1.5908156892077717e-02 -3.0324924075523150e+00
    1.4887283354385342e-02 -2.7988092706244441e+00
    1.2598456441123599e-02 -2.2944938793396354e+00
    1.4239384518753794e-02 -2.6592050588772711e+00
    1.1829880685247653e-02 -2.0125584515777568e+00
    1.2419979712950018e-02 -2.3178787139292969e+00
    1.6071127496844240e-02 -3.1177987343877827e+00
    1.3163023298680453e-02 -2.4022517520091826e+00
    1.2044532673943393e-02 -2.0505816877388625e+00
    1.4856062496860296e-02 -2.6796622728711759e+00
    1.6323981251561211e-02 -2.9485191135632438e+00
    1.3672357450629393e-02 -2.0508536175944090e+00
    1.7792765158874888e-02 -2.9291339642797785e+00
    1.5291364523339124e-02 -2.2822361551083641e+00
    2.0951383885019138e-02 -2.4120280697628282e+00
    1.8033575962328293e-02 -1.8800002940727245e+00
    1.7303861116860976e-02 -2.5609714452954244e+00
    1.6903726542792742e-02 -1.4642853117694212e+00
    1.7731081747117804e-02 -1.5426041119992491e+00
    1.9242336611803638e-02 -2.7420329671820185e+00
    1.2372713749737195e-02 -1.1738612170063163e+00
    1.3629609026313038e-02 -1.3646646037595929e+00
    1.6453836196669326e-02 -2.6223301438441737e+00
    1.7094797610667227e-02 -2.4744719541440809e+00
    2.0042132764758167e-02 -2.9161303172723132e+00
    1.7704705408687942e-02 -3.1403721218660237e+00
    1.2705024616884997e-02 -2.2344962044946488e+00
    1.3992516005370451e-02 -2.5606304289827926e+00
    1.3747916657056570e-02 -2.4076039045670319e+00
    1.1349538803127618e-02 -1.9407711353348227e+00
    1.1323178636498399e-02 -1.9164479842273541e+00
    1.2456043499668955e-02 -2.2047196994414051e+00
    1.4269728948103036e-02 -2.1636476517561229e+00
    1.5574817267399003e-02 -2.4958644671006902e+00
    1.2851774592138219e-02 -2.1687369624233246e+00
    1.2751680051125147e-02 -1.2608223650549990e+00
    1.3024428347045336e-02 -1.2194121039921195e+00
    1.4065185392015763e-02 -2.2521878108965239e+00
    1.1740407259631476e-02 -1.2356778640762127e+00
    1.1703526051065286e-02 -1.0957426265309875e+00
    1.4882336591213590e-02 -2.4258208643678150e+00
    1.3844975230160851e-02 -1.6164008581212794e+00
    1.4788087540385905e-02 -1.7394487969378920e+00
    1.3157770158907693e-02 -2.0147835555827407e+00
    1.3285590987868020e-02 -2.2651932634314975e+00
    1.3896283476742427e-02 -2.3953718643034758e+00
    1.3326523738763189e-02 -2.0722744413776759e+00
    1.2503801171642522e-02 -2.3241440427790536e+00
    1.1594641267566083e-02 -2.0464541837254138e+00
    1.2087957704309989e-02 -2.1153925982542479e+00
    1.1839826486246308e-02 -2.1415286156998010e+00
    1.1992628298316280e-02 -2.1151998161155339e+00
    1.1639765638588187e-02 -2.0165893968854034e+00
    1.2699388627454339e-02 -2.2970019179908037e+00
    1.2926179731585120e-02 -2.3234808067524253e+00
    1.0778460988355052e-02 -1.7865299088198499e+00
    1.2116762336876705e-02 -2.0356160725952863e+00
    1.2148518408635513e-02 -2.0014684078227010e+00
    1.1689362205798158e-02 -2.0251820021545308e+00
    1.1530693782800775e-02 -1.8377043216338735e+00
    1.1619575969358682e-02 -1.8112014042237845e+00
    1.2522276203204502e-02 -2.1287869545447653e+00
    1.1042858022975778e-02 -1.7475322821359169e+00
    1.1379996582018539e-02 -1.7752794667948921e+00
    1.2981882227180183e-02 -2.3399842714492278e+00
    1.0641911629294232e-02 -1.6654591699845473e+00
    1.1611837698276724e-02 -1.8303159171908687e+00
    1.1893021739188452e-02 -2.0783055489231819e+00
    1.1298634876360725e-02 -1.8204925444536220e+00
    1.3047186075353471e-02 -2.1886654641405445e+00
    1.4659810939547159e-02 -2.7248923583883284e+00
    1.2452904223609373e-02 -2.1979375954670544e+00
    1.3065269309220412e-02 -2.3092863504047081e+00
    1.7709910506306447e-02 -3.4689287204227752e+00
    1.1984228646523142e-02 -2.0298287270048569e+00
    1.1977994180358562e-02 -1.9838552861218868e+00
    1.6633814116565390e-02 -3.1708208159702775e+00
    1.1364553607006004e-02 -1.8240108539244637e+00
    1.2490626399006079e-02 -2.0500240577368727e+00
    1.4706677501897010e-02 -2.7648553703566376e+00
    1.2775706329440322e-02 -2.1910336354990152e+00
    1.2541727177822481e-02 -2.1399321997159610e+00
    1.6525857147510249e-02 -3.1254527330228759e+00
    1.2625412886418757e-02 -2.1163348350859441e+00
    1.2368616910246025e-02 -2.0377296359630326e+00
    1.4911495566236400e-02 -2.5964641654709131e+00
    1.4335743546163560e-02 -2.6073133574584975e+00
    1.4371020451974229e-02 -2.6011547018073355e+00
    1.4842121749845227e-02 -2.7383714628464446e+00
    1.3663919083713200e-02 -2.5534448787689041e+00
    1.2803425630698393e-02 -2.3046166135257109e+00
    1.2574280562059512e-02 -2.2146451639927314e+00
    1.2751420872611722e-02 -2.3606067890422451e+00
    1.3660552092123808e-02 -2.5272021370429045e+00
    1.3501672227645914e-02 -2.4589920544600119e+00
    1.0998488585000301e-02 -1.9646050234956787e+00
    1.2087571349756432e-02 -2.1666971644438404e+00
    1.3314134140863878e-02 -2.4414793480809136e+00
    1.4169171399793373e-02 -2.6460927589114123e+00
    1.4380769088457321e-02 -2.6496567045482613e+00
    1.5643271019101124e-02 -2.8509861432311796e+00
    1.5829825945144552e-02 -1.9906006126019273e+00
    1.8349589158731597e-02 -2.4817819337184486e+00
    1.6097687412619754e-02 -2.1631267460707795e+00
    1.6150348957609518e-02 -1.3223098209042792e+00
    1.6349562879842853e-02 -1.3815380633467211e+00
    1.4614511229864161e-02 -2.1264113839452352e+00
    1.7726206073927209e-02 -1.2940130433966863e+00
    1.9326659875876825e-02 -1.3842720136096776e+00
    1.4660598638229728e-02 -1.8783892005231839e+00
    1.6413891394359455e-02 -1.6147165659201113e+00
    1.8655014031406871e-02 -1.8724970334024647e+00
    1.4536159180950577e-02 -2.1822408970402054e+00
    1.1137266274738303e-02 -1.7151390063096987e+00
    1.2551849763397318e-02 -2.0537964175358860e+00
    1.2927732356928290e-02 -2.1653951697854885e+00
    1.6056651465999418e-02 -2.8841760195801456e+00
    1.4720613520850644e-02 -2.5981882864301387e+00
    1.6746849541773551e-02 -2.9997794241701872e+00
    1.7406817806956413e-02 -3.4617808913584565e+00
    1.5482057047340486e-02 -2.9783607244821262e+00
    1.8050276865166911e-02 -3.5559045424378812e+00
    1.5180730273691217e-02 -2.7173507189907280e+00
    1.5138515415548429e-02 -2.8063022951572902e+00
    1.4633765485479552e-02 -2.5133492221311133e+00
    1.5776944646840759e-02 -2.0135325605530521e+00
    1.6049153582750091e-02 -1.9600028812933550e+00
    1.5960848176422297e-02 -2.6295497370655734e+00
    1.1762925297458765e-02 -1.1204186345829474e+00
    1.2417585586505754e-02 -1.1222392973804576e+00
    1.4348165893656773e-02 -2.3925566627672668e+00
    1.2182672055959812e-02 -1.1025318210643629e+00
    1.2816053703299246e-02 -1.2127190816746911e+00
    1.4795369348677093e-02 -2.2692397738533492e+00
    1.6668403049092242e-02 -2.5419314649865670e+00
    1.7812513059868872e-02 -2.8388692689166017e+00
    1.3818100508606480e-02 -2.2454413326485532e+00
    1.0975475603600777e-02 -1.8301605569004296e+00
    1.2399658766086070e-02 -2.1389411371498470e+00
    1.2011863068389823e-02 -1.9414173684285050e+00
    1.3556927097446995e-02 -2.6080138503713655e+00
    1.3517390352702578e-02 -2.5429590601021723e+00
    1.3111741668513642e-02 -2.3519186617896346e+00
    1.1497861237421515e-02 -2.0293725084048972e+00
    1.2455817030131135e-02 -2.2591738138400346e+00
    1.1846470973504396e-02 -2.0746132292349575e+00
    1.1583211240193562e-02 -2.0241661642238249e+00
    1.2530445342799923e-02 -2.2022257689970863e+00
    1.2400746190849530e-02 -2.2677864596516075e+00
    1.2020578815173259e-02 -1.9924109386149678e+00
    1.2906466260056223e-02 -2.2150722718821494e+00
    1.2699772661221614e-02 -2.1922982556433812e+00
    1.0274835010953991e-02 -1.5694810479232222e+00
    1.1647411777696072e-02 -1.8868807079867638e+00
    1.2999094258729055e-02 -2.2667170613658789e+00
    1.2851177623425631e-02 -2.2039769624174959e+00
    1.3386707679139584e-02 -2.2807603208334069e+00
    1.5056438028387227e-02 -2.8494308968722826e+00
    1.1759061666668723e-02 -2.0196188412503533e+00
    1.2136657459401469e-02 -2.0905392473819031e+00
    1.6823102627361749e-02 -3.3456945350165679e+00
    1.2285337340052748e-02 -2.1852543793618828e+00
    1.2948866443379718e-02 -2.3227029182812369e+00
    2.1873931962990357e-02 -4.5607148142834895e+00
    1.0171508823911877e-02 -1.5269977621897706e+00
    1.2600065835515987e-02 -2.0664107970246217e+00
    1.2628684476743904e-02 -2.2305413957048921e+00
    1.0467268691856223e-02 -1.6211182386512326e+00
    1.1533281735228208e-02 -1.8092835722139251e+00
    1.3921910005460562e-02 -2.5999166935197597e+00
    1.0660499574742041e-02 -1.6057377484455200e+00
    1.1541536472113234e-02 -1.8134639181807919e+00
    1.3622809579428760e-02 -2.3891002299923190e+00
    1.2340404879630550e-02 -2.0006881411101030e+00
    1.3124210039891129e-02 -2.1818999191319004e+00
    1.2135833520327422e-02 -1.9766238846233288e+00
    1.0379985922153639e-02 -1.7957375645325797e+00
    1.2125945392845295e-02 -2.2160165205424778e+00
    1.1411641193550625e-02 -1.9927578434237780e+00
    1.1120478654051311e-02 -1.9558141832812743e+00
    1.3021374223996541e-02 -2.3894221701033653e+00
    1.1191230406643196e-02 -1.8941157463243610e+00
    1.0846044399528730e-02 -1.9089038143170565e+00
    1.3738831173704905e-02 -2.5571399522058256e+00
    1.2078915690586054e-02 -2.1077707880072665e+00
    1.2013149582403508e-02 -2.1984063735798420e+00
    1.2360538700238651e-02 -2.2171716293553079e+00
    1.2991464569796067e-02 -2.2767541658567607e+00
    1.3077360830041983e-02 -2.1724765678907243e+00
    1.5283911672666942e-02 -2.6001754733124636e+00
    1.5471370128043619e-02 -2.4986262756790443e+00
    2.0257969131568913e-02 -2.3220697117060864e+00
    2.6285231768388460e-02 -2.9998020755673331e+00
    1.5515797578487834e-02 -2.2362143259995588e+00
    1.6322995818875870e-02 -1.1222059625477161e+00
    1.5312301868469587e-02 -1.2326403004118016e+00
    1.6124346695726190e-02 -2.3602012475869212e+00
    1.9914797568247333e-02 -1.4089719279534987e+00
    2.2190739185001418e-02 -1.3647304598775871e+00
    1.3331852098719715e-02 -1.6998111425867637e+00
    1.7181827821083667e-02 -2.1112170935156556e+00
    1.6143244958604062e-02 -1.8665626983385946e+00
    1.3387063787607026e-02 -1.9377774832561170e+00
    1.0673395398600176e-02 -1.6263586238617018e+00
    1.1142277418422577e-02 -1.7883355256568236e+00
    1.4774034772565585e-02 -2.6039236286646843e+00
    1.2768219107379946e-02 -2.2695509463367856e+00
    1.2283874505907341e-02 -2.2264522541957055e+00
    1.4152067668903107e-02 -2.5420651550267208e+00
    1.5100899644018551e-02 -2.7257123857453487e+00
    1.3680211377999095e-02 -2.4094272289500904e+00
    1.5282768192321263e-02 -2.7967465791947914e+00
    1.1326140097147105e-02 -1.9353541891000114e+00
    1.3412872781415593e-02 -2.4327598007292530e+00
    1.2657467327727190e-02 -2.1264545110581676e+00
    1.9768639891112071e-02 -3.6349586599782322e+00
    1.8452194626951621e-02 -3.3767516167321467e+00
    1.9091828203109600e-02 -3.7706360701141461e+00
    1.2241764307991164e-02 -1.5409320822683878e+00
    1.1944942744034893e-02 -1.4796797824173225e+00
    2.2058162024043790e-02 -4.2268952978573910e+00
    1.2297058857776648e-02 -1.2988768418526584e+00
    1.2578429774289693e-02 -1.3427473784054247e+00
    1.9620163825679691e-02 -3.3280702889309177e+00
    1.3951941595732107e-02 -1.7091128454771831e+00
    1.3501191532731466e-02 -1.5998911966286786e+00
    2.3634322578455557e-02 -4.0060176770482165e+00
    1.6078948510542129e-02 -2.8721021776955875e+00
    1.6996826139050132e-02 -3.0849239442375991e+00
    1.9341113854000804e-02 -3.3726067282913901e+00
    1.2971775342062484e-02 -2.3965354944460437e+00
    1.5069574839417616e-02 -2.8255452823908032e+00
    1.7417706091165417e-02 -3.3376679297195730e+00
    1.2889435050488148e-02 -2.3958237400094844e+00
    1.3686436174879675e-02 -2.5251474742653000e+00
    1.2202610234464856e-02 -2.1232541807968852e+00
    1.3401782773464647e-02 -2.5228856071047199e+00
    1.3277555670320195e-02 -2.4314523821273859e+00
    1.1909879475644231e-02 -2.0991162575822955e+00
    1.7096046659722555e-02 -3.2268788070226320e+00
    1.7474789810345410e-02 -3.2743387407134712e+00
    1.4521089158109821e-02 -2.6900317665398443e+00
    1.1943132311225440e-02 -2.0736263475365169e+00
    1.2724809834170757e-02 -2.2634255492531232e+00
    1.6426896936871455e-02 -3.1888713678701714e+00
    1.2745334723314300e-02 -2.2479584118245595e+00
    1.3227640520234802e-02 -2.3545200126017947e+00
    1.9591902013943036e-02 -3.9845030720856647e+00
    1.2707460660409044e-02 -2.2285709133192362e+00
    1.2590590228372184e-02 -2.1828935808440275e+00
    1.5065298933523458e-02 -2.9377332920370742e+00
    1.2020863786332811e-02 -2.1171746343678661e+00
    1.2358694894950173e-02 -2.1782199752349678e+00
    1.2131479207068885e-02 -2.2883002654333686e+00
    9.9676575841495200e-03 -1.4752133224541291e+00
    1.2460651061144348e-02 -2.0606801692367465e+00
    1.3589728959126107e-02 -2.4529460771222622e+00
    1.0655533897588280e-02 -1.6595994045493745e+00
    1.2700412794929759e-02 -2.1066809723589737e+00
    1.4929115027731131e-02 -2.8216027402411838e+00
    1.2205464515046265e-02 -1.9757595683731142e+00
    1.1806668079043519e-02 -1.8610260559592346e+00
    1.4732815108002832e-02 -2.6242826911130046e+00
    1.3439191909558440e-02 -2.4005756548448764e+00
    1.4720040368294059e-02 -2.7103274328121434e+00
    1.2634211057199838e-02 -2.2678408847673710e+00
    1.2221733739848547e-02 -2.1815794725629658e+00
    1.3467498192509961e-02 -2.4190993628296016e+00
    1.1906357140346205e-02 -2.0702178477776965e+00
    1.1600295811314831e-02 -2.0996535418479843e+00
    1.2135261051310247e-02 -2.1600764671332242e+00
    1.1441666788389565e-02 -1.9980010629225278e+00
    1.1225696065657603e-02 -1.9827385675967741e+00
    1.1269796761472561e-02 -1.9496748397347530e+00
    1.2650771163367665e-02 -2.1743512937038174e+00
    1.4050491592490541e-02 -2.6871565170638161e+00
    1.3517525427133437e-02 -2.4669483904518521e+00
    1.3453170535726620e-02 -2.3055371005601493e+00
    1.3470247012172214e-02 -1.9616047211475787e+00
    1.5746689145343912e-02 -2.3029532875065470e+00
    1.3886566116994707e-02 -2.1715117765450471e+00
    1.3289861676942736e-02 -1.1445893369266931e+00
    1.4269797050369485e-02 -1.2307699955943681e+00
    1.7555514511460812e-02 -2.5411607255339526e+00
    1.6014483642781355e-02 -1.1330247177267809e+00
    1.8737110090674136e-02 -1.3467297877672035e+00
    1.6474197705595325e-02 -2.3413953489077355e+00
    2.9660567618601544e-02 -2.5137331056764807e+00
    3.4102505264722860e-02 -2.7921426185491840e+00
    1.4968890020167417e-02 -2.0769334902982290e+00
    1.1095412277752542e-02 -1.5339407473992890e+00
    1.0551188625377421e-02 -1.4085836814878858e+00
    1.2912920855105791e-02 -1.9450087038003099e+00
    1.5981886804728559e-02 -2.1715388695924931e+00
    1.5370326032005078e-02 -2.0615449790426812e+00
    1.6532348806169161e-02 -2.4199225565030109e+00
    1.2738853503184714e-02 -2.0063694267515926e+00
    1.2606337416023754e-02 -2.0091350256787859e+00
    1.5842733462211534e-02 -2.6893040052104080e+00
    1.2575445656392526e-02 -1.9586256609831361e+00
    1.2487810821089254e-02 -1.8981472448055667e+00
    1.4187274193888502e-02 -2.2788309173933405e+00
    1.4128918022052342e-02 -2.4743267686119164e+00
    1.6538530041390560e-02 -3.0100124675330822e+00
    1.4816669555177964e-02 -2.6651484362376361e+00
    1.6917138198081643e-02 -3.1592755584917467e+00
    1.4832730714387019e-02 -2.7218060860900182e+00
    1.5224209910173894e-02 -2.7631940986965615e+00
    1.9496891255284012e-02 -3.0561377042657689e+00
    1.9706167050832654e-02 -3.0766253308112481e+00
    1.6071419362779529e-02 -2.8426322997916293e+00
    1.3243653697664047e-02 -1.4799783007139573e+00
    1.2850381794530560e-02 -1.3942664247065657e+00
    2.1846836214946336e-02 -3.8723517190992380e+00
    1.2401938217843423e-02 -1.3657634462400070e+00
    1.2087295404898248e-02 -1.3719080284559513e+00
    3.0154775524074948e-02 -5.5070158800841877e+00
    2.2310624173280339e-02 -3.3605377661003510e+00
    2.0883529084161571e-02 -3.1377502448952761e+00
    2.1507940962721486e-02 -3.8418559544661255e+00
    1.6113320627626954e-02 -3.0212476176800540e+00
    1.6038538795292510e-02 -3.0232645629126380e+00
    1.6679449007047251e-02 -3.0419145126602425e+00
    1.3239536167760545e-02 -2.4939976256018928e+00
    1.4697640285779285e-02 -2.8550166255126261e+00
    1.7598491170047845e-02 -3.3811101160454422e+00
    1.6936120064789353e-02 -3.3215965477068119e+00
    1.4376983333896197e-02 -2.7657721688582808e+00
    1.5985459844305085e-02 -3.0831955674703431e+00
    1.9184928101634007e-02 -3.9089291007079288e+00
    1.5097054004170546e-02 -3.0401692500898436e+00
    1.4384976408031503e-02 -2.9075633564733678e+00
    1.6214676546473877e-02 -3.0970032203765108e+00
    1.6946148226421275e-02 -3.3108537097370565e+00
    1.5728327357744577e-02 -3.1633598398263780e+00
    1.2594568315305435e-02 -2.1410766136019239e+00
    1.3064711780418970e-02 -2.2438642482869580e+00
    1.7658753409348818e-02 -3.3706145570094557e+00
    1.3265721481294838e-02 -2.3132101833007876e+00
    1.3884056322720334e-02 -2.4453294198391187e+00
    1.6379177304873357e-02 -3.2164609432445057e+00
    1.2015154659700086e-02 -2.0395725034840897e+00
    1.2695805991494322e-02 -2.1820916547880866e+00
    1.5889319146151697e-02 -3.0964310686063121e+00
    1.0499157804463456e-02 -1.6011215651806772e+00
    1.1934822878920327e-02 -1.9036042491877920e+00
    1.4842760375024836e-02 -2.7180804936764229e+00
    1.1545129452663479e-02 -1.8674246889683177e+00
    1.2554198740126152e-02 -2.0604578682232049e+00
    1.4000399017058058e-02 -2.4710704265107473e+00
    1.1902245110004428e-02 -1.9207248046269645e+00
    1.4959988785996610e-02 -2.6628780039073967e+00
    1.4648280778388142e-02 -2.6403526103044626e+00
    1.1662104962736342e-02 -2.0087975798313349e+00
    1.4474168369344186e-02 -2.7265714665752112e+00
    1.1781751302555939e-02 -2.0632791968601087e+00
    1.1155962852044267e-02 -1.9076696476995696e+00
    1.4384418319035331e-02 -2.5945894542959977e+00
    1.3360098897830129e-02 -2.4666082590118874e+00
    1.2058480738589214e-02 -2.2067019751618262e+00
    1.3457414525261278e-02 -2.4896216871733365e+00
    1.3528112408610373e-02 -2.5060828236950714e+00
    1.2327432003307751e-02 -2.2343470505995300e+00
    1.2449767319913683e-02 -2.2409581175844631e+00
    1.1706169493053845e-02 -1.9695630172063094e+00
    1.2630447156067605e-02 -2.0508688569664772e+00
    1.2363608622182025e-02 -1.9611774176936236e+00
    1.2377451632451773e-02 -2.0438267008085989e+00
    1.3538956961193629e-02 -1.6957543593895021e+00
    1.5030373255020914e-02 -1.7360081109549155e+00
    1.4267550190270826e-02 -2.1775848477900848e+00
    1.2349105677589131e-02 -1.2580651409043928e+00
    1.3320093819745223e-02 -1.3286793585195860e+00
    1.7306168824672806e-02 -2.7495175720198919e+00
    1.9480063871581636e-02 -1.4926598941599429e+00
    2.2331737058888308e-02 -1.7809560304463425e+00
    1.7475415185299902e-02 -2.4727712487199360e+00
    1.2625035558820273e-02 -1.4282071475915434e+00
    1.2667126606068599e-02 -1.5279721468570246e+00
    1.2246683320126191e-02 -1.7880157647384238e+00
    1.2138850792957364e-02 -1.5097695673740721e+00
    1.1862087929357870e-02 -1.4723816642315457e+00
    1.2699644646094778e-02 -1.8430359292645047e+00
    1.5216827245857356e-02 -1.6472215493640587e+00
    1.5171991653191776e-02 -1.7144350568106708e+00
    1.3787223410354902e-02 -1.6458497946111164e+00
    1.7507692080299505e-02 -1.9739922820537692e+00
    1.7714077891412407e-02 -2.1101895288145029e+00
    2.2660161930733058e-02 -2.9146633283405396e+00
    1.1169045664981225e-02 -1.6558110198334666e+00
    1.1406431847152581e-02 -1.6995583452257346e+00
    1.7274951476686378e-02 -2.9151480616908265e+00
    1.1540287525842519e-02 -1.8421183963126120e+00
    1.3077553029699993e-02 -2.1479880851282238e+00
    1.1939620290331073e-02 -1.8760128381182699e+00
    1.4517765217398653e-02 -2.5097586619577923e+00
    1.9138098792259670e-02 -3.6266697211332075e+00
    1.7182105221223563e-02 -3.0154594663247352e+00
    1.8326463787752132e-02 -3.2300392425913134e+00
    2.5436076843652025e-02 -4.7088537256810810e+00
    1.4707075124746014e-02 -2.6252129097671633e+00
    1.2786161609921335e-02 -1.3888968048777051e+00
    1.4010701257175500e-02 -1.6532627483467091e+00
    2.0999183672601784e-02 -3.6433583671964094e+00
    1.2009034191846582e-02 -1.2249214875683514e+00
    1.2837288454277021e-02 -1.3366826603015949e+00
    1.9486997718283557e-02 -3.3152254868229902e+00
    1.2935300971008550e-02 -1.2935300971008550e+00
    1.4316883785471224e-02 -1.5426442278845243e+00
    1.9876221146454362e-02 -3.2323704639421407e+00
    1.4972979436839121e-02 -2.4106496893310987e+00
    1.9308581651167746e-02 -3.1762616816170941e+00
    1.8298301872010262e-02 -3.0901257286357331e+00
    1.2856370719161020e-02 -2.3800356293846838e+00
    1.4030014685322705e-02 -2.6604415347043178e+00
    1.7159955576364506e-02 -3.2260716483565273e+00
    1.6292096426760581e-02 -3.1647397308982428e+00
    1.9432650532089167e-02 -3.9423989766975898e+00
    1.5957291611240466e-02 -3.0757679580665997e+00
    1.9324855406179113e-02 -3.9156988266770427e+00
    1.6421601058527243e-02 -3.3335850148810304e+00
    1.7363917870364686e-02 -3.5726261018275340e+00
    1.7173868201560520e-02 -3.2716218923972793e+00
    1.8914326681700157e-02 -3.7332152288005687e+00
    1.5982237622161343e-02 -3.1844608462156474e+00
    1.2923211049880541e-02 -2.1678686536174610e+00
    1.3942191780435001e-02 -2.3806292465092764e+00
    1.7027637132116510e-02 -3.1437275055170106e+00
    1.2622379501167317e-02 -2.1899828434525297e+00
    1.3878205424146521e-02 -2.4755248925321358e+00
    1.9275597559186845e-02 -3.8021116185496049e+00
    1.2750513872251288e-02 -2.2743729119628235e+00
    1.3630143134845873e-02 -2.4772785147582375e+00
    1.4694391955544395e-02 -2.9003056122255750e+00
    1.1417206479400326e-02 -1.8552960529025531e+00
    1.1149557772231537e-02 -1.7212129810882435e+00
    1.2748425268349349e-02 -2.2182259966927869e+00
    1.1712051621965100e-02 -2.0159368854307429e+00
    1.1326083342352260e-02 -1.8036787722695975e+00
    1.4012764435675899e-02 -2.5363103628573378e+00
    1.2509792378663233e-02 -2.1438656688934117e+00
    1.2655202423027615e-02 -2.1972595206981698e+00
    1.2665840599334561e-02 -2.2481867063818846e+00
    1.2392768466440055e-02 -2.2353456121341249e+00
    1.3378674681984695e-02 -2.4650208101556799e+00
    1.3064990535897804e-02 -2.3484320488276302e+00
    1.1706520416199651e-02 -2.1130269351240369e+00
    1.3837124026412139e-02 -2.5477604613631351e+00
    1.3070935757779057e-02 -2.3544023033699526e+00
    1.1039545570875399e-02 -1.9553795092413049e+00
    1.1555494568384049e-02 -2.0409892281408326e+00
    1.3209613905398009e-02 -2.3529624768990205e+00
    1.3396896097789397e-02 -2.2707738885753028e+00
    1.5002464474417890e-02 -2.6760646006242914e+00
    1.2847531287954740e-02 -2.1615971391983853e+00
    1.5141118109565482e-02 -2.0535141436098185e+00
    1.5670978520180567e-02 -2.0215562291032931e+00
    1.3069540255650986e-02 -2.0666210529248121e+00
    1.1646029424499152e-02 -1.1413108836009169e+00
    1.2128620750156629e-02 -1.1431225057022623e+00
    1.5612884560622240e-02 -2.4687873711483919e+00
    1.3400523003305211e-02 -1.1742208281646191e+00
    1.4228930021001630e-02 -1.3339621894689029e+00
    2.0286085868627807e-02 -3.1367360274365748e+00
    2.3464648585096441e-02 -2.4080595610455222e+00
    2.4948523684092731e-02 -2.5229194575538774e+00
    1.5173110446108404e-02 -2.2892430385566054e+00
    1.2886140536378781e-02 -1.8008381399589346e+00
    1.1891615777685832e-02 -1.5682068306823191e+00
    1.3651181465163540e-02 -2.0357324359925131e+00
    1.7334747376720156e-02 -1.7659773890033659e+00
    1.6207354317181656e-02 -1.6409946246146427e+00
    1.4875157106965894e-02 -1.8612540330091076e+00
    1.3097114263393836e-02 -1.2524115514370355e+00
    1.2527940693495531e-02 -1.2324361657226228e+00
    1.2599628269201099e-02 -1.3639097601410188e+00
    1.8090891393662097e-02 -2.1596001601184129e+00
    1.7381449986274954e-02 -2.2248255982431941e+00
    1.8037838541897413e-02 -2.2118899512001704e+00
    1.1900809539193867e-02 -1.6690885378719398e+00
    1.2536043974814491e-02 -1.8114583543606939e+00
    1.5216304255632217e-02 -2.3185843609519590e+00
    1.1372864772932811e-02 -1.6291628787226253e+00
    1.2222703689284744e-02 -1.8181271737811056e+00
    1.2762953393027477e-02 -1.8506282419889841e+00
    1.1893179448215715e-02 -1.9742677884038087e+00
    1.4796153795839262e-02 -2.5819288373739511e+00
    1.4215984002506316e-02 -2.4273792684279534e+00
    1.2637000718648183e-02 -2.2699212540871798e+00
    1.2563716303910221e-02 -2.2677507928557947e+00
    1.2495866918951227e-02 -2.1695948938029068e+00
    1.4149057089892822e-02 -1.9508012462689728e+00
    1.4915434414767424e-02 -2.0527366613323665e+00
    1.4354377636030344e-02 -2.3343806630594348e+00
    1.1634594543263002e-02 -1.2623535079440358e+00
    1.2643359220378826e-02 -1.2801401210633561e+00
    1.6832893988844237e-02 -2.7353452731871886e+00
    1.1473806513691905e-02 -1.1473806513691904e+00
    1.2380059789062810e-02 -1.2890737255361651e+00
    1.3463587843797522e-02 -2.1844671276561480e+00
    1.5117391172008143e-02 -1.8783358531220118e+00
    1.8625867926097082e-02 -2.5028510025692952e+00
    1.6615542906221917e-02 -2.6875640650813950e+00
    1.8580749724221902e-02 -3.5210520727400505e+00
    1.5877141705730152e-02 -2.9253633592807806e+00
    1.8966560758641997e-02 -3.5870508034781676e+00
    1.5490500579790206e-02 -3.0942274908130938e+00
    2.8042913956329244e-02 -6.1168606067243161e+00
    1.7529870739427859e-02 -3.5278864863098565e+00
    1.7712297710801905e-02 -3.6664456261359946e+00
    1.6313388714079693e-02 -3.3952240261178361e+00
    1.5704277426551793e-02 -3.2115247337298416e+00
    1.7227302100915658e-02 -3.4282331180822161e+00
    1.7830865105689514e-02 -3.6196656164549714e+00
    1.5746079099390964e-02 -3.1728349385272794e+00
    1.4637022764240152e-02 -2.5925826571160369e+00
    1.8155251803433171e-02 -3.3791462419139990e+00
    1.6083724614484544e-02 -3.0197192963694732e+00
    1.3250718670404490e-02 -2.3039687088165808e+00
    1.3673315983805428e-02 -2.3791569811821445e+00
    1.7583181992889059e-02 -3.2946487259175874e+00
    1.3103437418009314e-02 -2.2259464313843322e+00
    1.3355909059817971e-02 -2.2504706765793281e+00
    1.6889368053313016e-02 -3.2047575881161445e+00
    1.1236143455727021e-02 -1.8048055425761527e+00
    1.2592071820144176e-02 -2.1217641016942936e+00
    1.4177000753284765e-02 -2.5057848831430820e+00
    1.1359156529885684e-02 -1.7933268371557025e+00
    1.3343140439202039e-02 -2.2366439161212419e+00
    1.0555743296332340e-02 -1.7628091304875009e+00
    1.2226300222499240e-02 -2.1457156890486169e+00
    1.2836875284094846e-02 -2.3427297393473094e+00
    1.1734911550365077e-02 -2.0492089294825018e+00
    1.1578806342786414e-02 -2.1058954035942792e+00
    1.2169485731831332e-02 -2.2133252174768234e+00
    1.1846354079268715e-02 -2.0375729016342188e+00
    1.1595079686308515e-02 -2.0726204939276469e+00
    1.2617747201759613e-02 -2.2191462891094718e+00
    1.1446537904940211e-02 -1.8843863026007823e+00
    1.2058604025503294e-02 -2.1599974460682776e+00
    1.2673228565422355e-02 -2.2637554524985681e+00
    1.4333534414821637e-02 -2.4098254734918876e+00
    1.5171991653191776e-02 -2.5109646186032388e+00
    1.5287678605618969e-02 -2.5148231306243205e+00
    1.5289130315600459e-02 -2.6794200878089804e+00
    1.3166748824806881e-02 -1.3907378446202268e+00
    1.3513821995440061e-02 -1.3851667545326063e+00
    1.4709163173958728e-02 -2.2762430011701134e+00
    1.1606361696017602e-02 -1.0634328903976127e+00
    1.2718038421826013e-02 -1.2241111981007538e+00
    1.4498464603282857e-02 -2.1675204581907872e+00
    1.9457464780706674e-02 -1.9627717597537857e+00
    1.8846184534827604e-02 -1.8587049497473724e+00
    1.7146706835732266e-02 -2.7520464471350286e+00
    1.4638394900900176e-02 -1.8535867543264848e+00
    1.3197385609414044e-02 -1.6414248351708718e+00
    1.4608272377400623e-02 -2.2715863546857968e+00
    1.2242222973895208e-02 -1.6419881563736949e+00
    1.2267630231448190e-02 -1.7174682324027466e+00
    1.3337557562170185e-02 -1.9839616873728150e+00
    2.0149663327125551e-02 -2.5993065691991961e+00
    1.8272318501420168e-02 -2.2497792154873584e+00
    1.7298844027153416e-02 -2.3137203886317694e+00
    1.4358145556346838e-02 -1.3030017092384756e+00
    1.3966562177774434e-02 -1.2709571581774735e+00
    1.3004090836395034e-02 -1.2646478338394171e+00
    1.7245224542369073e-02 -2.1470304555249498e+00
    1.6754487015595964e-02 -2.0964051878264449e+00
    1.7560927554933835e-02 -2.3487740604724006e+00
    1.2315346232605847e-02 -1.5286423511222007e+00
    1.3846883079908799e-02 -1.9731808388870038e+00
    1.2970684119200836e-02 -1.8126531056583168e+00
    1.1531688021371627e-02 -1.4039830166019955e+00
    1.1426519503184348e-02 -1.3826088598853061e+00
    1.2669922243114393e-02 -1.7563679709517328e+00
    1.1847445226723969e-02 -1.4305790111269192e+00
    1.3251445787018364e-02 -1.7177186601422554e+00
    1.2283584897756838e-02 -1.6828511309926868e+00
    1.3011725595125251e-02 -1.8736884856980363e+00
    1.4388512480791817e-02 -2.1492840518182779e+00
    1.4493919066682390e-02 -2.1505352415189996e+00
    1.4729218851172045e-02 -2.2701408554368916e+00
    1.5617644024229296e-02 -2.4344002622767413e+00
    1.3592259034124417e-02 -2.0065572399126173e+00
    1.6657740104881007e-02 -1.6345407477914489e+00
    1.9364217060053156e-02 -1.7597232253323305e+00
    1.4209636304050928e-02 -1.9200771055848815e+00
    1.3527899651501567e-02 -1.1887641818757002e+00
    1.6114497407553371e-02 -1.3254174117712647e+00
    1.5834166298365614e-02 -2.3909591110532076e+00
    1.3984988179718173e-02 -1.4754162529602672e+00
    1.4416122781141310e-02 -1.6001896287066855e+00
    2.0987907234630971e-02 -3.6046730675478691e+00
    1.8821914313326613e-02 -3.1714925617955343e+00
    2.8264493022303955e-02 -4.9604185254143438e+00
    2.1054964668285606e-02 -3.8320035696279802e+00
    1.3511528166711386e-02 -2.5384783543209015e+00
    1.5172018937879476e-02 -2.9035451242366848e+00
    1.5244540097646505e-02 -2.8202399180646034e+00
    1.4538655408879672e-02 -2.8005084981354469e+00
    1.5814384669300026e-02 -3.0897354047644927e+00
    1.4097797285522544e-02 -2.6080924978216706e+00
    1.6402019725544652e-02 -3.1799415742899697e+00
    1.5926556791328556e-02 -3.0718346411274955e+00
    1.2569732028621451e-02 -2.2782639301876380e+00
    1.4457519156226279e-02 -2.6511475752729941e+00
    1.5216524455470230e-02 -2.8283714831605291e+00
    1.4337838561881030e-02 -2.6775913514312824e+00
    1.3501210759542288e-02 -2.3002687831570174e+00
    1.4421462415665229e-02 -2.4913076323061683e+00
    1.5631321927086550e-02 -2.8409927602479805e+00
    1.1640221517996822e-02 -1.8871709136052348e+00
    1.2146893866993686e-02 -1.9860171472534676e+00
    1.6913961852986926e-02 -3.1713678474350484e+00
    1.2304722058732367e-02 -2.0548885838083053e+00
    1.2512775907856641e-02 -2.0176851151418833e+00
    1.3442511682975996e-02 -2.3389970328378231e+00
    1.1182884720161585e-02 -1.8689396088570049e+00
    1.2788775358038700e-02 -2.2332398968975080e+00
    1.1196797278286432e-02 -1.8642667468346910e+00
    1.1857227045266155e-02 -2.1135507208186923e+00
    1.2564026181705162e-02 -2.2772297454340604e+00
    1.1967696410008888e-02 -2.0868670614952998e+00
    1.2014897194955548e-02 -2.1461610114489349e+00
    1.3279750664398191e-02 -2.4517739664145162e+00
    1.1136327437785818e-02 -1.8695109686182942e+00
    1.1254262919821324e-02 -1.9751231424286424e+00
    1.2577139504337797e-02 -2.2057158405732409e+00
    1.2289279454133105e-02 -2.1275815054967939e+00
    1.2307575786816316e-02 -2.0092117471977637e+00
    1.4210241547960804e-02 -2.3624526573484834e+00
    1.3605619260739490e-02 -2.1785997841259110e+00
    1.5881646285461151e-02 -1.9494720815403561e+00
    1.8902074074463114e-02 -2.3651220185671971e+00
    1.5517899096268165e-02 -2.4304909459530015e+00
    1.2101060466176761e-02 -1.0074132838092154e+00
    1.3168443291816505e-02 -1.1588230096798524e+00
    1.4695185241993860e-02 -2.2428526475593129e+00
    1.2506658147967814e-02 -1.2600458084077573e+00
    1.2158798925621233e-02 -1.1748439461881517e+00
    1.4319199911998851e-02 -2.3608780854908105e+00
    2.0366918226710141e-02 -2.4363925928702006e+00
    1.9296950600617601e-02 -2.1877917743450204e+00
    1.8966134344960087e-02 -2.9136723887444935e+00
    1.2184494712572817e-02 -1.5306771482669601e+00
    1.1687428517797138e-02 -1.4974517788427584e+00
    1.3298525666912205e-02 -1.9498963259110020e+00
    1.1691022200193831e-02 -1.4628391527992530e+00
    1.1797215982762616e-02 -1.5144676017871508e+00
    1.2063140872855099e-02 -1.7280449300364928e+00
    1.6902820990055661e-02 -2.5375360011321062e+00
    1.5793661227539408e-02 -2.3749718070912387e+00
    1.4939550010770354e-02 -2.1568975328049698e+00
    1.8380025975188001e-02 -1.6748798669890066e+00
    1.8643005065820759e-02 -1.5986376843941301e+00
    1.6701825349596137e-02 -1.6388666124291209e+00
    2.4841366501536989e-02 -2.5213986999060043e+00
    2.0619652471058063e-02 -1.9279375060439288e+00
    2.7582271538073837e-02 -3.2478124736081941e+00
    1.4057539734346357e-02 -2.0225285292790822e+00
    1.4150473593598603e-02 -2.0358993882789989e+00
    1.4713466364519852e-02 -2.0690812075106040e+00
    1.1822437761093211e-02 -1.2546562073960170e+00
    1.2046662772449703e-02 -1.2709229224934437e+00
    1.2764789152238640e-02 -1.5525174806410247e+00
    1.4432464818869747e-02 -1.4991722830600949e+00
    1.3722167302229518e-02 -1.4631260886002224e+00
    1.5482057047340486e-02 -1.7552782177422277e+00
    1.4063446647141129e-02 -1.8968073665331597e+00
    1.4359741459669886e-02 -1.9403600647378934e+00
    1.4161355003446351e-02 -2.0640174917523058e+00
    1.1843705404383767e-02 -1.6373922721560559e+00
    1.2474261842046365e-02 -1.7120924378208637e+00
    1.2909473838037101e-02 -1.7395515996754993e+00
    1.6570429134154449e-02 -2.0754462490528449e+00
    1.5850692260666273e-02 -1.8505683214327873e+00
    1.1991765982640479e-02 -1.5514347240041120e+00
    1.5538023425818165e-02 -1.1284489513000442e+00
    1.6123265991899158e-02 -1.2495531143721847e+00
    1.5062548244084397e-02 -2.0503893797259884e+00
    1.6953452633792374e-02 -1.3329652133319254e+00
    1.8194792235834489e-02 -1.5420086419869730e+00
    1.9211241096349758e-02 -2.8144468206152395e+00
    1.7826659028960037e-02 -2.1503407453683043e+00
    2.0697070284809410e-02 -2.5198683071755457e+00
    1.8522141441011872e-02 -3.0584686054470853e+00
    1.6522860864619328e-02 -2.9369385186860857e+00
    1.7246226327175890e-02 -3.0719840645282055e+00
    1.5311656791007764e-02 -2.4479511294623664e+00
    1.7034390953425751e-02 -3.4920501454522790e+00
    1.4562892314528429e-02 -2.8980155705911574e+00
    1.5593416153830345e-02 -3.0075801406700275e+00
    1.7572446917510528e-02 -3.5891722829015253e+00
    1.5701978304012557e-02 -3.1835761011385459e+00
    1.6546204410619467e-02 -3.3402650153938049e+00
    1.5905609883922107e-02 -3.0936411224228499e+00
    1.5373816569449231e-02 -3.0171115017544117e+00
    1.8375758610132263e-02 -3.7050123297679174e+00
    1.7201198814821812e-02 -3.1886722302975934e+00
    1.5829701987493075e-02 -2.9047503147049794e+00
    1.7257779492522017e-02 -3.2811353260157485e+00
    1.2207965431021810e-02 -2.0402562226595200e+00
    1.2946678858416036e-02 -2.1879887270723102e+00
    1.5134695140897846e-02 -2.7885675797104281e+00
    1.4624690872792596e-02 -2.6233039253071717e+00
    1.4274430293206415e-02 -2.4908880861645195e+00
    1.2522092121114641e-02 -2.1757135060436688e+00
    1.1385815480812227e-02 -2.0024802976878506e+00
    1.1554518263143411e-02 -2.0162634369185253e+00
    1.3136607782292933e-02 -2.3859363884589539e+00
    1.1605030536474891e-02 -2.0221765709807498e+00
    1.2248649714623448e-02 -2.1909772177032694e+00
    1.1873932814469653e-02 -1.9859152632200496e+00
    1.1517863662057967e-02 -2.0732154591704339e+00
    1.1923695516656377e-02 -2.1447747310585656e+00
    1.1376866136860331e-02 -1.9397556763346866e+00
    1.4346966040597615e-02 -2.5752804042872719e+00
    1.5036425220126460e-02 -2.6877610080976044e+00
    1.2761978975488079e-02 -2.1216790046748932e+00
    1.4473978850522215e-02 -1.8219120878094839e+00
    1.6834421939683521e-02 -2.1190328616576632e+00
    1.2076933572783369e-02 -1.5881167648210130e+00
    1.8137698675687246e-02 -1.3716634623488480e+00
    1.9004198164442272e-02 -1.3469225449048461e+00
    1.3693351447538219e-02 -1.6175271397404523e+00
    1.5285446012893578e-02 -1.0623384978961037e+00
    1.5887533038966097e-02 -1.1518461453250419e+00
    1.3474583641008626e-02 -1.7348526437798606e+00
    2.6511731188580689e-02 -2.1640200582678988e+00
    2.8539594100738971e-02 -2.3509490640483728e+00
    1.9812665331964498e-02 -2.8332111424709230e+00
    1.3413174422212331e-02 -1.7789222577459105e+00
    1.1562818715875191e-02 -1.4858222049899621e+00
    1.2328324866446321e-02 -1.9555805319400477e+00
    1.1938024941085422e-02 -1.5474664829881977e+00
    1.1056739592555501e-02 -1.3945312811110626e+00
    1.4496179401187605e-02 -2.2034192689805159e+00
    1.5760281034320981e-02 -2.5157348601034868e+00
    1.3756694751361442e-02 -2.1340072733049436e+00
    1.3065635226288851e-02 -2.0366058908977749e+00
    2.0754731412103551e-02 -2.8926906905619325e+00
    1.6521733274433952e-02 -2.1602166256322390e+00
    1.7551331291887465e-02 -2.3058061484717158e+00
    1.6626304501667532e-02 -1.9785302356984362e+00
    1.6175419266061513e-02 -1.8702828526383624e+00
    1.4366941199586475e-02 -1.6306478261530650e+00
    1.5875047131054004e-02 -1.5974266175623091e+00
    1.5194770935571927e-02 -1.5555646745291760e+00
    1.4422212312963915e-02 -1.5900489075042716e+00
    1.5246782501577382e-02 -1.8543899217543491e+00
    1.5216276731324616e-02 -1.9248590065125639e+00
    1.6821019980251869e-02 -2.3149928747821633e+00
    1.4225240400814684e-02 -1.4082987996806537e+00
    1.4448532642027830e-02 -1.4484653973632899e+00
    1.3537037901417380e-02 -1.3757014767315412e+00
    1.2614860484418277e-02 -1.0517639928883737e+00
    1.2977320961690204e-02 -1.0625181537383854e+00
    1.3837600104047682e-02 -1.1969524090001245e+00
    1.1056655112092839e-02 -1.1789158513268989e+00
    1.0775801069363194e-02 -1.0533345545302522e+00
    1.1331228792367134e-02 -1.1798641980052278e+00
    1.4306921217693348e-02 -1.9367994598452369e+00
    1.5240224180012427e-02 -2.0002794236266310e+00
    1.4665721776503902e-02 -1.9377084897205781e+00
    1.3567841149948223e-02 -2.0707917555108475e+00
    1.3695598660415637e-02 -2.2067033341594695e+00
    1.2699564638606334e-02 -1.9398584985471177e+00
    2.0004001200400138e-02 -1.8803761128376129e+00
    1.9178587170377223e-02 -1.8675149257154822e+00
    1.4910459545685911e-02 -1.9737720823601723e+00
    1.7227022505976297e-02 -1.2554192651230227e+00
    1.7770627087527802e-02 -1.2461652245128871e+00
    1.3756043945446290e-02 -1.7349810426194132e+00
    1.6058689344064323e-02 -1.3087831815412423e+00
    1.8546813896625255e-02 -1.4860634634670986e+00
    1.6996212391197942e-02 -2.4049640533545089e+00
    2.1614360163754190e-02 -3.2853827448906370e+00
    2.0885023486759940e-02 -3.1144791274630763e+00
    2.4792171372460571e-02 -4.2456593475338726e+00
    1.8985084176504980e-02 -3.8682109009628896e+00
    1.8425746595068345e-02 -3.7542458687451754e+00
    1.7394962936024584e-02 -3.4463770316998708e+00
    1.8327810367085980e-02 -3.8121845563538836e+00
    1.5751938469142038e-02 -3.1897675400012626e+00
    1.3942297646833329e-02 -2.6333514680456451e+00
    2.3143533053115631e-02 -5.0076819643678947e+00
    2.0853779086698509e-02 -4.3714734410491749e+00
    1.4981825078411974e-02 -3.0057286563564021e+00
    1.8883950165059258e-02 -3.8830122526903099e+00
    2.0827754813950290e-02 -4.3035348384324790e+00
    1.6274994514898646e-02 -3.2692395231802656e+00
    1.5955165159354006e-02 -2.9098232459371869e+00
    1.6683510743753769e-02 -3.0259717611483397e+00
    1.9823428640603082e-02 -3.8779582278179778e+00
    1.3743919258229969e-02 -2.4979573251832967e+00
    1.6485106798959020e-02 -3.1218671000528642e+00
    1.2402102148439040e-02 -2.1734684015139418e+00
    1.1526001574769249e-02 -2.0300170273562341e+00
    1.3800674563269668e-02 -2.6031522394967412e+00
    1.1760840497330017e-02 -2.0228645655407629e+00
    1.1315881356819652e-02 -1.9802792374434390e+00
    1.2745981771806457e-02 -2.3054294529754928e+00
    1.1452905487499278e-02 -1.9527203856186268e+00
    1.2106892987237316e-02 -2.1292998041303628e+00
    1.1097771403714660e-02 -1.8685872601004558e+00
    1.1757791567396394e-02 -2.0047034622410851e+00
    1.4123874665807841e-02 -2.3904657871879769e+00
    1.3519397589740757e-02 -2.2526696233905534e+00
    1.3786220252799186e-02 -2.2747263417118657e+00
    1.8309560641787678e-02 -1.7622952117720641e+00
    2.0426249481576210e-02 -2.1039036966023494e+00
    1.3183902016760550e-02 -1.8506902456027623e+00
    1.6960118531290588e-02 -1.3398493639719564e+00
    1.6352055927920592e-02 -1.1916560757472132e+00
    1.5601004912592557e-02 -2.0261805130229584e+00
    1.6462717633742591e-02 -1.3087860518825361e+00
    1.7338329659453419e-02 -1.3632261694745251e+00
    1.6091954687374281e-02 -2.2629311279120081e+00
    1.5321285325897389e-02 -1.6623594578598668e+00
    1.4687852240597179e-02 -1.5881240235145699e+00
    1.4587275089314424e-02 -2.1735039883078491e+00
    1.1563700482621949e-02 -1.4324533972847939e+00
    1.0575831974969935e-02 -1.3087592069025296e+00
    1.1952406151597988e-02 -1.7584977550538541e+00
    1.3198103981088219e-02 -1.8592828983358027e+00
    1.2441875232071502e-02 -1.6765426875216349e+00
    1.1867411780562121e-02 -1.7163244287637969e+00
    1.2366799040325317e-02 -1.7081641174449345e+00
    1.1812007752908329e-02 -1.6064330543955327e+00
    1.1339056946356896e-02 -1.4273037931226742e+00
    1.4785056625214878e-02 -1.7280034930719887e+00
    1.4951860664865240e-02 -1.8409478443615326e+00
    1.3952472063200943e-02 -1.5888377561970075e+00
    1.7384897107098278e-02 -1.8558377661827412e+00
    1.6447714641205469e-02 -1.9141027913702866e+00
    1.6475699915792664e-02 -1.6434510666003181e+00
    1.4381442941030739e-02 -1.3716301205008068e+00
    1.3878372490038638e-02 -1.2889538450123386e+00
    1.2240732498168868e-02 -1.1919413270091934e+00
    1.3873863827543702e-02 -1.2018234540609731e+00
    1.3223176622347342e-02 -1.1355402924440781e+00
    1.2388057536894235e-02 -1.2419027680736470e+00
    1.7691885764837687e-02 -1.3644866896131067e+00
    1.6206988466060820e-02 -1.3269471806587296e+00
    1.7101553544958490e-02 -1.4258420268109142e+00
    2.1168169751959474e-02 -1.5188161797030924e+00
    2.4139458186964665e-02 -1.8798603063098733e+00
    1.9664212360835900e-02 -1.6100073870434393e+00
    1.3553191195291893e-02 -1.3197419926415481e+00
    1.3200691090769672e-02 -1.3877226509171618e+00
    1.3858866627736659e-02 -1.4638427875546847e+00
    1.3034087983616783e-02 -1.5510564700503973e+00
    1.3993907416905604e-02 -1.7684800498114457e+00
    1.4181209941085701e-02 -1.8063316162457912e+00
    1.1877347900357828e-02 -1.7355774619397877e+00
    1.2894791935589862e-02 -2.0099756929600696e+00
    1.2252211729826934e-02 -1.8577416035350089e+00
    1.6682458759387033e-02 -2.1228428771319998e+00
    1.6946110207344087e-02 -2.3724554290281721e+00
    1.3679251394041046e-02 -1.9852013585602069e+00
    1.7870147038017613e-02 -1.4966248144339751e+00
    1.8944425310456640e-02 -1.4800332273794250e+00
    1.4952043467208553e-02 -1.9512416724707162e+00
    1.6901010321099592e-02 -1.0626510239391369e+00
    1.9490178206822872e-02 -1.2278812270298409e+00
    1.4294856618507811e-02 -1.9494610713490026e+00
    1.6354071690750961e-02 -1.7212660454515387e+00
    2.1306834639167792e-02 -2.4369692118548163e+00
    1.7337148889127206e-02 -2.6395809183696173e+00
    1.7159481878124879e-02 -2.9643004944460727e+00
    1.8128382624328317e-02 -3.3197600680801229e+00
    1.7643415285037371e-02 -3.1008302363453182e+00
    1.4808823430231238e-02 -2.9506580684735741e+00
    1.4601871244750030e-02 -2.8929957403660995e+00
    1.4490685058903066e-02 -2.7985135520006548e+00
    2.1423252140732145e-02 -4.5229841082120741e+00
    1.5430822957775451e-02 -3.1073819731220316e+00
    1.6371458648164514e-02 -3.1515057897716687e+00
    2.0282434500939743e-02 -4.2212816805080839e+00
    1.6257610628923662e-02 -3.2637153337564251e+00
    1.5109111711019620e-02 -3.0161564253122917e+00
    1.8433571190021564e-02 -3.5346372756866349e+00
    1.3476973441423880e-02 -2.4747092481814601e+00
    1.4186560348568206e-02 -2.6617533854001096e+00
    1.2671686352679094e-02 -2.2872393866585763e+00
    1.2998528000051272e-02 -2.3722313600093572e+00
    1.3431897057153426e-02 -2.3774457791161563e+00
    1.1879953720542430e-02 -2.1443316465579088e+00
    1.3119126694050475e-02 -2.4237586567258251e+00
    1.3895277286523185e-02 -2.5237297371647736e+00
    1.0852040082161386e-02 -1.9330196396349968e+00
    1.3938382195477661e-02 -2.6134466616520613e+00
    1.2327666178149217e-02 -2.2035703293441724e+00
    1.4021026273627906e-02 -2.5798688343475344e+00
    1.5392928900406963e-02 -2.8438436143501864e+00
    1.4623591326170072e-02 -2.6139669495529003e+00
    1.7288984418262269e-02 -2.5587696939028159e+00
    2.0352149555308383e-02 -3.1062468258789417e+00
    1.6625191501309866e-02 -2.7701725339057566e+00
    1.4840512779926096e-02 -1.2558783940012459e+00
    1.5077816218637793e-02 -1.3683118218413797e+00
    1.8109051129835053e-02 -2.7322030892138636e+00
    1.6246342604757089e-02 -1.3606311931484061e+00
    1.5665239032838230e-02 -1.4157459775927550e+00
    1.6728350012401114e-02 -2.3921540517733595e+00
    1.6402261043504094e-02 -1.7632430621766901e+00
    1.6713193234237703e-02 -1.7987574218348328e+00
    1.5962754457687349e-02 -2.6019289766030380e+00
    1.1863431264698453e-02 -1.8269684147635619e+00
    1.1732677573200640e-02 -1.7950996686996978e+00
    1.6965647664036212e-02 -3.1492483476367217e+00
    1.3732170481340757e-02 -2.0117629755164210e+00
    1.3094078890964710e-02 -1.8626327222397301e+00
    1.7644316421506528e-02 -2.8782291162582525e+00
    1.6609095970747993e-02 -2.7571099311441669e+00
    1.8212700593014396e-02 -3.1052654511089544e+00
    1.6440488876919263e-02 -2.7517268257743615e+00
    1.4474997601730577e-02 -1.9287934304305994e+00
    1.4092218673544437e-02 -1.7949963535427227e+00
    1.4978857285595261e-02 -1.9772091616985745e+00
    1.8987650768942890e-02 -2.0364255449691249e+00
    2.0444383868581984e-02 -2.1159937303982352e+00
    1.8032109966921960e-02 -1.8347671891343094e+00
    1.3790172733090130e-02 -1.7875511405268081e+00
    1.3616493639984982e-02 -1.8058874690030082e+00
    1.3765958403383741e-02 -1.5899681955908220e+00
    1.3720068401743026e-02 -1.8093340204798616e+00
    1.3375981531313514e-02 -1.7622855667505555e+00
    1.3962902723534487e-02 -1.6999834065903239e+00
    1.4833164146738657e-02 -1.6223773285495406e+00
    1.4329647903382261e-02 -1.4974482059034462e+00
    1.4209882875567502e-02 -1.4813802897779120e+00
    1.9290217579343696e-02 -1.9459006983162954e+00
    1.8560735554251986e-02 -1.9767183365278365e+00
    1.9253980654915015e-02 -2.1684795712598035e+00
    1.5972423457846979e-02 -1.4215456877483812e+00
    1.7998353788361936e-02 -1.7030942272237481e+00
    1.7153800557404716e-02 -1.7453992067159299e+00
    2.3791091673507108e-02 -1.4839693431350058e+00
    2.3463033827469382e-02 -1.4693724934452701e+00
    2.2163811355173667e-02 -1.3575334455043870e+00
    1.5061026665356697e-02 -1.3705534265474595e+00
    1.4978463463380340e-02 -1.4435494162832803e+00
    1.5105636775962201e-02 -1.4727995856563145e+00
    1.2098804531760305e-02 -1.6892955827470326e+00
    1.2251177276257401e-02 -1.6554403294542812e+00
    1.0867799856897866e-02 -1.5051902801803545e+00
    1.2952718608603170e-02 -2.0562440791157530e+00
    1.2516772589678140e-02 -1.9917314383325342e+00
    1.2603083158218949e-02 -1.9456009625500503e+00
    1.8767195485627584e-02 -1.8086884649273585e+00
    2.1112442287676718e-02 -1.9977648514714095e+00
    1.4556936195072466e-02 -1.9342528969202539e+00
    1.5981886804728559e-02 -1.2126256613087794e+00
    1.6734351056867370e-02 -1.3596660233704738e+00
    1.5084381525581139e-02 -2.0646747213139185e+00
    1.3338150757743476e-02 -1.3171423873271682e+00
    1.4771944161316454e-02 -1.5418216718374049e+00
    2.0732416739616729e-02 -3.4493558350537334e+00
    1.5459925822101117e-02 -2.0986849303502266e+00
    1.8745749965357862e-02 -2.6876719012831836e+00
    1.4927555563488631e-02 -2.3548218901403315e+00
    1.5415202492684073e-02 -2.8518124611465536e+00
    1.9318487413923825e-02 -3.7284680708872981e+00
    1.7997260687946118e-02 -3.3497401455439713e+00
    1.5017761967763027e-02 -2.9172002622379680e+00
    1.6789540016977154e-02 -3.2907498433275224e+00
    1.5575437142413799e-02 -2.8483580674189235e+00
    1.7898973010163560e-02 -3.5596582573962778e+00
    1.7529071181270065e-02 -3.4641826921984968e+00
    1.7186585111954589e-02 -3.3449391274141620e+00
    1.6345228375367261e-02 -3.1158091590543844e+00
    1.6041246951434149e-02 -3.0839297264132153e+00
    1.5483216851898110e-02 -2.9282633871152299e+00
    1.2024448010714867e-02 -2.1568853619219790e+00
    1.3091764303181501e-02 -2.4285222782401683e+00
    1.2507712821121385e-02 -2.1372554283091167e+00
    1.0520206882034026e-02 -1.8029004544085814e+00
    1.3202129031477322e-02 -2.4011372175999379e+00
    1.1981755193630570e-02 -2.0593641739052542e+00
    1.0821893313851421e-02 -1.8464855466758987e+00
    1.2487704323090326e-02 -2.1962749978235112e+00
    1.3247230176012920e-02 -2.2901149166782337e+00
    1.2088675318208461e-02 -1.9855649210157398e+00
    1.5673504690715878e-02 -2.6527406689036623e+00
    1.5251880036689246e-02 -2.5184666910583116e+00
    1.3953978920807445e-02 -1.5140067129076078e+00
    1.6132836135947865e-02 -1.8593093646679915e+00
    1.7437224050982178e-02 -2.8444471733164676e+00
    1.2189910989747301e-02 -1.0422373896233943e+00
    1.2440626525883673e-02 -1.2238466344838064e+00
    1.6012815380508715e-02 -2.3859094916957986e+00
    1.7605990224805371e-02 -1.3930739765377249e+00
    1.8528250629932196e-02 -1.4868921130520587e+00
    1.5700042983832773e-02 -2.0684806631199679e+00
    1.7197065076872145e-02 -2.3065563534354765e+00
    1.4780211034883963e-02 -1.8050332726352041e+00
    1.7740321725647573e-02 -2.9315881651632614e+00
    1.0674602031568248e-02 -1.7452974321614085e+00
    1.0090856208524035e-02 -1.5602986412430289e+00
    1.4133680028904576e-02 -2.5528959552208890e+00
    1.4677046193105777e-02 -2.6015064377279988e+00
    1.5991590634408092e-02 -2.9124684442915738e+00
    1.6826972453769219e-02 -3.1361269910712384e+00
    1.8052482646579878e-02 -3.5473128400529461e+00
    1.7980842627202499e-02 -3.5602068401860949e+00
    2.4558023611722987e-02 -4.8839769457814093e+00
    1.3939482421467451e-02 -2.2268323168294253e+00
    1.3497059674758730e-02 -2.0768600574534997e+00
    1.3861258750413044e-02 -2.1380991622512120e+00
    1.3688038783306015e-02 -2.0874259144541671e+00
    1.2670430739654005e-02 -1.8673047302565089e+00
    1.3441904454892887e-02 -1.9625180504143613e+00
    1.5853057338939592e-02 -2.1877219127736636e+00
    1.9970627333455372e-02 -2.9980904284349879e+00
    1.9357866760605833e-02 -2.6302501460973176e+00
    2.2768564225901358e-02 -3.7653513088584369e+00
    1.7906459241433810e-02 -2.8471270193879756e+00
    1.9661361562578365e-02 -3.0057306488791675e+00
    1.4659195638287161e-02 -2.3747896934025201e+00
    1.4243717263430294e-02 -2.2255808224109837e+00
    1.5967618568167318e-02 -2.5847582557220847e+00
    1.0904010688383663e-02 -1.3425563160072385e+00
    1.1725265374384628e-02 -1.5917047745727133e+00
    1.3004640639937710e-02 -1.8369054903912017e+00
    1.3064102065009024e-02 -1.6019855157217315e+00
    1.3332611169786368e-02 -1.6282451391101602e+00
    1.4234334643776738e-02 -1.8184362507424783e+00
    1.4658112896218040e-02 -1.4108433662609863e+00
    1.5273072877245256e-02 -1.4776698008734785e+00
    1.5183792360022468e-02 -1.3437656238619884e+00
    2.1585387321884222e-02 -1.4138428695834164e+00
    2.2227797021643948e-02 -1.5031547735886719e+00
    2.9669745500342612e-02 -2.3253663035893521e+00
    1.2146235833033925e-02 -1.4499569025684247e+00
    1.2012621384530402e-02 -1.3829530368940626e+00
    1.3761395498278225e-02 -1.7270551350339172e+00
    1.2106338465858324e-02 -1.9203679391467765e+00
    1.2396457737935662e-02 -1.8238288446937843e+00
    1.1458084776806985e-02 -1.7316030618949556e+00
    1.6764306221198420e-02 -2.4014868661866737e+00
    1.6540933763928112e-02 -2.3446773610368101e+00
    1.3973122349473094e-02 -2.1483675612314883e+00
    1.6257610628923662e-02 -1.1583547573108108e+00
    1.6266077050133297e-02 -1.3500843951610637e+00
    1.4575673173723559e-02 -1.9148790631979324e+00
    1.4674601453053103e-02 -1.2858619523237782e+00
    1.6985176286609390e-02 -1.5371584539381498e+00
    1.5606436485304229e-02 -2.2473268538838092e+00
    1.4643691045073461e-02 -1.6712112405190087e+00
    1.5119118898543820e-02 -1.7651571314049910e+00
    1.5067864040202314e-02 -2.4409939745127747e+00
    1.3076924044151223e-02 -2.0857693850421199e+00
    1.5693154216878131e-02 -2.7070691024114777e+00
    1.5979559237901394e-02 -2.8203922054895960e+00
    1.1375945909234941e-02 -2.0306063447984370e+00
    1.4591180914715235e-02 -2.7194313429800516e+00
    1.4135974564944739e-02 -2.5851163485642692e+00
    1.1571342851193959e-02 -2.0785024596457151e+00
    1.5194743527951724e-02 -2.9097933856027551e+00
    1.2977508784045241e-02 -2.2743084144039285e+00
    1.5005076794972113e-02 -2.8097006298585283e+00
    1.8406228617263862e-02 -3.6214254804466650e+00
    1.3091203375813340e-02 -2.3564166076464010e+00
    1.4252869632334356e-02 -2.6385624906858975e+00
    1.3989092759813318e-02 -2.5320257895262106e+00
    1.4341270846401197e-02 -2.6083186351892178e+00
    1.1329228844230712e-02 -2.0151865806675380e+00
    1.2942137650326516e-02 -2.3781177932474975e+00
    1.1565537137597011e-02 -2.0080663855152809e+00
    1.1009731484602254e-02 -1.8592684044622056e+00
    1.2402415124900880e-02 -2.1440675147172397e+00
    1.2260482404300844e-02 -2.0107191143053385e+00
    1.4506948338889152e-02 -2.0491064528680925e+00
    1.6320821702246160e-02 -2.3053160654422702e+00
    1.6712901459996821e-02 -2.7931436565019685e+00
    1.2288931467881873e-02 -1.2580793590244068e+00
    1.2477660129064946e-02 -1.1884971272934362e+00
    1.7560123739823422e-02 -2.9391257109529452e+00
    1.1531304670014068e-02 -1.0407002464687696e+00
    1.1836612079462206e-02 -1.1525901012376323e+00
    1.4771616796563376e-02 -2.2785218908699005e+00
    1.8503652085058855e-02 -2.0677831205053270e+00
    1.8057816625277213e-02 -2.0269899161873672e+00
    1.8531680383735098e-02 -2.9117902802943774e+00
    1.1721589703054957e-02 -1.6527441481307490e+00
    1.0867328570904262e-02 -1.4304121231452736e+00
    1.5974238352199101e-02 -2.6816752633754239e+00
    1.3066872602201662e-02 -1.9796311992335518e+00
    1.3257558296005219e-02 -2.0234348349277966e+00
    1.7328036577028583e-02 -2.9847543003931736e+00
    1.6832931250988024e-02 -3.2087775197195922e+00
    1.5625983569502261e-02 -3.0255810686448754e+00
    1.7251638983558856e-02 -3.2864372263679620e+00
    1.7928209040586320e-02 -3.4198058744918405e+00
    1.8110164727765592e-02 -3.4658327747761404e+00
    1.8546365332304287e-02 -3.4681703171409017e+00
    1.3904844928127227e-02 -2.4072762781820263e+00
    1.3327115463281776e-02 -2.2589460710262612e+00
    1.3018408432988455e-02 -2.1773288104173192e+00
    1.3806654080852533e-02 -2.3712928383864225e+00
    1.2837139708415558e-02 -2.1887323202848528e+00
    1.2504045542223830e-02 -2.0022102924485909e+00
    2.0987690558053249e-02 -3.8905931371991209e+00
    1.8175482276579898e-02 -3.2920342273455341e+00
    1.9693206375579708e-02 -3.5349305444165573e+00
    1.6679992817596637e-02 -3.2025586209785546e+00
    1.6778643054061626e-02 -3.2026234929440127e+00
    1.8910098953630425e-02 -3.6945605830655444e+00
    1.3973228922030727e-02 -2.4575416366621541e+00
    1.3986548349534833e-02 -2.4598841909744387e+00
    1.4330751443159028e-02 -2.5365430054391478e+00
    1.2024665339490773e-02 -1.7751412207423254e+00
    1.1783681062208283e-02 -1.6732827108335762e+00
    1.1871174111923555e-02 -1.8118379488323326e+00
    1.1971380709516621e-02 -1.6311006216716397e+00
    1.1783796110940711e-02 -1.5893395004631283e+00
    1.3130095031058209e-02 -1.9908506590842010e+00
    1.1135367264005304e-02 -1.2805672353606099e+00
    1.1596407424146506e-02 -1.4307067659540751e+00
